0.0772816294742833,-0.0834168769521586,0.2468194135941057,-0.06490758391922193,-0.010612302375293156,0.0943172861747204,0.1422511324986567,-0.043304255445862964,-0.03287392981271149,-0.1421998701340853,-0.00801163499351989,0.2844700186177576,0.009307868180217524,-0.10807769809208548,-0.01875507163593726,0.05790168241284135,0.035596601640150695,-0.03601205472901753,-0.06716823472181381,-0.09269607983649669,-0.10763576127689478,0.07555734602438507,-0.0525691530810538,-0.13195989800065017,0.16432548328022098,-0.02750138877173185,-0.014886302974646376,0.007319015471439635,-0.035335614030718755,-0.0549089728998496,0.18469157669835606,-0.0474166502072452,-0.02802890171994994,-0.005322389094554638,0.1502625890174809,0.07897397792933862,-0.03090192265629358,0.04800058580996292,-0.001344329370310791,0.028525416934051688,0.034777300819044024,-0.07019830498881946,-0.0038663643945116254,-0.07851839442676613,0.28232461059653413,0.15057713353679406,0.11902089988217249,0.17133578900978977,0.2381883180598634,-0.03927439504568185,0.14357555601195252,-0.10578871846469236,0.021028194002597096,0.027379640029062773,0.10567973848018987,-0.13336482339679245,0.2865018446463223,0.06344221211100236,-0.040317697996246266,-0.061392803638476844,0.0232218698681002,0.033301130088960726,0.011776813819820485,0.029492993636565715,0.19706252632976565,-0.029379233606896073,0.07267392487456543,-0.0016500269264432584,-0.09809184347224392,0.011681337850798033,0.05470572543735017,0.136372485784792,0.2613677660466876,0.057062042370595686,0.002636491122687462,-0.025082095770264094,-0.06792936912831128,0.026549550448161915,-0.03056463492760915,-0.19525868867327356,-0.04435598255447288,0.04094246917919114,-0.034867926696471756,0.1129146892300129,0.2552034327614925,0.1558146206889519,0.0564115907171829,0.09004428741891249,0.06767231635657771,-0.016216036430594827,-0.014775711107616779,-0.004979668916598699,-0.0506866540630696,-0.032772436825211665,-0.05243776859294536,-0.09335267936467523,-0.15929512072526567,0.288688346852952,0.019198526963249776,-0.020193762235263455
