0.017252488270261237,0.0824062458815048,-0.0047805233649242315,-0.01424735016671163,-0.03346624634338891,0.008226423897965926,0.006638267962256257,0.022680205342760832,0.03088729690183854,0.02258292552051183,0.040405616712228386,0.031009679011963765,-0.008948654608292162,-0.022124948290449708,-0.09835444090800172,-0.08680202408973069,0.03309878506633685,-0.07328049408879259,0.042137128290499204,-0.0034588693255920254,-0.028805962209473384,0.004526086537731041,-0.0019578566446965423,0.006923607640050801,0.01618213271045145,0.04476219715473084,0.007461314360661451,0.05412973789182923,-0.022065613621043607,-0.05684767939563071,-0.006335259084446332,-0.0015132763459428998,0.005252045169209419,-0.00791041889608013,0.015858826769482474,0.01986252036880493,-0.008892937974945128,-0.04674561616374425,-0.09069632404845003,0.04211986757645682,-0.11708831388095879,0.011354696603447898,-0.0689895028712918,-0.05298550148991023,3.390355286473527e-05,0.020222271936036155,-0.047856555257203254,0.027533657807779836,0.01207741553144047,-0.028692745197351516,0.02679181207377978,0.00402670827718396,0.051636282882084876,-0.037430731836834506,-0.012354843189080622,0.0073282877365974065,0.01334650341144665,0.026182990280452522,-0.025572630794545248,-0.005463533730327368,0.030724631407958263,-0.047031353108014345,-0.013479811955310218,0.037331790413964644,-0.04681655562719843,0.0010222874276932133,0.057441286767693535,0.04944916519838713,0.02639302841922043,0.005500618735131733,0.024777199266296915,-0.014147697991157683,0.010518969427808372,-0.03871427429386123,-0.052328556721479035,-0.022105347162406006,0.03607249508398989,0.04229047913898215,-0.03533815414246358,0.015128447077450927,-0.010524021011018729,-0.042552778523964704,0.0125860757579117,-0.004085953394220918,-0.0006534019725551398,-0.0016509056179262627,-0.02656319407579421,-0.05610333522115695,-0.009766963955101956,-0.045807807216970524,0.028269317541043518,0.027293227577118075,-0.018518375950292806,0.04389440658511367,0.001878618829392236,-0.027326928788578682,-0.0735143951076608,-0.008847009316317213,0.031311465822181694,-0.08049293696743536,-0.012706265096736951,-0.006214382250262156,0.024446322589703074,0.015132191305720074,0.0020374113317184204,-0.032013131520443654,0.048601909301514395,-0.024289491812608994,-0.011074846731482721,0.043436159119627296,-0.021293494105521192,0.022902163956023472,0.012230398477723399,-0.003945354309739017,0.011366466110554531,-0.007545334420503219,0.027331192999963158,-0.03617014485637655,-0.05920000194503296,0.04303985820092811,0.012080537279356785,-0.007237297022962742,-0.02754942537981381,-0.008624359939212496,-0.017972324999776815,0.032729512311681315,0.018323620488935023,-0.01960134279880957,-0.022162939686122173,0.018640198316580755,-0.0010704526110561414,-0.0071672963610080985,-0.030839123841082717,-8.780589551349243e-07,0.056912901294404315,-0.0073846482597862305,0.024021729034033046,-0.01826365094985683,-0.10430074866345404,-0.030376553142435408,-0.027363957473870642,-0.09261268431586366,-0.039275490060286064,-0.0015361996993924728,0.05611222111883569,0.0331162080899912,-0.0012081954167104257,-0.013205963144055055,0.01929678640810396,-0.019043991828914798,0.042039681958779024,-0.08376507441586124,-0.011412720717670497,-0.0031118634370164546,0.02228667103155107,0.009476308774387612,-0.02499051843039846,0.05212598314470873,-0.027178880752064538,0.017876924842175273,0.06899263653138116,-0.007469087786932936,-0.043049702719022864,-0.023868653343657325,0.014258097625119297,0.004777109694822546,-0.05587717692247086,0.028440649323515223,-0.08809893691512595,-0.02239064702039278,0.06971042385443114,-0.03825524024714326,-0.035277832648594104,-0.017141289884096862,0.0004292095356786848,0.022935148419911826,-0.014540670842993939,0.032434384596146774,-0.05386961587828029,0.046331617933125915,-0.0343933422229879,-0.0265446760193117,-0.018423122387195952,0.0643131509742667,0.0054317647941636476,-0.036336680285694214,-0.0022996768643932138,-0.02048067872366962,0.0187085673347471,-0.02824350125405445,-0.016002019253654392,-0.02834809317143782,0.03597782214016638,-0.02034827217070174,0.021149446366262637,-0.009653464938601196,-0.09377310054667183,-0.03239269326291516,0.02863177487120341,-0.01021811916408498,0.023418820625055504,-0.0267525219543835,-0.013551421280092487,0.015652533444914754,0.039178690124753494,-0.047649636226627656,-0.1022353247563863,0.013036765183856224,-0.033718635152225486,-0.1018797058766754,-0.10121359569878371,-0.0222877473008001,-0.03458647747024069,0.026651204863614067,-0.021464461384618713,0.04653139684434522,-0.02967967667414701,0.026970500273849222,0.031319976078288285,-0.07554634479103776,0.007056743130104475,-0.0062901982790684145,0.05343634984210112,-0.045557854160723985,-0.0032886068951366544,0.020688614414262313,0.015244916653606843,-0.06255433254903804,0.001033831596968183,-0.006157736617914369,0.0022272569136648165,0.02496990544337088,-0.04826216098933044,0.031123755465393303,0.032727074638366375,0.02225063148794381,-0.01789515550075119,-0.004255250633791686,-0.033779071647947224,0.02229382598779209,-0.0008552448101938221,-0.08621874921092727,-0.12683486527926688,0.0005445495575684584,-0.07725264453229613,0.013762706029915332,0.014717231999774502,-0.05379155789710803,-0.023802458535167395,0.01481016606355994,-0.0432862745185915,-0.03341285273493841,-0.01461685232641058,-0.020436108385863565,0.010047081033543515,-0.014367729607347057,-0.0010803049503531,0.02104575848095828,0.01994884869658987,-0.004580524133442246,-0.008371880115066168,0.029734587734586104,-0.04509210160660256,-0.029275330682064598,-0.013338584316807912,-0.027321378829608715,-0.005198084929162836,-0.0865486924805617,-0.09244020422516121,0.022291309195792433,-0.02382156809439191,-0.01474544318532919,-0.029670744312613573,0.0014795628521895499,-0.008254316880916532,0.015127073451853046,0.012145823110141785,-0.035508758063514306,0.02319282314219828,0.028557198759404663,0.004438143847131829,-0.016807601118948485,-0.14440465443547737,-0.06998787663698579,0.023403707509390564,-0.03242831817640074,-0.015844780102075674,-0.002858590269329506,-0.01252029640972727,-0.07466291595312895,0.01905183848235039,0.030398051819646527,-0.004877982441416735,-0.04148249083741852,0.022971373160290336,-0.0019572892323922713,0.03767539254114659,-0.02925537055269223,-0.049196286905398685,-0.022490622142553242,-0.023318434394059003,0.018624528785845397,0.04358781396380692,-0.057991805489588634,-0.05031691101109673,-0.0064234331839735734,0.02796876835577867,-0.03022274544633661,-0.00932053874262334,0.011751583409258937,0.03658892110048905,0.013307854346163096,0.027486843040703746,-0.02257779192614974,-0.017881863346530344,-0.05343319676047036,-0.021641494550315853,-0.01858956258473569,-0.0019604580404854067,0.02671885054407129,0.03371460367083443,-0.018560750208803104,-0.03045778605849622,0.017217602640594288,-0.005123032498073299,0.026345547652801213,0.0014376322960380616,-0.03628134498120944,-0.022939044687343636,-0.025334064733961575,-0.022767213026781846,0.02257611295359767,-0.03576801830370221,0.04778834027743826,0.01846165838098744,0.03589106934222655,0.010374522082190396,0.0035096844139876787,-0.020243409947784754,0.022954573163431517,-0.02892092626805938,0.013530339590474139,-0.03793077851470275,-0.0086063405310292,-0.029375049203587415,-0.02475650359759586,-0.00948564153059867,-0.031750862636884515,-0.03183415475762132,0.023400062762953717,0.027840034553190417,0.0038441117812971826,-0.02697235456403385,-0.007798554533569173,-0.013382721658979527,-0.01653542991661746,-0.04622231405133985,-0.004390706228246653,-0.10195716574982963,0.023827113645256245,-0.017584227602280754,-0.08333280087475385,0.03516933958632491,0.016013212723958344,0.012190674331489739,-0.0029048851333903763,-0.054380186020580173,-0.0073559660043148465,-0.03358422842091275,-0.0010232918479526312,0.018485332372283617,0.01920363390603063,-0.03195448568541471,-0.002652046108311793,-0.014214552307091401,-0.021252616570127704,0.0005146860994700387,-0.020581937401306108,-0.0013045317597644261,0.017302191088022088,-0.06316394978294128,-0.020182418809397133,-0.010737142212640535,0.020878667731909224,-0.03268506137418845,-0.007212299017416058,-0.002508200152948958,-0.06424404377564487,-0.024461086869026594,0.0030126384940987647,0.024177617292290572,-0.10501299241434743,-0.028178333584921264,-0.008630342140456953,-0.0027097390572969806,0.038513427860607144,-0.023426293469042514,0.031562474216018994,-0.019936740921865502,-0.07337391679137217,-0.017773994133936134,0.019991679984160883,-0.022884435869005557,-0.016393852251937093,0.03868192122753681,-0.009024546573097815,0.03387396657550986,-0.050161814119861474,0.017083312337456757,-0.020035015090384006,0.02147481630482149,-0.016452682916653676,0.03699552301129616,0.002378097411669891,0.07440835543877419,-0.014001976716010275,0.029561737707298613,-0.001988514242849929,0.05219028230217022,0.02697019943409146,0.013369666640493641,0.01788210403234271,0.03191626103459177,-0.006669868383219528,0.010744836314663504,-0.02233355909402674,0.04168796659598755,-0.07168082602990786,0.011717177794714019,-0.01822461332405086,-0.014877902365962014,-0.027658742456639077,0.007723128684675915,0.008442417729018516,0.041326509901170295,0.023206767259325446,0.04548995261508693,-0.015180213464363919,-0.042197558428162474,-0.018075288410154832,0.01884631664351391,-0.08963834785634794,0.06341075271289447,-0.006693882252074947,0.042938155480046675,0.009854869352625478,0.02174809527378683,0.02141160094241538,0.01598267726080989,0.00010672165098228771,-0.0312624056766262,-0.041902823817709295,0.0027865540633255897,-0.021525816866912992,0.031385341851151785,0.0341839412447179,-0.030462652502133657,-0.0036730353495353085,0.04432357669025787,-0.0011664194105467922,0.015125153326160172,0.011923378096720182,0.02682809730072185,0.022847300269376026,-0.025133209853348736,-0.005027598151711592,-0.10351890710431474,-0.03192261719332583,-0.007652942831889295,0.022896504894107834,-0.007120212347167203,-0.016772612875448723,-0.00971322306393294,-0.03111726037385085,0.008330193137801584,0.005148675426521219,0.025893103406726625,0.0039112503457789305,-0.0021976697170848014,0.012366501995206508,-0.0026226748834887936,-0.017175386426374957,-0.04141564953248293,0.01959312363954545,0.02604430662776123,0.028136641591601258,-0.011453578302664984,0.02639500752192653,-0.0020504648936873608,0.03834185475630707,0.012134612544271622,-0.04947919366541673,-0.05385294639899253,-0.0037732707569018793,0.03141248603298595,0.013183879347101435,-0.028536966606347598,0.013052315800998991,-0.05235318085979967,0.004582246058693504
