0.014849636716025509,0.020082887333303732,-0.017565014365366314,-0.04230480596765378,-0.06631706956529243,-0.022805507719028048,0.01789545830272151,-0.006661711638954811,-0.0359041338898131,0.03217457506578596,-0.03368638443380511,-0.05999319307466502,0.013127805806328363,-0.012703078557177679,0.02931157216907379,-0.025896769414680082,0.048476187675128624,0.016622482916808144,-0.02477190645060721,-0.047167794515940435,0.032317200764137105,0.03195726805958502,0.06815509146248235,0.04822040564556601,0.028156820487457632,-0.037366649965213085,-0.014145571669811152,0.0235024836437153,-0.011966978028475378,0.004497855586892203,-0.03975726983272183,0.01881652691943885,-0.06338799045074811,0.03979934565698208,-0.0016477347770650535,-0.08382439043583174,-0.013317621702987439,0.020141049346761895,-0.03778696424380298,-0.03535740152261443,0.014735448387338335,0.04428114827747908,0.05471753433571866,-0.08851713167411122,-0.11170118430408205,-0.00581592553003199,0.06374821509618067,-0.01627453530839319,-0.03198319034388161,0.08114463559548313,0.041571090740913204,-0.028828733396365283,-0.11209248455231947,-0.0108173157688315,-0.0019051307652714936,-0.14855757044716028,0.10041896455614475,-0.004226062578745633,0.024913841344046863,0.03344525178954794,-0.0011694858196244118,0.02304383958210754,0.007677483566915362,-0.16106134957578033,-0.03406478447793962,-0.004938572106737899,-0.06758843791859838,0.08236210540728515,-0.019361431548801843,-0.07790376038930506,0.08797686597420629,0.014661540552111411,-0.002414887966033141,0.0709124624677095,0.02221329523679779,-0.07676643081072258,0.018511834604608524,0.0006608944536224712,-0.014097274489033017,-0.10593683789208322,-0.040104630991993066,0.04530216863058787,0.030329663394034395,0.0017994181361843616,0.04464827386414708,0.08076382932476536,-0.04486415692523288,0.04053429830707488,-0.03400474145228426,-0.045705996541529514,-0.05299242183215312,0.12490805113268916,-0.055184054630822967,-0.0008720956549477262,0.06884137222716877,-0.012139974805814847,0.06886659283656893,0.028673770371248727,0.0694920719183804,-0.009606514211971258,-0.004362482955491739,-0.018919857777062215,0.004183399255358012,-0.02635733788229386,0.022864914621920637,-0.011048144306159555,0.07718203943796463,0.018973484207561116,0.03925297339119197,0.012088383115459294,-0.009089233187096507,0.02617001297237715,-0.022078152509401837,0.05997069543530248,-0.010188893967382836,-0.01027132352690538,-0.016141461106946614,0.017679213991070357,0.03715799531322417,0.033975877978747175,-0.09726099713182754,0.02933241717723912,-0.03503091602196039,-0.03474733457549414,-0.010865798385489255,0.055101196159217596,-0.02423144417286899,0.08310696221841546,0.0021385022271845147,0.02261588184048062,0.03561117467532733,0.02802266893003637,0.00263499547342007,-0.0028330133114964923,0.015112296186164527,-0.011839175460862977,0.08509227325385113,0.028387165860693408,-0.042469786456964274,0.013892601312172863,0.049533213432286984,-0.05445254497673848,-0.09556009900374389,-0.00998953330740467,-0.061188830391536025,-0.0705104928733345,-0.0836925968060533,-0.050212315266765416,0.060175948940928196,-0.025816491807212724,0.010056231209285092,-0.035637010602162844,0.011016488594891292,0.031733324839788093,-0.05590282408883232,0.02711407134521022,-0.006079853390465995,-0.08877348260561162,0.03449018429949168,-0.015168638170473448,0.002662599544635557,-0.0062568218583099085,-0.06441941915207547,0.08950715032057774,0.008205059002798385,-0.009418560646467499,0.026399107897166287,0.017989858683874996,0.04772193617575209,-0.026681026325144512,0.024120347797942393,-0.039431984805148416,-0.06580437284314034,0.03259493747229441,-0.020853942800480748,-0.0527853356182516,0.029971768444396443,-0.12758233610678968,0.08991286801457915,-0.06897983113622082,0.041049726694818836,0.007216728620755234,0.05445279007114395,-0.025442794101983853,0.04427203881260526,0.010867646352831946,-0.028450592093273802,-0.041815216694836926,0.02052721865154518,-0.036611312751268894,-0.03009814234874206,-0.022084987366948302,-0.05550538785990984,-0.06416002555587752,-0.03568766356583643,0.019754243660602536,0.00442205317314677,-0.02727345736299573,-0.011353995774365213,0.015914028147119452,-0.03911996577950107,0.12351873571986469,0.001457372301062555,-0.02683157175533518,0.03464416431054449,-0.024821186327407322,-0.0860020505784533,0.03541945913387962,-0.05398297400705919,0.0280563151518928,0.05034951146165837,-0.06360819611282664,0.008805485634159642,-0.029566093386610016,-0.038319438950956346,-0.05334965814971958,0.04737983999747891,-0.033501898868826166,-0.021901387895125655,-0.02931070655501067,-0.05496363765773517,0.02097440808133912,0.009877767315912942,0.005159959515171948,-0.08492138689545134,-0.08161694217973063,0.05243420482732322,-0.009309438977744845,-0.035333376731325916,-0.0028851928756536403,0.016402392551739232,-0.042063390124016165,0.012511586345316444,-0.0031510407598376294,0.0012594217210013842,-0.05734290759964379,0.014805475414450084,0.002933660447272872,-0.019111861043671817,0.03683862565480259,-0.018548174602700824,0.021322543443803865,-0.07247279980231182,0.007238525884033941,0.021305661500236786,-0.014254720870239074,0.022601386815207365,-0.08218629757222226,-0.026063244000062533,0.01743448878647239,0.011273271290898168,-0.014308559346506433,0.05589371977107473,-0.021033688941656144,-0.03778899118767487,-0.07075459832671697,-0.018204167967851258,0.03138819960934996,-0.01378406353838143,0.014934124593378957,0.012704771799962796,-0.08551697849515048,0.08358024442835497,-0.028014310582562818,0.038205929672729566,-0.11136564057081155,-0.006145963556901023,0.01137519399123221,-0.05680568402891568,0.022563169068816398,0.07123066482066337,0.008104574930902103,0.006743532976662102,-0.03741451798509857,-0.033265579543117034,-0.008873182117596794,-0.0448278060729979,0.022027584520790563,-0.10942678492205324,-0.042518884650618705,-0.045858106940094026,0.015939697169777653,-0.035831211815835595,-0.046057005827753315,-0.05036370796494786,0.005423736551869844,-0.07237309237229198,-0.006622269840241557,0.054258231994532356,0.01594644190998906,0.0178874799944502,-0.02294751135733995,0.01453920376028332,0.03658512276957901,-0.07126212052220109,0.03087682986570511,0.019268591235026767,0.027397993985025012,-0.013565431067343146,-0.009965601774855207
