-0.0348949321814509,0.030396562403894215,0.0006389313695060751,-0.02036746708012099,0.008899934109631974,0.013696606428505953,-0.005475860461569978,0.008629603383235498,-0.03574799269960789,-0.040574046046479705,0.010544240207305598,-0.00888765031061407,-0.021975126191226328,0.041857148535650264,0.03088343638177598,-0.028582110162934042,-0.018385077269633267,-0.0123975939111238,-0.006423574693451044,0.01713549404997341,0.04434458782363302,0.018835639819609364,-0.04156558535190388,0.019061642671146857,-0.03773617512232325,0.029402038539821946,-0.03709267378094844,-0.035546771261311394,-0.016898630403270543,0.02633414716397007,-0.022950208910237878,0.026669802369837223,0.00430477479880661,-0.0010416458854272713,0.03265635890873596,-0.026277752531304387,-0.026809505687796487,-0.027050929021489926,-0.012340974964109646,-0.027535982657912673,0.025519132931193966,-0.039566653001085174,-0.036399507827868854,0.025853610761353223,-0.0030826762028629264,-0.006737775378073936,0.04001784331773191,-0.025028439723125576,0.0383754524948873,0.027233151836548057,0.03268513337221031,0.04282594435352538,-0.0009696969041635066,-0.030260647355807066,-0.03304030676021441,-0.04308520999396694,-0.0056768367223998615,-0.04297733851706088,-0.027490386972964596,0.03129949601434017,0.026153511278897257,-0.02338958605306882,-0.04118358105919201,-0.00021997926927304757,0.01703138621990586,-0.03432266724322862,0.002274161167421001,-0.020762745653397044,0.04486137041850261,-0.015610870565055574,-0.04226088775876241,0.007273022741339658,-0.021206947368462025,-0.023546291557592577,0.01007295119372789,-0.019118883126123993,0.027709588057131335,0.04146438077868563,-0.032186717865471594,-0.0069482322254612785,-0.03676643799845787,0.03603166530206251,0.041315648111730094,-0.0007010139769880574,0.03598796781294071,-0.004187303860150559,-0.03705283468861529,-0.04230111976260134,0.04426915885849927,0.017800618744341856,0.028111610838368842,0.03490484180103678,-0.029226219980823538,-0.01257839416553718,0.017324902495095416,0.009165338086037741,0.041834187578617704,-0.01709453477883256,0.015682893623084854,0.03961840230244114,0.007671486740453971,-0.04322369446214302,0.04114951237778534,-0.01602355636972681,0.016209343751350327,-0.040849227828488724,0.0015706134434179423,-0.02991022988370459,0.04103183138652094,0.0318005718064092,-0.02071428430088541,-0.03215590663215937,0.04042202455014533,0.019552481681231276,-0.027182704386080593,-0.03414785334358997,-0.04383141631494879,-0.03915966130932302,0.018980598109216186,0.014866902464548278,-0.007508122466307761,0.04061834978760088,0.02832015168348226,0.01834160204773107,0.026093505175116345,0.002314730295665713,0.034675689425387575,0.028210352986840454,-0.0429650036208607,0.022595352013356333,0.00542178880071391,-0.01312996428787085,-0.004535959359456452,0.015696846331931094,0.03462382977803968,0.0035402603803493474,-0.02869640146842438,-0.024212202299033873,-0.009970476100796523,-0.013165156650431543,-0.02731052505572072,0.02118075349976271,-0.011395532167956638,-0.013857286295785958,0.03984581132775821,0.012102389670162661,-0.041304645711309214,0.03973711627873459,0.03173624288537046,-0.012816223536822104,-0.03830447482681013,-0.01182229927507037,-0.03584604921456689,-0.0015388453412677702,-0.019338459296128232,-0.012779583625779032,0.03985995492691984,0.016401087441254788,-0.04174795947492223,0.02992738208729225,0.037610856280787364,0.036105262252752124,0.030879049073936675,0.010848373831617035,-0.006642521607731592,0.01269873021409533,-0.042527599327267365,0.00977353266350087,-0.013894817151451728,0.016005771168730615,-0.009752257250588516,0.02151416335565809,0.019464998217037024,-0.03948487971117371,0.03980857216683337,-0.00957443863728776,-0.021393969527861663,0.02832322999947514,0.004080709974751104,0.022804204521317307,0.007794058756404017,0.03278305426357922,-0.0023211376694849887,0.0026440496832643287,0.012463085155997427,-0.03186091169495646,-0.04101526603879403,0.010544706106566106,0.032670822391756574,0.03514902523814323,0.0011845414645014038,0.003346921953869652,-0.00826670164473796,0.025572770198606824,0.0098338710410238,-0.00994896877531959,0.02979798640671794,0.040622236969606776,-0.030402120631534243,0.04427387740323102,-0.026451324291483305,0.027343510962300838,0.02021589742806188,-0.018664656341237516,0.024362026820137873,-0.02627160123421908,-0.0146697431011863,-0.03291281458301799,-0.02866324227853317,-0.01904530722501264,-0.01817947450234695,-0.029431736197373017,0.021760479476090628,0.018518545841303326,0.015271022196377684,-0.008699462450043702,-0.03635577941949399,-0.009480395952102667,-0.038333816414329105,-0.019795679500932365,0.022132723457120418,0.025545843845158595,0.03312579894436726,0.001725503713537635,0.03084549966296825,-0.01264448767044892,0.017680597692376628,0.04332634769806242,0.01721275038811194,-0.02211121264747346,-0.00506617844602218,0.03995872513879594,0.03744028869325327,-0.03150218498372638,-0.024789361972390015,-0.025546890305149197,-0.03603640732662176,0.023857076919708,-0.01476298091744118,0.0036272632589280027,0.00036030515845303064,-0.011592063444559294,-0.0347592486188586,-0.027649454859076834,0.021575858912002623,0.031139814394208584,0.04445637869035369,-0.0015333364203899288,0.009886290281051806,0.004846258138996398,-0.022709047845319727,0.020181668512813715,0.01318648911732477,-0.03888716526447232,0.013321238026112832,-0.033936261203263346,0.009569241557276342,0.003920854596178627,0.022288109881227307,-0.035785524476083734,0.024017092520421564,-0.03598716472191435,0.024366755250221826,-0.0020898851460807184,0.029700014805037086,-0.017956620757213843,0.013874607798827791,-0.021753516723181154,0.0030632609269999568,-0.008872632457922362,5.992702288099302e-05,0.022900055513829863,0.03574158614577789,0.008447345936222352,0.027077904384214035,-0.009711015648640393,-0.00826533624000757,-0.01402459509674624,-0.001337007282607342,-0.017133713466211505,0.027030398449033644,0.007798499781141582,0.04184298507688208,0.006176102089886322,0.04385690485560351,0.0426016640414434,-0.0008423856552359768,0.041649367114049214,0.04327583330167232,-0.03207590409349531,0.011612807655695985,-0.013322861332728886,-0.01847322676722238,0.007210500943603834,0.01005168650348191,0.03775382679839451,0.012107833030885213,-0.038797194543917016,-0.028427883854913797,-0.03385414750544623
-0.040880120199398205,-0.06170667512925987,0.020881329848783943,-0.029838070891958158,-0.10405539157139995,-0.00804807550741116,0.028489960344964198,0.025968600572236857,0.0062031591906116425,0.01483116090310954,-0.01212333819558439,-0.006575603496686377,-0.04895041655561918,-0.04094015415171528,0.007046877826257562,0.0022850456404802915,-0.015357268050189927,-0.01806051158535183,-0.04623301068465312,0.01864565672142467,-0.03408215824771773,-0.01510429887053312,0.009306482404534959,-0.005679034089565365,0.008097139010966306,0.04579319888611819,0.009747451711502944,0.017003812490413574,-0.03019340016313993,-0.016553882280124905,0.04462127802440752,-0.014089838792931086,-0.04144703079981871,-0.01916079351406141,-0.05528601144600686,-0.0743670190934668,-0.04090347331360326,0.013021539057410905,-0.03274091522183093,-0.027608246683672167,-0.03443948161644092,0.02904349505903599,-0.019583306159738596,0.030404797661426928,0.017446365432132245,0.020378328967175525,-0.0058196862099534515,0.02719943017405546,0.004201883767232711,0.043905634285799855,-0.025729489332342415,-0.05183950581709786,0.02602213778534299,0.04611174189501231,-0.016440607479679993,-0.015712479141116478,-0.014591329866254152,-0.03563713138822071,-0.05004704018913286,-0.04881440157635269,0.04832056298918865,-0.0013179509951733853,-0.020178734094468912,-0.055077065955216976,-0.003860750580512184,0.010405204946509653,-0.012058997512991382,-0.040840347600213885,0.028134215644732324,-0.011295099555333307,-0.04000645028426626,0.02934560974975695,-0.01747365800620099,0.020554777157741504,0.033916271858953406,-0.013070138832489721,0.024956961314643075,-0.012915092120565063,0.02187298117479606,-0.06032439461901578,-0.07164719525252128,-0.01531321940165168,-0.036665621576573486,0.0013290226227401789,0.033923052327550815,-0.04367732012680943,0.0004954554451316706,0.09433538799210915,-0.026405601484161063,-0.04847219516324525,-0.012291582814244298,0.007267255932165947,0.013433526741646844,-0.032137575335994345,-0.047797939598507526,-0.03516257782875676,-0.023891069316173196,0.0004210790084717645,-0.045444973177312484,0.02544608575532204,-0.041158167939549455,-0.029614369194126876,0.003970086095574289,-0.031982609734121314,0.006185310577119769,-0.04705661125664686,-0.004410550759902261,0.011725106307146658,-0.01650057428714903,0.0011069678117210688,-0.00815401238843114,-0.03969672508653604,-0.021950325444795395,0.03826336854844941,-0.03824224747253463,0.02550316450901556,-0.03258737325941155,-0.033720163988057314,-0.012309539643077988,0.03348034260010984,-0.06143295484201586,-0.03602507879976495,-0.017724615900809235,-0.06265881086790744,0.008429418128493899,-0.0026934786334775395,-0.02391816421686458,-0.04148866887076715,0.02661128812254334,-0.01638995730008889,0.03928775428448166,-0.012079543278142566,0.007836502915799869,-0.040476346333377655,-0.010357698023131287,-0.015019438814516284,0.010359013606869041,0.02180285803820499,0.03456618865265317,-0.0021762312721766834,0.029344937428377144,0.030538105384019253,-0.04996567082304074,-0.009532036609776145,-0.05632814824848148,-0.050902278670508984,0.06615436071221614,-0.08926970543143721,0.03097226403011736,0.050847142845401226,0.016270301591055733,-0.07221091960207048,-0.012730797408251903,0.002170109203715357,-0.04422342662603369,0.0033076516139154224,-0.018065430048495763,-0.05363264182364859,-0.0070449986665545705,-0.04477131970600147,0.005254772450320928,-0.02409231506166343,0.007781192989670211,0.04738908342406721,0.03350101592440163,-0.0356975731760928,-0.02624571747578313,-0.037561049120377936,-0.008426066462116298,-0.005401071898495005,0.0512249886439723,-0.03617986596425517,0.04058705891233666,-0.027022623309388528,0.04375567726477655,-0.04521818431935933,-0.019667211426292193,0.06892751619800933,-0.01342183044560333,-0.03243092206171017,-0.013614172991677151,-0.0032472697702074773,-0.015521177250388176,-0.004370518827895351,-0.008379956983355504,-0.022566303268596207,-0.05786704996393971,-0.02817921539418835,-0.038172953836919425,0.02014939517513834,0.016595327017344254,-0.08266966284752227,0.032523913488825905,-0.018718864698877683,0.053154815676842576,0.04022852432298542,0.00576384597926327,-0.03417550129535549,-0.03213205925357673,0.0254076852250863,0.030363080885007193,0.034622045661785325,-0.016829872760163782,-0.01531491900675882,-0.03406993156313912,0.0004987632077677453,0.042857896587195875,-0.028655550785548024,0.006684116241198125,0.02714805457765324,-0.02472500319440258,-0.029674842529985215,0.028372509400497185,-0.042601653715260895,-0.02551792510916983,-0.026373496564579914,0.05571282692343722,-0.02069433001776093,0.020824363977686076,-0.012856689111691768,-0.05470754592763192,0.003132202420899208,-0.0014522942747696567,-0.041420686401316235,-0.007293847994308518,-0.013918550440905038,0.017394364905067874,0.022250862914468237,0.044131249601503435,-0.03737573737978774,0.02332014495459407,0.001273378892316768,-0.043483873718109585,0.04001779820727786,-0.027919489628257712,-0.04044840175678471,-0.021183748504657735,-0.020871080268834257,-0.03937925177498757,0.014321974807152204,0.02671880102591736,-0.02107605374346316,-0.026234660928195506,0.022804067717114098,-0.033491004608899984,-0.01799215308363982,-0.01784941169172687,-0.03190725082223505,-0.040985759265019024,-0.03005425971328961,0.042345795927195735,0.10429624971463072,0.006904158842528269,0.03610457129353879,0.030716366186141715,-0.0455202995244971,0.017320758369777856,0.04015728743210967,0.037577169255483676,0.0017175802177694954,0.007662339412360173,-0.015750818548931112,-0.014003429489495815,-0.017671940287134195,0.03721067338698623,-0.058070694966556965,0.00318961789131073,0.025125206137675053,-0.06499406272186568,-0.0321271190925403,0.03985073115179887,-0.023113825744950633,-0.00044676407099682246,0.04253499872917638,0.011507633713751271,-0.023836095827747393,-0.02812330530818369,0.0065381043699761525,-0.0073299140511784615,-0.0156556600241685,0.02679323251183681,-0.012671814798940997,-0.039058628913300315,-0.0006851971001303136,0.02178847360409682,-0.02227445987956509,-0.056051225322653435,0.0153634665215647,0.005471356797616187,0.0077689059792760305,-0.030881780455403646,-0.028039954324671882,0.03236551590296431,-0.031104894698645715,0.0012824612709522259,0.020937667901556822,-0.005179220405902542,0.00915635313867035,-0.004944352487752297,0.03128399298530893
0.026146672910018605,0.02455288358035714,-0.007691152729416469,0.014811453795529743,0.042709525576948494,0.016923674619190036,-0.015274951212356915,-0.01892400712360316,0.02131237521051459,0.005205245939307586,-0.027405601917492244,-0.006420495927932287,0.03896786750193193,0.032850391886832295,0.024480089146861,-0.012152480037538882,0.021519248427899908,0.0015503341604101483,-0.028965198619157768,-0.02306300819450398,0.03153637224716538,-0.010166026609448906,0.007783564050097603,-0.05038932151005992,0.0077878966728436565,-0.032160997480151055,0.016652274415805853,-0.03023793960093225,0.01831244221485757,-0.04072423453282587,0.010119329281583517,0.012405574192015231,0.03198527529931806,0.042036892912828125,0.011515968319301581,-0.006507918956855746,0.03955696495338373,-0.0427657956720594,-0.018488825114219783,0.04446875582066662,0.007955768078667913,0.038404556872939886,-0.027776283756544354,0.0002492082269445404,-0.02363502253371042,-0.039831162760411994,0.010720670593713457,-0.0016344901322183124,-0.018157274957929265,0.028027276396570995,-0.029075643911770414,-0.0022039185034228278,0.036907839605490024,0.021475920401298976,-0.02988886805231839,0.010678887491023803,-0.011615116186645345,-0.033945998426727166,-0.026811442885027476,-0.021651783974689507,0.01776044965710074,-0.002371280886513488,-0.04480169298665013,-0.03460270238267727,-0.03197642589495826,-0.005846859575521258,0.04327271137850097,0.00041175795792588755,0.009945388045256374,-0.028788065249307906,-0.05554411138719062,0.009266748837569977,-0.04506231280753592,-0.013427285762565765,-0.029083613932756235,-0.015949248434515083,0.0015956240574385532,0.024305084265666823,-0.014549412389182167,0.014246072243825517,-0.030163156398073373,0.017224751057432208,0.012573302806702904,-0.02413330502871843,-0.0006408159310007759,0.013275342601476217,-0.034544094757685,0.02942171613429751,-0.009502975328906912,-0.01881149720993575,-0.042137761447227653,0.04014688790851801,0.027649366002150542,-0.006111235862812714,-0.02027856750493226,-0.037650246408486764,0.027129876813674125,0.02193410113771612,-0.0498596608045373,-0.041614982524576585,-0.047474659374448905,0.01608849883626002,-0.02353702411997695,0.002843640628243881,0.043020778086045874,-0.03859222671476222,0.027305659461709913,-0.024738858625659096,-0.00016397993805706038,0.019309516731377735,-0.04033050191985908,0.02135232752273168,-0.00779394938469416,0.038117025134162395,-0.015774614873829758,0.006443643633135611,-0.012771188492883959,-0.013782958195939023,-0.008358259461025587,0.004124749785766444,-0.012403650808875758,0.02796367305813427,-0.02812451260522187,0.026154358294300493,0.045329400633441166,0.02409588122685911,0.02273623641484088,0.036544848656754315,-0.01966060047416422,-0.015574975058078113,-0.04564286325425525,0.0064144011695950265,-0.03071594756899596,0.015353690430721281,0.009714313799448964,0.0005148723152658981,0.03830963143363314,0.008403283485189787,0.02459717972144062,0.01845815980089055,0.01988278676750489,-0.001180101310701811,-0.008715214536028512,0.0036416046596792592,0.04043388385939597,0.024510055491705342,0.012111353630877167,0.016470529873572386,-0.04343171521780983,-0.012098036489049155,0.038301704459551854,0.011497332266495703,0.03340248628226657,0.019829045676987244,0.0061699451233928615,-0.040000036490510496,-0.004566385528351325,0.03797303183000478,0.030909535884765554,-0.04047619786538522,-0.03912045380693462,-0.007021110851324827,-0.04012614077421456,0.021951815725508552,-0.0029532354695845607,0.023619776767506272,0.014103316898625602,-0.03475903135227343,-0.003880325300109507,0.02310494811103096,0.023076879941896885,-0.010965431769914045,-0.018012991156307667,0.0328207506833634,-0.027066443402522226,0.010628742287824983,0.023673554329212556,0.012805464257422678,0.04015414763895274,-0.012851875848235854,0.0005732099401894847,0.01586785878203862,1.1689880794502386e-05,-0.0393573209031392,-0.03570470153356543,0.018634870144899236,-0.019736281061866548,-0.004031210278223947,-0.03403957657971329,0.005499961650223406,-0.036551408727937294,-0.022204968859303398,0.04799807752033355,0.036900788630227804,-0.015682560024431393,0.04193242585931981,0.0078602513077984,-0.04455743962310396,-0.039209516217422496,-0.03613096079028526,0.04140372999103591,-0.04241907343666506,-0.02424890949545695,-0.011245316214244083,-0.0007942558943142329,0.0032767024483390905,0.03344195503485412,-0.019633304045286435,-0.005517623976622527,-0.0316642578539537,-0.0014230208550113585,0.007493686440093093,-0.016677247060740166,-0.016397992606740037,-0.03332345959136019,0.03804754083791389,-0.02665085642285478,0.01942810398683614,-0.01327246554533305,-0.03751620002992151,-0.01029393624465535,-0.04045354189184667,-0.02282673480210357,-0.03227006653486346,0.022831251075662296,-0.012743420721154416,-0.010336512530626172,0.02944884274456372,0.013702802395795606,-0.017370398285601076,-0.0014529565098169244,0.04110686719872247,0.021469065278543312,-0.03352276247189245,0.008401177231164987,-0.037169302999704584,-0.026147446680732624,-0.005569403019539796,0.03637025946260958,0.016318921581924353,0.013804317623430797,0.010979171637843796,0.048308591029756084,0.04338857527965913,0.019655737963249355,0.03109910182643176,0.025108038199724653,-0.0005652398476148112,0.0017080957380082237,0.00019227275665571723,-0.013586567699901506,-0.01196857602097127,-0.041743312970220235,-0.022857948668065054,0.019105921699966093,0.0018069939653888025,-0.022421103111404366,8.259853803854214e-05,-0.035856416480874474,-0.038533835567704955,-0.010254190166204208,0.024317739305269592,0.01484572641239232,0.022296576811967138,0.01675643708615218,0.009135955850077699,-0.013411619070916538,0.03396880921924158,0.013094189263689911,-0.029971944273229998,0.0351271353620745,-0.021037765300146446,0.022860688333605973,-0.010175703074824897,0.011747759618946986,0.022772323610847744,-0.033521205136242224,0.03144471179595069,0.045518706667959104,0.00864393163040108,0.04139668155859695,0.006440806887917839,0.019473183695587485,-0.02938741128340409,-0.012327540243374135,0.030148410888468268,0.019898312508834795,0.0006446505101901031,-0.03691147639466087,0.02643223178088605,-0.014250557051029346,0.026048045237567534,0.009712660252860987,-0.022201409623187153,-0.0423947569751067,-0.002055326214173499,0.027271001949086097,0.03812831554352666,-0.025265843625984132,0.03105288887018284
-0.02699586696072454,-0.006679292188264882,0.0027026796764863686,0.013505319468776419,-0.012985364552998995,-0.023170897674403616,-0.030611948937508175,-0.033008307594558806,0.029925115128382047,0.021179206008165613,-0.006336637367491008,0.025837128463085123,-0.018014007474497672,-0.024336972905336558,-0.03115189603959967,-0.013911286843679559,0.03735129316337551,0.00979441504130889,-0.022148566674535942,0.026140406052723254,0.006685797545414163,-0.009946244937709198,0.01686504211637116,0.0011562574282764683,-0.03420631803056195,-0.005407852174812928,0.03491490300156523,-0.014843585782218468,0.030659273435853802,0.007296240329642895,-0.04396644365329525,0.02941498959573795,0.004203848448569981,-0.04206978049454493,-0.04109650795760995,0.013126793068047204,0.01429673805776648,-0.0021505257230452312,-0.03202895112816902,-0.04078527592367833,-0.021331999330175423,0.039182587825767695,-0.015993070700393307,-0.04071152298312704,-0.03538536409934316,0.037646715403297865,-0.01673097879610604,-0.039387901267252695,-6.699435643143422e-05,0.02864586110729655,-0.006461780183837608,0.035633419126402215,0.028084452306614226,-0.03798189755508578,-0.007249830738686916,0.04472624135945766,0.022077870070649572,-0.0032045168496860547,0.041658530358645744,-0.031142642436233006,-0.015573681004447209,-0.04804456796426415,-0.019804317439422816,0.006430099481969866,-0.04764339487798237,-0.04060594650792405,0.0370662529533469,-0.04204401009290074,0.04121314322090433,-0.0036487937053271873,-0.018467231915046796,0.022280031151421742,-0.014707922033441654,0.04621315117080136,0.0048837217106487895,-0.026112115527295646,0.043424731770830324,-0.04291471267501569,0.001211443717302555,0.0323769561170769,0.006899045435637553,0.03546657654052144,-0.005321196429634759,0.01592171884752078,0.007923417642381969,-0.013640129126454846,0.030514615856197826,0.001526787726263664,0.0067216839469932226,-0.04244918442978369,-0.012935194284244698,0.0071430467264082,-0.013293203483674989,0.023611794721582792,-0.03900116648670688,-0.03222810733984438,-0.004377673847394376,0.026492659247526196,-0.010138592425698003,0.021478004438200197,-0.03969729685785319,-0.0011542471293522708,-0.034403635895098095,0.02722406039240196,-0.009547443658222519,-0.03257222314442555,0.02295643861652386,-0.018031437239318306,0.02362750725351758,0.007090262464857818,0.0021447017369607287,-0.03663732321431409,0.02836231970706673,0.025146884774954695,0.0057625939785161335,0.014686928170647057,-0.021620178675483506,-0.03740347300680484,-0.02809403553966975,-0.028760140909955448,0.027816621456878163,-0.020537364082560967,0.01375763644476988,-0.008972978980551471,0.04322765056468979,-0.00689994954774376,0.02844568912525949,0.014646917435268622,-0.011492170744118844,0.03829208228317171,0.033211484929607106,-0.018417075038810158,0.005173319558061542,-0.009330485820374811,0.04750138511706887,0.011376062839138196,0.041795396201184484,0.048696000249076644,-0.013611797928684811,0.018021919894539367,0.03798117700635821,0.015513819521150439,0.026217894634279842,-0.02723939555650725,-0.010060190847686504,0.008428979412157265,0.053686537572455055,-0.0406911556480807,0.01762160298281863,-0.03210141635136852,0.023561830515178857,-0.016821435247266602,-0.020890163634800066,0.013099478360382054,0.028715850970636343,-0.027039340841138296,-0.040183103761761235,-0.010966641466866734,0.03368720894945703,-0.03152267677629059,0.021562074206754413,-0.03752197310108366,0.015826882297482008,-0.022793871176625704,0.008191038543765681,-0.03687872846075708,0.036258511129800275,-0.03398167738007325,-0.035575032355885175,-0.005797188112579449,-0.00806442003972212,-0.031982136029911484,-0.016697532060793583,0.02102389777293905,-0.05150061060574827,-0.040881177742458946,0.02544227802368526,0.03461288074727383,0.008343095909420829,0.006909806733434884,0.041958220711200825,0.0021294954317372826,0.04620684478422168,0.003777956784665564,0.005550416005183044,0.00849063450999772,-0.005090339429835612,-0.022703176976742328,-0.011086462641954932,0.029106651008383017,-0.019691847413634,-0.05312885502106727,0.01693057974936682,-0.03929546904166793,0.02751604333589818,0.043253964075149795,0.009646760951402914,0.015195870187514554,-0.00145984176650545,0.004460698665447371,0.04130563981146317,-0.02285258716105067,0.04038148843872033,-0.04587532347035549,0.03656545298498251,-0.030360244118883998,-0.003576360868253109,-0.0008561933829681475,-0.03865111552048043,-0.032475411732207665,-0.04107182466835047,0.023020851134851916,-0.03921563136156013,0.014976393861597754,-0.03635606593726653,-0.025082939220653386,-0.0036703498515957456,0.0013536707401929718,0.017403964068250812,-0.0220699979985201,0.034951940494462756,0.00011837268124506735,0.009621152483651434,-0.03504906298323693,0.05125743295474561,-0.014155949485522594,-0.0386797676571993,-0.02000382974140058,0.04319502307162286,0.022176020191456498,0.034525132719728124,0.022733415815769813,-0.03857641895770755,0.04295179665477594,0.01450099415131008,0.03544315212103464,-0.017640467604005002,-0.008466974062996803,-0.020618110307135794,-0.04716781484880786,-0.03733063939505048,0.013280016152820515,0.014664853646104968,-0.009433847779667815,-0.010100152947927632,0.0022491892603725564,-0.008620394478596374,-0.029224188409495436,0.017602643468704788,0.001294818251805168,-0.028610301568735626,0.04671732599846331,0.003948657874748008,-0.029428493132625695,0.006603199266664868,0.023109687752943288,-0.016793747885532236,-0.0025185927251211043,-0.012371357512249236,-0.019622988857049727,-0.013225138869114333,-0.02611112394109822,-0.007260526539126783,0.048464736706927136,-0.0062810208114537506,0.022998022064569426,-0.014212455705216953,0.037956695896532465,0.00566694314876604,0.0014447568263453105,0.04227730524735892,0.007338263318487711,0.010755078476257054,0.0319242812338838,-0.0448981920009592,0.031385995438743375,0.03444605455994489,0.02769312058348798,0.037679989709511925,-0.03920809551660267,-0.016139298799430143,0.02289176543422007,0.0160868702312324,-0.029193295973585793,0.037778060305691696,0.031103161596978457,-0.011886517754208254,-0.029471577308172403,0.026833063397497123,0.011000945295718758,0.01101530279196758,-0.008065395620512386,-0.03232035502172687,0.03610510583180888,-0.0034510252419475205,0.014024523672803497,0.03173093189373953,0.03310660053445755,-0.030905425663780232,0.0139908583343964
-0.001845663275748663,0.04268731360624565,-0.02722891014005743,0.011374373995744381,0.021068895177293746,0.02821685172434928,0.01733066744124464,0.0041724617624081155,-0.018945217667972317,-0.04410665028706143,0.02587183927023842,0.030215964855166106,0.006044055824330694,-0.038198150677363346,0.0022746790913293936,0.022548624412993875,0.03453158298680414,-0.03190570227837768,-0.04197723319431128,0.030449288307671313,0.02195834540829537,0.03562299128038487,-0.03875724077219143,-0.007263739827519592,-0.017907754508295036,-0.02989488565293284,-0.002985261148429149,0.0008416767631640941,0.03117262279030775,-0.012716627879126093,0.03438552584251462,-6.472869237193375e-06,-0.009247066955239245,-0.03213092490907436,-0.045218465285350784,-0.016142363315336663,-0.01754661266374212,0.036996974299989625,-0.022026443190064793,0.010351574242482951,-0.025892122103117518,-0.02168720855635958,-0.017734386874136223,-0.006159514924684667,0.010991773246123205,0.027972241068446865,0.03280768380190997,0.024252121789497472,0.006345596003263634,-0.023291488096837582,-0.04083083167318925,-0.009022469132432044,0.0022419008379641627,-0.03161843986677649,-0.007307483054209784,-0.020053190805045692,0.04132727670758391,0.0428383170017414,-0.02441250164754236,0.03140252402219046,-0.041132807670555334,0.029051845434906087,-0.0036204516099967673,0.015113749952819184,0.020974038903513077,-0.01266821118174737,0.04486303989927775,0.018291166832952434,0.012447950836386555,-0.030013908017501405,-0.011143461770854339,0.04001513545782998,-0.01741078311344771,0.045210061693906435,-0.010107022790680448,-0.03754811793341937,-0.019077198658467957,-0.023106930817024526,-0.022720473506119186,-0.047339198381836284,-0.010771077028154299,-0.04298920319593798,0.00818739953943994,0.04279637434634261,0.005845172544280568,-0.007214991067906764,-0.004106666855236927,0.014424131231054817,-0.018239805119481325,-0.025007204773064968,0.017786191342967675,0.024117685944957404,-0.036411542264166936,-0.008464892957448802,-0.0160600167226903,-0.019858544675426387,-0.04338197954256647,0.039261731225694624,0.006962924809710125,0.002299671974728891,0.009951275600450487,-0.008644405277791407,0.0373252106360719,-0.02285933525743131,-0.033349644361469415,0.0038683218725498454,-0.003309406167312151,-0.019348590721228118,0.03285066299864191,-0.0029410027436583275,0.0033756726184862233,-0.02508755295201528,0.018121780523007676,0.01951021204176462,0.033493531802811796,0.030192586440401268,0.02650219394464215,0.03650274382969242,-0.027433719755278443,-0.04004786116178328,-0.04943581694317517,0.011375008579161024,0.018178948639228334,-0.0033829711769900804,-0.029376194239078616,0.022019964226732355,-0.010187041010640337,-0.02068858067489201,0.034697413412963105,-0.006563893216699611,0.018769101732136338,-0.03788486885112373,-0.010460647784473873,-0.0008333210258090776,-0.010690593847358864,0.023371981716524274,-0.000953374424842125,0.039377879330122524,0.009905583688755458,-0.03423680742624589,0.04096594497615724,-0.037908848745250724,-0.03332741774979817,0.018834382868247478,-0.02118251566117722,-0.003464360686087158,-0.011158845291570492,0.01921147518295741,-0.035147476906024024,0.035325192247121856,-0.04323164390668189,0.0066973205551245805,-0.039764311159273306,0.018319608587366188,-0.008826174092747054,0.027433129801631692,-0.013835642550525726,0.0212773526586942,-0.03902944406040072,-0.03371822977032554,0.019022014965728667,-0.02495487006765938,-0.008279380519984168,-0.038970732353607665,2.658663241821756e-05,0.006477268295544519,-0.012170048488015917,-0.013425248135550493,0.037218861483186844,0.022427867652948647,-0.043661222067270744,0.01802426264871791,0.019235108736558513,-0.03315693333587096,-0.007002668283932266,0.002765534564459067,-0.043872300426570775,0.04192208795232109,0.025643428907816873,0.03508743486200952,0.010814355564622655,-0.04610387495917698,0.011373920276966579,-0.023574965682392757,-0.04149699695919046,0.023584608108305975,0.02331521306404291,0.04192143894847788,-0.03624169475405374,-0.02752374623371117,-0.04466684451173486,-0.017870766945988173,-0.001415398098290181,0.0020826454430517374,0.040128922348561,0.010010719287854672,0.028046807058860142,0.022941210936777902,-0.02352698955488068,-0.008725376412602414,-0.01975470815655176,-0.01956239627619658,-0.021538629831846658,-0.045942013201309514,-0.0355279188629396,0.019217632882160156,0.014352566498931981,0.010144087901890045,0.03308238021393435,0.0203662526724285,-0.010508255606170636,0.020557064829417264,-0.01059083344983563,0.018829288988147116,-0.011130089802314364,0.02290513022401944,0.008010105994496372,0.03771186959516002,-0.018085568033036663,0.0442865128736501,-0.028666196244087387,-0.006025181081927814,0.0058860256865103325,0.032565260159595724,-0.023246920538134153,-0.011864710898353817,-0.025028678731085992,-0.01591938359546621,0.01281749796009404,0.036380015910514436,0.014843812686463514,0.014718413326079746,0.0010799981868105468,-0.010301987144385742,0.03956473402819035,-0.039052102548750335,0.018750628324775313,-0.010198012261832532,0.010439895382887487,0.032412695168749166,0.0012391391745001353,0.04764371945307096,0.016996361646258798,0.01230832353860814,0.029782195864000417,0.007284165707515931,-0.011059588072578647,-0.02805243045749834,-0.00587407413268774,0.001980179956807766,-0.02227365765551042,-0.0007881425471519512,-0.01915118108566749,0.02987867716784913,-0.007682464053908554,-0.00021111790694152788,0.016594471529804207,-0.02022380754041106,-0.002596229493652145,-0.004819513107773356,0.032752548536066226,-0.012126884656111938,-0.04858156526628748,0.039294521545301116,-0.045846249172864166,-0.005079871146695336,0.017177088371527528,0.0077700028507729805,-0.034316764335385934,-0.040503222888622195,-0.035874040518260354,0.04565560819905926,-0.026052174354656576,0.009011853678770382,0.01679823252736209,0.03911608887246141,-0.035950050120642535,-0.0036312604478181167,-0.0250271399869887,0.03559663087377985,0.03495672822938659,-0.009459617378018939,0.039250099516114974,0.014539921284972182,-0.03979297454203032,-0.005764443644441765,0.016640602319921375,-0.04035221607932933,0.023778379860006266,0.03235329611628145,-0.010520546785750628,0.03860696500025476,0.030260708567900314,0.03607053977443708,0.009486048830593414,-0.028250127540385486,0.018121717893057325,-0.034676296105364705,0.0020898041100926496,0.004256509237794752
-0.044105964993958593,-0.027977243364776572,-0.035974472496114705,-0.03848627409410255,-0.02184962887642001,-0.0245260690965178,-0.027941941062515917,-0.0011800631914352217,0.05617251659379577,-0.004049408239488818,-0.03494213536158043,0.054914910897021524,0.01971277102301693,0.035769953609546386,-0.039487728593515944,-0.043920006095407096,0.01909687776529368,-0.03660147777663401,0.008817897679600568,0.016039904040207446,0.018156861775053657,-0.003322216334562817,-0.01655601261332773,0.01820543224545871,-0.035612665446255465,-0.01004043647791829,0.01589145923365861,-0.026365675123497426,-0.014299170792804307,0.001567287142901409,0.022088994627753152,-0.02576642505365357,0.05289254181976787,0.04569106489051937,-0.019417982803205905,0.0007067250386198813,0.0380970389082749,0.026283503089185607,-0.03189238676683604,0.022863772977118273,-0.01771224774888682,0.017075642069020344,0.011406961978079331,-0.0076877190667518575,-0.0017233624033625074,0.040773288284345614,-0.021416834919831155,-0.0015660012229220175,-0.016589503657039123,-0.038263917390415465,0.023679355172717468,-0.011650625510793624,-0.047102455360197394,-0.021372141201575653,0.01641162764971472,0.012153584289553973,-0.04442452361638707,0.026274886719059202,-0.01722753237281199,-0.01360695296091689,0.036489476483303175,0.022892177098415102,-0.008383764946688074,0.0432789652689466,-0.022306610471482316,0.04280836755386006,0.052250969184036405,0.006643037524475303,-0.029668821979610148,-0.054934409861201974,0.013316216332378419,-0.011536975523266926,-0.03638813523430086,-0.00790641818006127,0.021673203246101436,0.032697640451166514,0.012121123568912498,-0.027382437113252226,0.037393582366599384,-0.0318093564542479,0.0011934748864320874,-0.014847526891112467,0.0385493182421152,0.03026805327256838,0.027472030357001718,-0.050008970776593165,-0.029410247155095104,0.026467162597087687,0.03458527233461466,-0.02460641702683502,-0.05132410724819598,-0.027316215933940895,0.02303873702773687,-0.043301479832874135,-0.02596830176223619,0.014832493742812196,-0.027145927740044776,-0.020634066305576074,-0.029456125781863723,-0.044480653479902696,-0.027516056974537118,-0.01720208365546815,-0.04307908766583228,0.018857770506495557,-0.030425309254657654,0.021212181172061098,-0.031305574751493745,0.006463733522424641,-0.0159833408235922,0.020727920834996173,-0.037552667268589426,-0.041370767085999176,0.011629792569893157,-0.0006714125600043547,0.034786073585163925,0.015563516611415387,0.014269556319670137,0.011985217033516881,-0.006872073219209494,0.017307231707246493,0.014851250900005632,0.0018348306448057665,-0.018646072975237595,-0.014135705280208728,-0.015049772445700061,-0.03409169324956823,-0.038075268296456403,-0.05461384702523312,-0.02124060426483061,-0.028070829709317815,0.008058493328716821,0.036226273182701885,-0.009513810895588526,-0.03355698503946847,0.04776075790861614,-0.004098393197254017,0.018845211559149533,0.036316085331583224,0.03747728412000023,-0.04139734142125373,-0.028947740427803847,-0.008830082861734718,-0.021142767701272564,-0.021660812033315234,-0.02266298907398642,-0.04109743150146597,-0.010101758259108662,0.010157916748749154,0.007748887624300551,-0.015025639419925987,0.02996582976937983,-0.05101845367215392,0.030817729456910324,0.01951096567072412,-0.02130847687988842,-0.0069034999171079196,-0.03859454384215066,-0.008111830786396155,-0.014182080520835215,0.004470904198348563,0.012607983794579745,0.026364212904796003,-0.030688869421525298,0.05105836965757554,0.039954264187468155,-0.01845707084229794,-0.017467964782746332,0.005647643835504608,0.036701903660591194,-0.00458159954691228,-0.043163002984245205,0.03525606354430178,-0.0032039161092770538,-0.01669480196343321,0.023626570490044282,0.023810307994019727,-0.021028595544939962,-0.03938609423635717,0.012337389381946166,-0.005433498753361899,0.018905256715049577,-0.02643649752581399,-0.04286459762807352,0.031531024317955,0.04509515142578997,-0.00529399618722029,0.0360170321054745,-0.03163991360753145,-0.028107025789365317,-0.029111852381340692,0.01860371707741188,-0.03652780126844911,0.05511458823172117,0.04971784334355274,0.029927570995256225,0.01300139100074826,-0.01261894373619869,-0.017513687633359615,-0.009844310886432029,0.015874754100005314,0.01788394837385488,-0.027035237454701697,-0.026677039253854416,-0.020075187636369157,-0.020901601302541217,-0.038977800110527885,0.03730741378099285,0.028742249111144987,0.03207698124634566,-0.0036760178941874664,-0.018928891649301945,-0.03045622302139674,0.0027190363606728564,0.02194540221415725,-0.003985448656513855,0.04209973141465078,0.04059306568421888,-0.04265941264965577,-0.043919188045245944,0.04269452219723567,0.022561119541243128,0.03112362276483167,-0.005670864061996222,-0.006327926555165308,0.04649725556987811,0.019679336844164473,-0.03241725188892182,-0.03382099829146119,0.005515046514009807,0.01890600541911291,-0.005394465137308272,-0.03891274195718709,-0.04423791080947426,0.029394202891739357,0.004258939702230037,-0.025045815689239047,0.020600478455323874,0.032930948495181314,0.028247878044731035,0.026042481913972165,0.02289074456012882,0.0013652032479414009,0.029142471198066486,0.04726284272879185,0.04040004824526775,-0.013375957483174319,0.03334734559190222,0.0014342822770273859,0.023488952566218954,0.011448690103671078,-0.016755931509991714,-0.01023990261918303,0.013667179085330218,0.002714756186521564,0.002956378478371893,-0.004357561233992671,-0.03696035703420641,0.009868624052360856,0.042713967090158775,0.002902074065666359,-0.010091232310271786,0.010040121490221607,0.017844705433982515,0.02053205543645646,-0.022244482912780857,0.03843375872774314,6.553743062319772e-05,0.004232295146450621,0.0001989074355965046,-0.015836287811974988,-0.004274842906848638,0.01932808343090652,-0.015331140760437099,0.005709202714651465,-0.030472282792875453,0.011912186893053024,0.03515313878676944,0.008505601314278808,-0.032413294826859375,-0.04556015265694669,0.04359551808031718,-0.0022890339648271017,-0.012748193777184514,-0.01943531519119258,0.007067243887057257,-0.024987359053465493,0.011150349870329508,-0.014202116133575218,-0.009049318318722792,0.04061544427875833,-0.040414282140230635,-0.03103755368036483,0.03689662153075341,-0.05086751306319184,0.011266098248345338,0.027357938149193118,0.02967514865773698,-0.02677235676816493,0.04296225913581814,0.013949744570310606
0.04406781917501035,-0.012473515628411435,-0.04069525545168998,0.02521598763993322,-0.04860083618069233,0.02342170851366766,0.03729199422381546,-0.00898899952550588,0.0017213803000463424,-0.0428548688490032,-0.04330301489927345,0.03656992314054777,0.019824000762195423,-0.013586690113862963,0.020180799320592854,-0.019289898514791574,0.02212454023723652,0.015626725643142377,-0.0007716909620854969,0.04224244674748396,-0.0342166722945586,0.015347159311722173,-0.03380203512099272,0.023431510531348204,-0.008908341902733737,-0.029400871240156168,-0.0004060588982837409,-0.00023038522442740252,0.02121063391814759,4.278572150216149e-05,-0.00330600315249501,0.0187249084062931,-0.03605602400325148,-0.00331896125706173,-0.004100314035152087,-0.03735695761153737,0.034108792041824376,0.03680510571742233,0.027832281851738905,0.03656807600397512,0.018243645575864168,-0.02806058258154954,-0.013113039413796001,0.02833171330230227,0.030159999351612496,0.007056060182227735,-0.041544098834378,0.0023727534935805727,-0.04014513261169895,0.0402377892026823,-0.03634074835522917,0.01923967523878016,-0.030531657936227852,0.03062382376464958,-0.03262210652580895,-0.010992925503459304,0.012840613268286019,-0.027318931278356787,-0.02645254569257231,0.022861538398669973,-0.018458885629843522,0.012251675154340457,-0.005562956625325653,-0.002228039294518717,-0.04471752310583648,-0.026925773319662005,-0.012191392261853867,0.013137236514145991,0.03723702459229105,0.004710607683819706,-0.037951391654419755,-0.040728440769299455,0.03688332330495184,0.017697753058550005,-0.004856719151257831,-0.03322501202963988,0.028915082336285113,0.037922106879524874,-0.02174783050497251,-0.003098558166823189,0.002432206722392505,0.028949048061064582,0.021867814770160223,-0.00032061479845288697,-0.009045883057663516,0.007858426856587627,0.027213833835163327,0.030733674472583215,-0.014518485055268598,-0.03052404514318394,0.035208306816259735,0.027231990732795804,0.024015363922432545,-0.03428034215700959,-0.03384957736048741,-0.023737834212866182,-0.004056960277194944,-0.022990914672594186,-0.004376860146534062,-0.004086123440073708,-0.029550966847546694,-0.03493554066379422,0.02817065965836551,-0.019481836185118433,-0.013023154426712523,0.013140085370776903,0.04049929333298565,0.026767073409521107,0.002080457208162664,-0.04244099466445859,0.0015763511171332796,-0.03525345050696531,0.03685111735904363,-0.03466839556224558,0.018127460677112094,-0.03751536789945439,0.01750918439230775,0.01624832299546787,-0.024019172872897974,-0.0012056336909166015,-0.003350471786569862,0.03634048880210518,0.03753226764614449,0.02029115701964377,-0.03511733729421703,0.016346771248661907,0.008730888632848694,-0.012899692933918743,0.01053440955600997,0.012685747540907713,0.013739104776257612,-0.00951971892067305,-0.016561466605186915,0.009458674220262513,0.020415232411016983,-0.024186672081091275,0.017588372121601192,-0.033092753768520944,-0.020313413080805615,0.024393076155101782,0.03601118259388208,5.014942237442856e-05,-0.026099834949379657,-0.032997114635440826,0.019580024152298238,-0.020846454495409977,-0.0282069314808992,0.005355432526766104,-0.02198465918941831,-0.03894138978004611,0.034526141249548344,-0.031125872170326183,-0.018163558966447196,0.007399028571538734,0.005840525329657138,0.042816544552005203,0.043665435884659695,-0.006503158343024877,-0.04492426745869714,0.000966543848626587,0.01714494220618068,-0.018477993277080433,-0.039106925760094745,0.025950710340631313,0.022083376765873425,-0.03308211131192403,-0.02264503441929939,0.017858115421736712,-0.017078878410028527,-0.02824527622030759,0.029923993257150335,0.03542262338055339,-0.005658802202047251,0.02455227160564403,0.04366169113623223,0.0331553858660832,0.02741060181592086,-0.004741938324219464,0.00784379579666557,-0.03154292168954299,0.013759001874810599,-0.02392349441577304,-0.018509311466622623,-0.04002724906658399,-0.04022172815123952,-0.018561316429520146,0.02960761028528373,0.006612152315683718,-0.001951398504660293,0.03964293883073357,-0.030341198753075553,-0.03925421550993993,-0.005833347002395082,0.02445635959988199,0.010430961934581307,0.029667123692683012,-0.031827721034362384,0.006112991281129981,-0.00858468407845515,0.010572208703253868,-0.027899146642408165,-0.043640686213385876,0.009037683254347501,0.017183774133841024,-0.014247213614786437,-0.03095378079653717,0.04723479497126132,-0.015480186174325875,-0.029206982136028025,-0.04172235788055145,0.0009101946373294919,0.0015660555368159407,0.020519102659852653,-0.009427155818397643,0.034802847493217055,-0.02082596454575983,-0.004944059299166334,-0.05067738153674972,0.033884785586555555,-0.03271631797194535,-0.032429919585948604,0.021637544092684678,-0.03752897774482766,-0.0011694373905219105,0.015673467233261868,0.01292562930990929,0.04606153794436965,-0.02222767061698118,-0.03670623244955921,0.019043094768900058,0.042458645100523024,0.00738081274823002,0.031811960935516095,-0.03295323687881329,0.011661024682186934,0.023395217209896024,0.0016832741244149965,-0.013046557441010216,0.01547248794962212,0.01703457301299002,-0.005181414149344807,0.035169622171764926,0.03387532471470886,-0.03574184530797995,0.03773878624299165,0.04309556508116367,-0.03584458095108859,0.04501414010609247,0.015338438334084247,0.030337713550855624,0.014223738087169105,0.027821561595440247,-0.008049252806956543,-0.026285393195981572,-0.023621934175303855,-0.022707349054483607,0.027325202303135617,-0.009986648582300427,-0.038014885120605156,-0.03136065005169814,-0.007325389211470179,-0.02982849927581944,0.02457530188769935,0.02813585981256038,0.03435881827608684,0.03988035804799886,-0.005779987643232946,0.03958076845642938,0.01589751629366217,0.003408906866938115,-0.036072281774951115,-0.0070170924581173365,0.019891874909003016,0.0003847833601920447,0.03714812355537174,-0.020720512867214148,-0.025918870849031175,-0.033868528316349934,-0.03870995428234834,-0.01709167311247469,0.024211272446439117,0.03585218187458187,0.011953526198533458,0.042276448956668065,-0.019507044688331046,-0.030563525049331575,-0.003075189486113544,0.010007922002988676,-0.028246352519230366,-0.03059062396806559,-0.02215775082652722,-0.011233831060914124,0.03529217948906116,0.021718405632335167,0.030671940008326716,0.00284130616484371,-0.0209587240978249,-0.017912960928050708,0.002223299670813283,0.002169173855034808
-0.02174481266084466,0.038026183361253525,0.011297946667872014,0.029406463763829705,-0.03786228749460685,0.03348396659473274,0.02514415269200635,0.019280017060595997,0.02915808155182792,-0.04111251801356335,-0.038617038487513744,0.019409868177708137,0.039211316341154955,0.038689263612481845,0.034801390905009895,0.024380134309901096,0.017915978056358087,0.012261621620339544,-0.014949487711676866,0.027249362416028544,0.02868465270444899,-0.03764410992726378,-0.011889792820360769,-0.03886324059575881,-0.013706330382368442,-0.002304010699517408,0.004777617166408676,0.009544773213412221,0.038928154929685675,0.004967569069016946,0.029399850207397188,-0.015506894492472754,-0.026821186529557454,0.03257626992637542,-0.04146146984741839,-0.00833940940857531,-0.039375962832460705,-0.0180926318367652,0.03971054132751511,0.01920794159978851,-0.021171294489385487,-0.007150472632654017,-0.01980944119806228,0.02032147835005898,-0.003909993078165046,-0.038864288463678814,0.019730045541919282,0.03144778559674506,-0.020338623199642924,-0.0213566823728581,-0.03922244448951542,-0.03733046940372487,0.012898077604441354,-0.03665924486715136,-0.028561958993934062,-0.029497662019531128,-0.04182082734684914,0.04424003904577431,-0.00872029315787664,-0.0013483544613893082,-0.005172765959683919,-0.004386997366102931,-0.022323678925729007,-0.011400107634501494,-0.03838901771485834,0.024394093345310775,-0.03917020886491919,0.03591585778867881,0.03905381299365404,0.003926016070742676,0.0013068154686055162,-0.006029275116894902,-0.021587602023427695,-0.007295985081663488,-0.031048502715040418,0.02311015672305499,0.03401072251963259,-0.04079710733806782,0.033804602821929326,0.039514371092499175,-0.0024953342126764664,-0.014649698323737638,0.04026178284222248,0.011061910581406535,0.015500401854226067,0.03959962806481796,-0.01822932276045792,0.001865433939684807,-0.03318926971219536,-0.036513479688935487,-0.01894925542934908,-0.008144727816274972,-0.036741288748852234,-0.03930658151165855,0.00791937545404499,0.013863228161259598,0.02430280039579476,0.03337824699751115,-0.02498088669478825,-0.01465447601457577,-0.029851536897009704,-0.023467690790955516,-0.017142398151537137,0.034101284931953364,-0.00510249050685619,-0.013013044357660384,0.032259665311269274,-0.012548836817335866,-0.023834073465251324,0.016399819682337523,0.03194469887545186,0.01942762129681245,0.010530802650085049,-0.014391383840785331,-0.0387210713659158,-0.016367585179905938,0.004976123297060057,-0.03549997796189363,0.008258345359648995,-0.017601159887885312,0.0019821526940005042,-0.03312854377565336,0.029963874238205613,0.009145940291204023,0.012365915908232574,-0.02150051411573034,-0.03467514351230808,-0.003940193614168022,0.037488227368525,-0.024993138292231026,-0.0016102396948482099,0.043760615274963305,0.022168778306620996,0.01857485536225634,0.04371657254030819,-0.020299612934438837,0.032072431328354876,0.024980973406410506,-0.04115087530110638,0.0050771902580085465,0.025339943533004904,-0.01888225896823373,-0.04187166917168832,-0.023701223673368056,0.03864062897561894,0.025223936893927865,-0.025278756269215732,0.003891666816585076,-0.03219728509704101,-0.0027087167261278223,0.03490920765735155,0.032279750658765656,0.010083212147365605,-0.013463528568746712,-0.03672604107918039,-0.014979838633803462,0.023650940215924798,0.044031101089260366,0.02054120191004098,-0.034391879023777584,0.00014292588572271966,-0.0436438574924901,-0.036808213590280726,0.027525918346013697,-0.010803170081903847,0.035281709199078706,-0.03363578047465781,-0.006031946036992616,-0.018143201898421703,-0.03282344127689912,-0.021534464018516466,0.03779346278466897,-0.004920153841061295,0.013042752153186527,0.036385511750692955,0.03250712111954465,-0.021801572031788872,-0.03035060896681758,0.024070261266919652,-0.03765800228378037,-0.033060375478191566,-0.021409095358027118,0.03754446538443802,-0.03506614591300377,-0.0340342166484668,0.0001707646855700985,-0.0018246148548224145,0.029811058121389712,-0.042671053933141107,0.03747194434187496,0.019467232687947207,-0.003911281962208543,-0.03515509578458173,0.037344269320800476,-0.03479329248464534,-0.025046149732733256,0.023508015390472443,0.015948483681041098,0.03652603984199216,0.043882557691755586,-0.027278182057418315,-0.035939153095159104,-0.011648365596584144,0.03637575934680868,0.029637370524046722,-0.002528284363490514,0.009415758212293976,-0.005183725257482812,0.01026179668934703,-0.03811036506839396,-0.010525679976726128,0.013105514633420998,0.013447454491830045,0.02523769535670285,-0.04121692531595227,0.01764848751507626,0.015827011920242502,0.04317054897101855,-0.028530989488837307,0.023481809669867935,-0.03640510759651527,-0.03495301383946337,-0.03943635587041963,0.03627995573953623,0.02347721471574078,0.035111424544305034,0.013593424589299371,-0.0437612214245363,-0.02623433401195684,0.03253734585198571,-0.01052797819904959,-0.033486605101865935,0.03970373117554995,0.0297028797472783,-0.03013786858517291,-0.020021344487252762,-0.01580588147074282,0.024357417693326458,-0.03895367801527476,-0.014840760863158609,0.03127396361929621,-0.03823493648644578,0.030471944647129177,0.020904801837242522,-0.02828502612569442,-0.031085836131849832,0.03482905329245521,-0.03638396427389956,0.0005991662913549165,0.02815118663955276,0.011636826891026335,0.00036345313268567323,-0.02870215439364513,0.014812290725370223,-0.028528218378253315,-0.02580102194982791,-0.01994238710425993,0.028611121137566385,0.012620717370088613,-0.02181263920010442,0.002639788088658051,-0.015905862038202285,0.03137358602502948,0.010728059694693934,-0.04274428178257791,-0.03080485704879224,-0.0041384169397093926,0.03746864076606939,0.022491012767350473,0.03996754717913984,-0.03874938058877999,0.010381997229167645,-0.03601602915817619,-0.013729429495592681,-0.03196532427633338,-0.03637803765840776,-0.027520308322371498,0.02764602011290248,-0.02690614939034,-0.0342222553042785,0.022616039175163853,0.037076171750841436,-0.04112686319547158,0.009758950304271239,-0.03611236085333792,0.00010337974361584857,-0.04262268931386873,-0.033286644600028586,-0.04302210917267284,0.0006101883767836759,-0.01291771863667044,-0.02635645514372149,-0.03096119457665019,0.003633827510868571,0.02316716969425716,0.03021613741940462,-0.02418767207564365,0.01213920606035238,-0.008894996293835807,0.04079698371835503
0.039910503421332684,0.01758312612682898,0.022600216193313778,0.043043696402856414,-0.00063892311750965,-0.017593957112854598,0.012606789369353322,0.031746364569814285,-0.01454417063537938,-0.04509620782764737,-0.01321045591355184,0.0021708496622746686,-0.017234056618308527,-0.009182310080591841,-0.007606946802713808,0.040727051192196544,-0.03749935854324226,0.018447570886517245,0.01675076790140729,0.027288449041936547,-0.04008681875209451,0.0361038363307572,-0.012391295179629778,-0.026312387091253386,-0.04133467698285223,0.019487100504555807,-0.04023643966392024,0.015843887754065034,-0.03885436088250574,-0.04154359871379549,-0.03306566241954746,-0.006451519072537395,-0.008239151162535187,-0.03252658458634366,-0.014431933097974458,-0.024744039043682782,-0.021528037234688453,-0.016512974317821776,-0.012893198729773835,0.029630723664632395,-0.03967978856144206,0.028721350486808867,0.02735892106601066,0.03485392552472715,0.02185340145808422,0.026571554945797986,-0.01686652293819032,-0.03370953974854311,-0.0016391527687058725,0.0031790134792541182,-0.025389124807516556,-0.031656595105671204,0.0346986505440822,0.0337110364062119,-0.023499037830919507,0.03710127848187044,0.04031588791421499,-0.0444238614936146,0.026355870918439096,0.02991863652594026,-0.041237240677819476,0.013459212906606222,-0.009234672061224532,0.014106887991233028,0.007901657847584195,-0.04404459026844919,-0.030684216395385794,-0.033240454502904165,-0.01751570720649214,-0.016420792974557567,-0.022507265097635794,-0.0440578093785699,0.04474066831892824,0.012971575540245419,0.0007709414260531115,0.016160422362072182,0.03217383435404269,-0.013304088235012087,-0.00827440011907085,-0.0018532746020665275,-0.035424288063512874,-0.02695352137482457,0.029103378090130243,0.0019337784041221014,0.03864299520984274,-6.0640355510323744e-05,0.028198529434907093,0.013675915966302465,-0.02559794135354178,0.00954466270918552,0.02202134077052941,0.006982536469217305,0.04447177909053389,-0.022633374601612338,-0.027960257102987766,0.01251382390847036,0.0397834472246659,-0.006582023025754236,-0.010726269558833604,-0.0047914101292721644,-0.04271127658918202,-0.040674646528557894,0.03953555958252738,0.007358712010201192,0.03696149944383725,-0.0008350929766123605,-0.025234306773679695,-0.001306562403916069,0.03251713294159687,-0.025912810845126054,0.012041013761275535,0.017664004942640747,0.0019029663807095772,0.032543056276457726,-0.0388673034133069,-0.03822727461378767,-0.008592365524272082,0.029593005469293634,0.03390630822949443,-0.03765714096287676,0.0214398839883105,0.0074137904159228595,0.021105854009561397,0.016276589665304063,-0.0088179488641159,-0.020613668387970133,-0.00223892563649509,-0.01200689181280559,0.037390444163177695,0.004311356482370557,-0.043439394685870436,-0.009879773438978,-0.03346819367099877,-0.011225538846558868,0.04185021363822192,-0.03893338375367201,0.002175908982247975,0.02625282753766732,0.019726666038299468,-0.0027636066331565745,0.04305437270233807,-0.0228738928760766,0.0063145342199856114,0.03380432628710807,-0.02218911068468439,-0.005211529798844785,0.030684588454337195,0.03608335746123416,-0.000705333582206322,0.0356560736102974,0.013587608205600643,-0.01608472307418614,0.014581617747935698,0.0033722534508430217,0.006559088579079661,-0.014808484477182594,-0.04070560910881254,0.03627472834154712,0.022673500333959453,-0.0279577768577053,0.028997933554321717,0.004812967770339781,0.03539337923120108,-0.0350878786046814,-0.012842162772655414,-0.020721664814979505,0.02105329576136272,0.006337105587926368,-0.02815412783796426,-0.020393506695566926,0.027076210934594343,-0.03758573433281557,0.04104002556612309,-0.028439736817877755,0.017624990604950513,0.03318047524796799,0.003183939365675846,0.03762032678430728,0.025205714024047202,-0.004276569339258992,-0.041573046299133505,-0.004806109574623358,-0.03596542544676556,-0.02962824276920044,-0.018948268368782783,0.019073266475558712,0.00297278769569166,-0.0155082336580507,0.022901580798912472,0.044368169765020234,-0.015560953326202241,0.010726439261339328,-0.011050874500113063,0.01354915555598183,-0.02457296458119452,0.04088564137899813,0.036915784885544825,0.008321545446613617,0.028456290007562345,0.01398569412787251,-0.024871911438764147,0.018446614556668683,0.01695497464016102,0.03226718659722825,0.021531034548167335,-0.008627112865882277,-0.01247136361907545,0.02159803129507004,-0.018682970589126168,0.0061618444929890225,-0.010307590493794238,0.00856936105913088,0.019936400263552315,0.0031031547850272857,0.0119528080880721,0.007759825168296614,0.011474107581964425,-0.005497418536138788,-0.01629666804734944,-0.04165457511982754,-0.03154860732224252,-0.009592000029566826,0.01604108217736919,-0.028032790253531423,-0.02189828955202295,-0.006982473117512012,0.0028312394800684587,-0.022712892287144914,0.029795637923198746,-0.0416961542516691,0.008763144890544252,-0.014222555943820414,-0.01802014924809524,-0.004184858555320147,-0.042696129642163315,-0.00246657393174836,0.006696573105704557,-0.0148837200587133,0.011145540795156537,0.013587601176355896,-0.009053234943111773,0.031574755064608453,-0.040371406643692626,-0.009474867423519925,0.040660518472332284,0.03004058376483161,0.0068982439905909895,0.035916447880464726,0.016977604068105025,0.016708268693512884,-0.02902895646527874,0.03219445123236188,-0.03039750686831113,-0.03200251727300359,0.0065001336257913605,-0.001212328449110438,-0.04359472762310616,0.0451261887467236,-0.025726687262707954,0.0021350958270622005,-0.04279511079118174,-0.0271903673784932,0.03396985243927745,-0.01754524337650503,-0.045788152156296114,0.0028982541638094845,-0.03901840934617428,-0.013390038242048494,0.03359236739976441,0.023959677182724945,0.021904632843412868,0.029110026072178607,-0.04646151714179438,0.043627841645106205,0.04210049290130581,-0.04285661600560087,-0.04401429996003742,0.02507681184415058,-0.01130314549510696,-0.012953506894768246,0.022250188591076504,0.0063287699349756235,0.040045300540370324,0.024845840494036642,-0.04017720612055562,0.021855448634368998,-0.006738310071081799,0.04185174672355327,0.014415298317992485,-0.02246997371199442,-0.03218581054586281,0.0047355867656799205,0.029944299545685463,0.04269246430249639,0.04355589237862638,-0.03324620303085677,-0.01728781128403439,-0.017171214780606514,-0.023442850732420913,-0.006977000648499549
0.043238720755232614,0.0396021872128297,0.012152075375350624,0.0008416829386669623,-0.012258322954817507,-0.0036861922250938824,0.031127288194724215,0.011859056074963256,0.007700757622998242,0.04254603527779089,0.006097237836612571,-0.02970311671810122,-0.0026993011567851186,0.008237967571806613,0.02589197316432006,-0.007753831439372238,-0.00513633050022326,0.01748299237938232,0.013452445534890086,-0.03347353695794234,-0.012618383433676602,-0.009320222328539086,-0.012036674404314043,0.01227576662712265,0.014543494611040533,-0.04103786054038357,-0.02766700881612118,0.026155833328099034,-0.027549625501850288,0.011264165296820968,0.03144572229017427,-0.002673115122407594,0.019628839885894353,0.004520953266396992,-0.03806822682923922,0.0013000934203171908,-0.024121768191065217,-0.039756377742538894,0.04069145112389174,0.03193860725500478,-0.04115970155771686,-0.03929668629134636,-0.0016073044889923181,-0.015984230517472588,-0.03235199698844742,-0.018845253795367084,0.021680703287769342,0.03912340924196891,-0.04428602849376511,-0.02798699099245493,0.006479363747619695,0.03141548927344271,-0.04197554416631627,-0.01965991758594818,-0.014642686586788392,0.027591492052669774,-0.007594137504876479,0.018156956284194677,-0.011528550391791596,-0.030986820208595472,-0.009719782024495685,-0.01652787814957641,-0.022949898311138483,-0.0013634500468758302,0.04040864475859728,-0.04452779618870048,0.021144044607458966,0.03653691240149331,-0.009266730578174622,0.027058576963075915,0.02893978470007611,-0.0214676304786649,0.0358768907899749,0.039752802162164876,0.023863425278543095,0.0005095234362160388,-0.018004550692796883,0.0362462451498353,-0.00720962283884807,-0.02902623856477514,0.03773691551535102,-0.0002686042416935851,0.03644826499886383,-0.0002921631240797946,0.002521104566423962,0.018677992728104602,-0.004935869479280242,-0.02681049013304295,-0.029679171256666307,0.013922849318513193,-0.020038471675995838,0.03405125317373882,-0.02257391385192193,-0.024471569923863422,-0.04199035683879646,0.029139396111277322,-0.03322132730896973,0.010523646989215582,0.0010357203852729194,-0.04148588489525031,-0.02140274721416217,-0.038437099143466553,0.017469771845160575,0.01175852195358212,-0.042248950316165476,0.022728803208429994,0.025366481996025626,0.04035601302235355,0.0264046700373517,0.02793853490714424,-0.020677378995739838,-0.018057520395034204,-0.0015412382547862497,-0.018399356446421825,0.019370623102303332,-0.009463019216292739,-0.001186550034032166,0.039582976192184864,0.03516685944411885,-0.0334959616732426,-0.004254090092543329,-0.008331921079288247,0.008055491819607526,0.04230824863004945,-0.02178766521561751,0.01929175908783466,-0.04006851453655249,-0.017737437100463636,0.010727635480948305,0.017113820252335047,0.004537561411884669,-0.025297232983432543,-0.0009843596363316367,0.04407573125321938,0.040436190635924005,-0.013594867453336549,0.02470311764421318,0.022011676455048722,-0.007917800040991105,0.0195563459383892,0.02615367097444308,0.04205399794332431,0.03213394412752027,0.02161988626383293,0.0032816184465135406,0.003710616184837322,0.015600623241661246,0.023171071244316055,0.01377977328399885,-0.014722326081636856,0.03502870438657654,0.03790860633033237,-0.028178599286177067,0.005541307538209427,-0.020221292310582267,0.027342830263136553,-0.014437518194350072,0.031073904834793397,0.020266193309577338,-0.03614700733382637,0.03887922735878779,0.04118278245215074,-0.03402816444650861,0.0334887124572506,-0.0026313829068721345,0.023161772344372496,0.02665047500874989,-0.012002232359973263,-0.002835873955468514,0.016894934148392667,0.01798270454477656,-0.0382302449723841,0.03782382423252529,-0.016749343706242075,-0.0028907549650038287,0.03083824119307201,0.013061093809152251,-0.017676924840423113,-0.01591776285513734,-0.01654379768189387,-0.026446818154397693,-0.0002960235020353199,-0.043862242695498356,-0.021052422174711757,0.007151434093925708,-0.043766519281559405,0.021952793800063403,-0.019649518883656743,-0.0358248656787976,0.010935485589637393,0.013096612787205881,0.027903812828964595,-0.0023316413398904944,0.03337206430260949,-0.00226751837592644,-0.03593376281264856,0.028822340597871567,0.03403098412137895,0.024977002148889503,-0.017564560943588787,0.01681937688256491,-0.0007789850186693746,-0.014225635514804023,-0.007509056902203326,-0.02140208358410109,-0.029877593022612857,0.016120516520586933,-0.017759626636876514,0.013446591071048609,-0.039908053706957165,-0.035077567688362156,-0.042275619091713006,-0.03524406238399128,0.03341398812473421,0.006520195225342694,-0.02269654040290182,-0.030093331655764277,-0.03257594091417128,-0.03505338225717226,0.042060008925082895,-0.04281763320208805,-0.03841325881905389,-0.006910034133892462,0.03541052869005154,-0.022515176130488177,0.035956032676360154,-0.03900970849092032,0.04358382249395045,0.031153264650136098,0.0030400051381534224,0.012444319093285229,0.005859013480757705,-0.018520058789561956,-0.03059950854179439,-0.04095280347999114,0.042896340295613365,0.0005067074728311753,-0.027642966654557906,0.030958253932990322,0.044239701647209896,0.012648317732645247,-0.03756860673978842,0.035677168932423495,0.04168829180744686,-0.03362230795297328,-0.018683160842656105,0.02680388499024546,0.009781069179009514,-0.019853194238941652,0.03315164150635057,-0.020820688173513617,0.009512138771654676,-0.019405155842285336,-0.0025830058166264663,-0.009376635029089737,0.0012879936324869054,0.03215267178226223,0.006780255466340807,-0.01237606877853057,0.041895698470424396,0.02300631946523731,-0.025978528628266714,-0.035703853973230414,0.04016516164652126,0.041041473261277064,-0.011434763111206914,0.0353373270746564,0.03826027540280526,-0.01009509816614446,0.038002558464504115,0.0030034485638482204,-0.044054284500581235,0.03557817369914345,0.024282089701478313,0.020183744121688916,-0.017005010403343106,0.027112260854588947,0.0018330245427778682,-0.02320607165583753,0.03189592984128196,0.006558600290286076,-0.04220619118955411,-0.028561777800894073,0.018560091368717935,0.008385531092004229,0.0030529484522890675,0.036942547755439904,-0.03581465036464194,0.040316509968104555,0.0174388271832219,0.021641071238065714,-0.004914166340748782,0.013031262580163154,-0.04077962211102888,-0.004787907449411267,-0.04226320611780176,-0.02162154268239494,0.012305340207209869,-0.022408640865402746,-0.014527330074129733
-0.02386733409209641,-0.01203020987701774,-0.03048974256476107,-0.007355418440857021,-0.008080570504941105,0.0428285488393821,0.011529958341067376,0.03449904413188191,0.0076161016977139865,-0.04539128256838669,-0.01902676099668957,0.033602166355046335,0.011360909061269055,-0.022237895747473625,0.027375997928661817,-0.03396776627164697,0.01351753568761283,0.03120161829271047,0.04744159957512511,-0.04820126558608773,0.004495167341346035,0.005624540412769257,0.015009958671418138,0.05928189308006666,0.05066571929366052,-0.003887116663179309,0.01325127027547201,0.01586503044350083,-0.029522856897755075,0.02752575642090264,-0.010657365480941448,0.03904970815356313,0.04957702086390735,0.038504686991093565,0.023955940127405158,-0.012524979583817646,-0.0032521345174215907,-0.023632906885101067,-0.015585030159678395,0.024281571243279475,0.006636808159383944,-0.02641983116133588,-0.03776794753832031,0.014816047156849962,-0.051752875303435926,-0.018223316827957844,0.00012531414116320383,0.02613144169645529,-0.024736860014358583,-0.021456606715149082,0.037987708150590056,-0.02022044893373167,-0.006117184202495368,0.04163471508294685,-0.0023596078255663107,0.026864500354074946,0.04474567517477382,0.040756674879510915,0.0278170380096137,-0.001579669355826149,-0.038359236349983505,0.00949589464041427,-0.003984047897164072,0.022694984505817715,0.019238689321434084,0.01687723648915628,0.0602790069764586,-0.04385123999102779,-0.005146390191338864,-0.013842297730280074,-0.017077420452562508,0.017028411769214397,0.028740771299197478,-0.008288319278278375,-0.022288858115174545,0.03331094415588938,0.002322372233785923,0.03394342877887421,-0.0032987328557580334,-0.021223479410477097,-0.005067149241761461,0.03289086114393488,-0.025904743846381195,-0.016014285735339837,-0.006064041456625235,-0.03570221722390709,0.013136677825343156,-0.0494393530330191,-0.011609729433371017,0.028713492948556935,0.046078294517573004,0.022047954720932947,-0.0018695958580587165,0.0407051804593474,0.02189044125457709,0.036503572575892575,0.03486842634697984,0.0007773394370326229,-0.01245074400007752,-0.04209566373189366,0.02037836003709216,0.012093372064035783,-0.028972790276413935,-0.006862033199064161,0.0218982002008466,0.03379925794832966,-0.010167129175628366,0.06723272301939905,-0.021501749170406488,0.008994252242790227,0.030679954592932185,-0.01917220509419376,0.030608613180799247,-0.00839347460761098,0.02397067088245877,0.04867402984277328,0.021516818802189565,0.0320225184622987,0.009495414580045025,-0.03569174402364866,-0.034756343383186276,-0.02002361370023769,0.033379922733723574,-0.04131668861465622,-0.04444783321646148,0.035709866459588666,0.006759716088232054,-0.03406092097266789,0.030731841630005655,-0.04695156157800156,-0.047653930174421606,0.030668352829227266,0.03159035665568749,-0.02195197054515849,0.023169072397548337,-0.022413281986244774,-0.031305436109711815,0.03536272752997716,-0.015206978877626464,-0.03632016138197682,-0.018000958551256867,-0.02197590769020703,0.047540952372467284,0.009468436398014826,0.006522349469883556,0.015906553836149435,0.012659129928844904,-0.038811013218348345,-0.03498850242652052,-0.04768879291379993,-0.008981395042782104,-0.02064436978833989,0.0017284480371935744,0.050915089646255504,0.017697070787747342,-0.02035674675485282,-0.01028532069503437,-0.045621017347005674,-0.024445542891823352,0.001864795681413207,0.01245185298914574,-0.018041223091377213,0.03965949919022936,0.03166964366628376,-0.0490801150074081,0.04449896173941915,-0.03799348389752636,-0.042040051605174523,0.010073825793710335,0.0390620649217788,-0.00313930620140368,0.03984495247858795,-0.04675122518314837,-0.038205738458036355,0.005875452796872575,-0.01475840521369726,0.009855488173442397,0.027500159500221298,0.038584425032382706,0.0063629577469068825,-0.01867323527190747,-0.0002684544282840956,-0.03596588300129289,0.008054730775546195,0.033818820166699654,0.03212547668874513,-0.01926035295764882,-0.018370436739245783,-0.016857844845025238,-0.015927780592563324,0.012683412109466302,-0.03813361522687718,0.00038322510745869467,-0.017070362999250768,0.008770902407415297,-0.023063861757387005,-0.021322633003519696,-0.009390991151260714,-0.013921010066489548,-0.022054414975277443,-0.04322654789211565,0.0378583035353429,0.013057447966593427,-0.028258775960593303,-0.002257118646804744,-0.027499288956844694,-0.047176040783233134,-0.036708884573422175,-0.031068930636060036,-0.011224417339324687,0.03885045112586713,0.03155789148140096,0.009702123525559986,-0.0012489077994870805,-0.011338566195083626,-0.012805971444293856,-0.03609160916284918,-0.011543004158520508,-0.034935556548646995,-0.03167476322607095,0.0312900196997287,0.0030913398789156757,0.0164995488658643,0.04099959587320849,-0.02872894799054384,0.01766285763257691,0.0257049640093668,-0.008813394266046973,-0.029836011255944206,-0.023394850756577584,-0.024730031217721552,0.009751565116095528,0.020873017940947702,-0.027345321798133256,0.006229704023296027,0.015057011128979678,-0.006993448675459434,0.009259658509720294,0.0325910342941462,-0.01922608401751185,0.02919577722991046,0.0018983993664121752,-0.033463045469627827,0.02133763965604631,-0.0034565459012689823,0.022407679847626948,-0.011818496186054399,-0.06298203282165418,0.04015400232888155,-0.020195689974519846,-0.007949278914437422,-0.016119580347703995,0.004666716486586281,-0.020742670336437976,0.02067887239553717,-0.02911071055039932,-0.02968256650741573,-0.02188041234456974,0.039032494037786324,0.014666179115125985,-0.03805366798532341,-0.030620991083372698,-0.04910229819622868,0.01039575745379684,-0.0378413320463544,0.03498115322108501,-0.03603202807838573,0.04483900743666514,0.036016827178712914,-0.04135330321501555,-0.008161125142996136,-0.027150298641532695,0.031437083443334846,-0.012913532882487725,-0.008444383629395204,0.03489832205084427,-0.03350520184165188,-0.03817097624418568,0.0024955376535754055,0.020961209111000533,-0.03546920233796094,0.045987586538570116,-0.029702269307862277,0.03553771262642288,0.05605338101750496,-0.0034769641454687186,-0.010517281345162015,-0.03699041112356902,0.039149220163163,-0.02604055112057839,-0.0028592423223417706,-0.044542147958067435,0.030969736372223822,-0.04230320939260268,0.027143961447051935,0.03167688949624038,0.038811644403831086,-0.03870245636646112,0.0047606670032144605,0.03273054076858289
-0.024648643920212286,0.0546081937102434,-0.004982004994361195,0.010789382204297331,0.04220342717902648,0.0025946596414155865,0.04172427366754677,-0.011173412758415218,0.042298756766823854,0.004824702589986956,0.006628999480331887,-0.03237793198341416,-0.018847055365239895,-0.01125448480816717,-0.021312373293511995,-0.024911343490888825,0.012201381972194194,0.014998937223358298,0.00854972845615492,-0.04428598568443884,0.02932329967394838,-0.02316696914465664,0.008207381776034273,-0.006268395510731147,0.0005701450791877232,-0.038547243295398964,0.031804587745715415,0.020470543377568227,0.0033451356294841475,-0.02029769003763017,-0.014407065958415193,0.02716841681101525,-0.031437623260121915,-0.042694449820959976,-0.016151908328586796,0.004698703599230192,-0.042323433826207575,-0.0314424897970413,0.003268465453306138,0.012196709518655795,-0.04602876508426834,0.0103874370114893,-0.019104408970212757,-0.020325766541709454,-0.0026714417964155183,0.042501450411394276,-0.01059649449294803,-0.029544888005422966,-0.025302467077326002,0.0030332990322135076,-0.024738654413045444,-0.05279439318055659,-0.0071447900491064245,-0.002049492923362043,-0.01455601763493125,-0.043240952219259804,-0.008287458493240477,-0.0015597148388274452,-0.005851235656589354,0.020994632223439638,0.028617418195570104,-0.0464787995931889,-0.026368762440978393,-0.016208707358557457,-0.011396291279023094,-0.028983987447751155,0.04215870076544231,0.0018332094631291704,-0.011189517964327851,-0.04422787376160216,-0.016575142516306988,-0.0002981944322549197,0.028085971162777636,-0.013785719931142899,0.02694927212122426,-0.025905072166571966,-0.02017567053292348,-0.0011725097973945648,0.019321846906720286,0.03207556391225475,-0.011600617116267422,-0.031373804904426685,0.040288154234025965,0.0030807157232311607,-0.008826172498779103,0.014340697436927901,-0.011499481764947101,-0.05097205694074241,-0.0003666287423558479,-0.05351821921848016,-0.004950404842896861,0.017053179477733882,0.03711031698131178,-0.029037286691052565,-0.007874802490124951,0.0378812198687348,-0.01647756592931403,-0.04153098739726087,-0.017058435701303637,-0.023260817319905217,0.032427429951445916,-0.0282802026266362,-0.03658284130487615,-0.04632851530524798,0.03565609939931142,0.05275819967868708,0.011186074543365634,0.04817457990743834,0.0028934893649681217,0.03642025587438354,0.02146817048667619,-0.010410627129732893,0.0028295192850478655,-0.027450191830228066,0.024990101003860406,0.019583307044724753,-0.033041398814046136,-0.008409822213644148,0.05052675879727749,0.02088319035278517,-0.02473974412974659,0.004400455202021787,0.004856661470551036,-0.04541809421282717,0.003745350941101643,0.04772506969358828,-0.03166914703192397,0.05304893430599725,0.010662808274066482,0.02485794115379801,0.035390586990397134,-0.03132218681622432,-0.02423228351865665,-0.009436427368275142,-0.01369228370463842,0.020227875427735704,-0.01448828987088638,0.015579095191874141,-0.003194982272127108,-0.022430489061150565,0.017460228524305333,0.012182507285469369,-0.041415159708446087,0.026578549550876514,0.02062894180546676,0.02752612177430507,0.018608999359657007,-0.02429034147018643,-0.032997585971664835,0.008756711998824402,-0.03215873637122857,-0.02862703491283371,0.01569074392710432,-0.052161988898488526,0.033171476249041036,-0.048219404130752645,0.0213361198248085,0.047736088176547904,-0.0023863574897679176,0.03421701287024753,-0.02795969296539042,-0.013843028155237299,0.011727735801644332,0.015068988316575391,-0.03372482245264979,-0.014263232470406837,-0.006780779368519209,-0.006999955371724143,0.00863705650163199,-0.021214687287963413,0.03850178650577183,0.03889537977000273,-0.03435616936593455,-0.011337738864404562,-0.04313935764559636,0.006173195749437796,-0.0065271001387532295,0.028779634899703622,0.0027140446670904698,-0.03558986036740889,-0.02871429965807168,0.034887023090206276,-0.0009095983832196131,-0.04451396250317078,-0.044600808478882384,0.007834973658782234,0.01477637234056787,0.007498836880094095,0.024610665412645606,0.042099592322691844,-0.03690977645390429,-0.011279324920506192,-0.0445260154253345,-0.046524052375078756,-0.042821119428644056,-0.02996809506942295,-0.01632214285093901,0.011241509222032075,0.0008930243639003162,-0.004305785035947858,-0.03319051151224031,0.03947560801012968,-0.0015339114330311784,-0.0021354188923618416,-0.03831932568300179,-0.034484704194883954,0.020287643219500506,-0.023426229169435403,-0.014824475465467089,0.0015741780086927766,0.021235687233765357,-0.0045196281567388315,-0.0045293051511119415,-0.03847735209630657,0.02727339871061407,-0.0029506545522509425,0.03011839352394942,0.017788169199241154,0.018810182013804345,0.03748983111869754,0.001836227642476739,-0.02501952665263346,0.024027654441465613,0.014119187656138512,-0.009456519008839186,0.013215477043913145,-0.046727376634739276,-0.0362457549144622,0.03427990177099046,-0.007636140965740658,0.01701692143904826,-0.016245224956164928,-0.030129210837288298,-0.02040985061829806,0.010628933793637814,0.008284668397752047,0.04969189409067914,0.039130543083697907,0.03878336149489461,-0.03862500994586577,-0.001614948870026334,0.042772502320857414,-0.0009003536872943573,0.028339690613804803,-0.002794887383551088,0.00707061509438607,0.021801741331091265,0.020347652962451675,0.03131356919245692,0.036063079335876914,-0.042651973595750306,-0.06658069353834731,-0.008338591200194735,-0.0171928760084899,-0.010907787391962692,0.029332536379765288,0.01643651750965826,-0.005607780537242671,0.03283723002566925,0.02020024242793426,0.0023412313706425666,0.030451361523464223,-0.004535799812464203,0.032141297513873186,-0.03555781993889101,0.056703482564110924,-0.022374204225288262,-0.026329467554762682,0.01216843695774136,0.03251891442351965,-0.05876470143837877,0.02940518564005724,-0.003377947238958148,-0.03344239696595209,-0.04139028114148042,-0.037413285137173034,0.019993970937724773,-0.017031166537775366,0.04047562683609572,0.04419069025323745,0.04251226200082306,0.03081537357627299,-0.00038088816397273005,-0.02731423682917145,-0.019242188495846992,-0.017019588663539698,0.017549314547861856,-0.04078057370358387,0.005875938481955385,-0.042841702160339924,0.03557777261191977,-0.03571089993469517,0.023718054952699626,0.009350724471571061,0.029603624123603674,0.012833774744961578,-0.0032056236276840496,0.027027849653891618,-0.03830136067240365,0.035649758954961204
-0.007815459379089737,-0.01402911939331943,-0.012331835770200555,-0.0138409156053895,-0.043345299923944085,-0.022754080696198532,0.01567923582151915,0.025604736063987756,-0.017838662152199623,0.00040825454751915326,-0.0017830714865962843,-0.020378403922634958,-0.01925450521076515,0.0005064869804387259,0.03941715130983538,-0.003871311965506822,-0.001215740224958156,-0.025878654724177517,-0.03677594639975355,-0.04039233954790456,0.0065389230884755865,-0.007137241471280027,-0.007447415041920015,0.0006781941201341275,-0.024068303188078212,-0.034220384031425,-0.015642923114406935,-0.015143957084148781,-0.03823003707190118,0.02672794012008458,0.011370359832736644,-0.03201662031327807,-0.03185055532795962,-0.025569730054108952,0.021233059381545776,0.004437783359406486,-0.022417202280415466,0.043042598397277206,-0.026137789903633673,0.0009643458654518116,-0.02218826629467214,0.019305437713710717,-0.00871451199024623,0.03163641882875681,0.01796842804610628,0.049662013653265294,0.003916247745776852,0.017926891739182486,0.005589048967365486,-0.008560110323376698,-0.018936244848079372,0.030777461413760327,-0.043987123005961255,0.010467848036287333,0.040260966454217006,0.017882458507472658,-0.0388838344222709,-0.02306266030476594,-0.038829797122472726,-0.0009261588353232846,-0.031134788635649127,-0.03788321329575436,0.0061012506954779035,0.02651545422487303,-0.040421607072539466,0.013859395811665188,0.02775939907548824,0.03452640940345558,0.03538808227278218,0.008085034292814895,0.012341017562264344,-0.0010336070012956907,0.033388379061650354,-0.0005237095712431904,-0.008641529912770866,0.0366167584134955,-0.017499209469325077,-0.022764351933269266,0.02590645887085349,-0.006062795627057368,0.04557472233362062,0.030193346272612345,0.01614063914425111,0.0209849727446417,-0.0005875578465145974,-0.0044134458113704545,-0.029858543397579873,-0.031303876536910635,0.015962222157031775,0.035622857716616746,-0.013910802073342941,-0.021200162376916337,0.00795320210951886,-0.035801311122425884,-0.017685537007715524,-0.039115327987038095,-0.03388073546334802,-0.01524552392270264,-0.029189316657740525,0.03940197273096687,0.0004544150391375392,0.004712983711422328,0.03025771554700058,0.011105368025442347,0.010746500405366842,-0.0393180456281962,0.041891470115395596,0.019953902582137122,0.009276924785041565,-0.035971257483944336,0.020997909175076407,0.005402129906041868,0.002367948295347783,0.04169421143739855,0.03501265441530096,-0.0030368838015880826,0.01964360222638798,-0.018115835287392138,0.02251478227100479,-0.007009725654349464,-0.044400282369245134,0.000977422973097789,0.008670638895667028,-0.0441282010019002,-0.03142747611507192,0.007471225650942746,-0.003555981724293699,-0.04308691669201336,0.044209427088492036,-0.0030435407974285225,0.03267552518606953,0.0405015625543429,-0.04325852282517969,0.007989342996249631,0.00024686562748406897,0.03545287381105912,-0.00880778017018718,0.022611781175938223,-0.0035738081375051136,0.0009191551472968933,-0.04101568506675326,-0.04666470123432069,-0.001729457413721461,0.04407251661917386,-0.0136900775097239,0.000723921475605088,-0.016814059098424906,-0.02183568317205493,-0.011374810620098937,0.027999586286513493,0.010002954194055603,0.02566680516191667,-0.01794978405162735,-0.022512424629207592,0.030079559665586106,-0.02775684879480861,-0.022716381946704143,-0.012521985031453693,0.03689942210044175,0.002455521674224407,0.04650872144687469,0.043270943351164846,-0.04807841289265589,0.03365292747614759,0.03622737719593916,-0.015197989369691205,-0.004151302639750512,0.02447946242381807,-0.016468372778321458,0.027486048645617833,-0.03414939130891124,-0.024284517943208295,0.013997875448143172,-0.005763942694749333,0.02598594005300505,-0.005804564899972838,-0.004430488648573566,0.013368200135833525,0.023261167569211635,0.013940346257223141,-0.005653127507708708,-0.043329879151378245,0.01721217766456853,0.01945765990803729,-0.01744013485444609,-0.014905043634676353,0.028673008992713356,-0.018565976899071142,-0.047184798191941005,0.04034776905783142,0.03180201298019441,-0.0435831694199467,-0.044388090857233796,-0.03284703872187984,0.008962343672552808,-0.030578482657956776,-0.0014689487661939844,-0.023686898570348697,-0.03214191677322405,0.018633540620276497,-0.026212776312863152,0.0394335038879299,-0.02776868113284628,-0.03986033021542339,-0.023813993175023092,-0.006794420101270117,-0.009442963826113562,-0.03148870623087533,0.0015911857837006185,-0.011533997769401158,0.03306772060730371,-0.023972166194657852,0.002835368847984818,-0.004511555835532827,0.018763146325539038,0.03889508704214902,0.027698442219216423,0.029212440365674715,0.0022629477281780183,0.035345787658409476,0.017296927563229224,0.017022919856947618,-0.03585590735529778,-0.021261561928521203,-0.03114127788485802,-0.008367360126109074,-0.025856662522695376,-0.023124393639874393,0.0029775438738852576,-0.03576162812762834,-0.031247216427206823,0.02351082716509556,-0.011977845007150184,0.023822037194832488,0.023684262020178988,-0.029823624734056035,-0.025902961547924434,-0.01718053072200692,-0.019985043868767,-0.03682524822265964,-0.013792118286488648,0.03620991236638837,0.036318656552402614,0.0032298495737467046,0.023038744551763073,-0.012187762648894524,0.040082583621733885,0.016512195039127996,-0.041829635673988244,0.019958661849480565,-0.027555165803159243,-0.03172440049764773,0.04868137183397806,0.009255152927253077,0.03271595654356308,0.004591438890121463,-0.023742029866635834,-0.0006015213993056961,-0.03390187034596626,0.00012714554735969124,0.036794985710764054,0.024775648502700646,0.020031451751378545,-0.019322232842449494,-0.04256816160582307,0.029985527343329457,-0.0374819737175714,0.043520844460048926,-0.039736740112202205,0.045433347519139605,0.011930569723824254,-0.01221284520752849,-0.0033283294441364642,-0.03527265269744299,-0.026303849273531462,0.0062402443242477405,0.013440179335753717,0.025009467323503277,0.042166820369418274,-0.02463675509107575,-0.03091161994742263,0.04376781590396172,0.04284136537502754,-0.04164049354955495,-0.015738857388853066,-0.021212731863657637,0.009042914501547098,0.028111886563630947,0.022438905640902004,-0.0252368191016979,-0.021559144096155947,-0.017298021534189675,-0.027343146689377047,-0.008086371876566772,-0.03980917521498925,-0.0015611590137761078,0.025597800837112616,0.008245906575925317,0.007070769106389861,-0.017336540054934606
0.012093605780451265,0.03893309527206503,0.014918818402206772,0.0013229396858923557,0.021743941030316967,0.017407640753387806,0.020837760479967955,-0.005339717507981153,0.010531701740208189,0.04002734946182252,0.03519292619079391,-0.01800220624953732,0.0018367991030182659,-0.00041314351443602604,0.013201564564297205,0.02408866501124189,0.014545958320642963,-0.017840636997478954,0.012268720685391123,-0.03488209653078949,-0.03898802687387756,-0.026782872212668833,-0.002881609451697365,-0.015731867895922732,0.004885009148939924,0.031762691680128644,0.008902695373572616,-0.007527111382897928,0.03343940847530552,0.023517139681436223,-0.024515209728565024,-0.014412518361776944,0.02026768898822261,0.010242320192442986,-0.04059003941188403,-0.035427853579624,0.019744510252130455,0.019109003348624507,0.043069884911929805,-0.03407643290108919,-0.032008225536665755,-0.03827679016387281,-0.026233998310243926,0.021920797174689803,-0.0009342386353809219,0.04351151117617765,0.03699854895079873,0.02342835397243362,0.005615650008444653,-0.03985657510266057,-0.007088022983297067,0.03879592675758302,-0.004588189145020538,0.011108709490891468,0.03454695413977629,-0.03690065454726868,0.005390216383624315,0.03891191043351556,0.006563316042788696,0.010437794499907487,-0.014839932934641174,0.006259669827531735,0.02787842473177048,-0.030407916483295303,-0.01724778797536405,-0.030019419744339793,-0.04039721963097972,-0.04037005865871052,-0.019242645298730505,-0.023997581176229504,0.02835213870479517,0.006228578291055861,0.025972562261324172,0.04414413423157277,0.012477774478652526,-0.03818292310013534,-0.018925209139552094,-0.004338754159678254,0.03734243436408544,-0.01311787126116303,0.017931457899281075,0.01186786025360552,-0.019572165002685698,-0.041493193109494036,0.023931185134582332,0.009813602973089787,0.050547972104446046,0.0032599751297773647,-0.005059530451280961,-0.03247762435667676,0.01691072340590781,-0.032141574011477894,0.039222174576510505,0.003902862355274993,-0.017759619476714495,-0.005897144921783351,0.007579755639958112,-0.013013068481169064,-0.009931050881629384,0.021678481110966787,0.03665961528285029,-0.028775165359570077,-0.032350722860198584,-0.028341491873228986,-0.012537589555956533,0.003120206058138993,0.011767430034347808,0.016511017670712058,0.04201820936969133,0.03195705490102722,0.024438753850498523,-0.03030260880679173,0.038965193717743006,0.005945476020189161,-0.036659727488949655,-0.041747314527409665,0.019986807271191627,0.007567437406673226,-0.022864929083751397,0.023841909259557453,-0.019549571881033682,-0.026669086957464422,0.03569289649106878,0.03548404449283893,0.016155706667571663,0.01456680900917193,-0.018573563980807534,-0.03667651853282073,0.036527670154843456,0.02870511285746852,0.008524500478021575,-0.019812643820984882,-0.03808235060987796,0.007544813249766209,0.010004785870570914,-0.02243170665549278,0.01966236921401836,0.0012013898447198615,-0.012318592552113757,-0.0359331948178719,0.01139489716564302,-0.043168436226513666,0.016229524010176962,-0.02802252835904261,0.03736284258668084,0.002054189752286624,0.03191631723335882,-0.04824056480420101,0.020431223079517207,0.050462599216917044,0.017537410358307297,-0.04179259110053525,-0.01606410293868667,-0.034226393526482476,-0.03642598269066154,0.010025274275006907,-0.012360672372584744,-0.03888604871352074,-0.019044680915350953,0.02725150699031906,0.007673878542819033,-0.009667692255434622,-0.016472881451901584,0.017879860554670383,0.017983527684347807,0.022538814128643087,-0.029525190105909573,0.03787070300078254,-0.0352271165768349,0.0033781506101464714,0.00607772729124368,0.028662188693960165,-0.005736494335048738,-0.03848845893786748,0.017219224823186663,0.04249110079778034,0.006809976538184384,-0.0048851118994093804,0.02755190172824673,0.000404790430095389,0.013402935725382684,-0.02920881283155414,0.014921328007027604,-0.025409294219019708,0.04121930014258776,-0.006656382421392806,-0.018631316808303475,0.04265433997478891,0.013330768163757356,-0.013260995705317706,0.028758103727570553,-0.0147758456942951,0.01094416706115787,0.009155051268694455,-0.00820660537079968,0.03607370006777844,0.03423146507263066,-0.027630502206013517,-0.010302583741351632,-0.025146149328521276,0.00524575828098414,-0.026961237350213694,0.012249925236923746,0.016109656465726926,0.0236419886738804,-0.040662877381898464,-0.015339935536892975,0.019486164964510635,-0.019535660913212013,-0.017183501433522163,-0.03495160222613515,0.042334109727954004,0.04071592456860799,-0.03605244522926062,-0.034365164135892655,-0.027642010438725842,0.04143190317396838,0.040262691198862936,-0.028753285966104356,-0.024343449130269815,-0.0008707427448721038,-0.017307150637677092,-0.03525558951584892,-0.02216035476675922,0.0014059361748653648,0.024262374476845604,0.03630647895682626,0.007667857473295262,-0.03715941309375409,-0.023636878088764707,-0.034184898036422384,-0.0037606558316115603,0.023110320297895993,0.04315304983378133,-0.014443804920342527,0.04300605386545816,0.035261066228936815,0.00555624839979051,0.008010668462082149,0.01508728602857528,-0.037457052213723044,-0.0054926563694738,0.04048931120136342,0.031497918985107655,0.03029686511449889,0.02523663184628034,0.021449185994119088,-0.019379081928043905,-0.00024048882079584548,-0.0033048082869311323,0.03812100044914698,-0.04391315137754032,0.0395792980989843,-0.008606958044035218,0.003647442256571045,0.013994065030089844,0.021859581235981966,-0.013169600523163048,0.016709680873159778,-0.00236918538178891,0.011039029566469268,-0.002224442978670247,0.041487346284031515,0.016998435463179813,0.02696947863644588,0.019895038816713517,0.015105315162809883,-0.01864424163336922,0.03256690337028483,0.03623438631484922,0.002969612860516968,-0.041467811739519876,0.02962546440140021,0.04122390031782233,0.03349291268646361,-0.0026736391460185686,0.039241183770775935,0.030345910401653357,-0.006915069129549101,0.02371986068555625,0.019693513701183066,-0.0411047815382878,-0.04400238348935761,-0.02501565270781546,0.03653888224705871,-0.01299735091700469,-0.04158058720591487,0.0359266572687458,0.030425470917235936,-0.014265224014508493,0.013452648910883281,0.02384732718250629,0.01860305248136507,0.03858425748588449,-0.03880763257585095,0.015588721806825169,-0.043828232683542544,0.036248808607874494,0.021730820053235463,0.010480232867553424
0.03310022961208729,0.028852389520371915,0.013449144218779146,-0.016684596391528222,0.047282619868791904,-0.00463171464260648,0.015482888460954983,0.003248591553575877,0.03851501097534791,-0.009901167374227004,0.0029389219429833548,-0.047882999122541736,-0.0011994515452399227,-0.014662412381540075,0.021899676910829276,0.011407418589057422,-0.030727861276783452,-0.020363186489309463,-0.0011668961659007898,-0.01950325809510719,0.0068812894667578785,0.026130787005730332,-0.0041328948201120345,-0.01934626226476833,0.01029777402900117,-0.01770573139045388,-0.015462560733829655,-0.02449813328824978,0.02495394786389805,-0.03239888384333353,-0.001403616372558415,-0.004268522229942784,0.01611771981742979,0.047947522329339895,-0.020705036792545907,0.013335490575567353,0.03169514346388467,0.03276458975819832,0.005163526180480568,0.006390844063511106,0.03453957433011185,-0.0054298498454828205,0.01635909467180578,0.04361005709558348,0.0013018566260079732,-0.03678027105636375,0.043983966423086406,0.011078541930004945,0.03170683150333516,-0.002945875466104183,-0.018123904056729256,-0.03346260026389137,0.007612440892775358,0.020677598307796884,0.04356819868923199,0.004034060687072391,-0.005245570354959245,-0.0010262458795393056,-0.010289618684753565,-0.02167490601178062,0.04981767574447543,-0.0296422845918342,-0.031909080836852864,-0.04783726599002979,0.000978784547271802,0.027810785168424616,-0.019895259237975877,-0.03701209960054202,-0.03098907356657322,0.011063984167540978,0.003454242852716532,0.007707164533800563,0.019666440875447375,0.014487122955964877,0.006224936642529192,-0.03227977312001871,-0.01742865746174959,-0.03469752156103759,0.03582207120505273,-0.05016928744155198,0.01757269229575133,-0.05240989642573757,-0.04108234855415143,0.018939712180417997,-0.01922087483480372,-0.016793976209769797,-0.009220228782500407,0.05762647918127878,-0.03168462226051571,-0.02379190346493712,-0.007004333647065143,-0.010276833632093607,0.020012241415448072,-0.035261560639742104,0.005983483591582913,-0.03774746208883575,0.0446578458343699,-0.038906782994572876,-0.0427473530310422,0.0018621267376456921,0.020078206118520545,0.021815989779156886,0.012855909055645244,-0.03017074935481796,0.013703885033235507,-0.027437215234524498,0.01664498601646313,-0.02295378928603665,0.006782494415771817,-0.016654576077807865,-0.04610050204255304,-0.010927215315047208,-0.026221666542919148,0.04009760194471077,-0.03134610911057762,0.0010625705527560563,-0.01956455102557443,-0.015163113664851822,0.023717115350330758,-0.017438930800926747,0.025629053333046097,-0.003520251339135107,0.007622727163485404,-0.011729811281631012,0.04082519814331869,-0.008668116428641934,0.014512170965860535,-0.047855385156605174,0.03245781505932419,0.01631058599454801,-0.04266306878490821,0.02622601776364195,0.019348904057334956,0.0012304097095301243,0.019052367187149248,0.04692423095727708,-0.014857850818984822,-0.04544672996267238,0.03736994859858125,0.0113812677361367,-0.03989411966742003,-0.011995649853899172,0.03247506480508575,0.02502499544218987,0.03288556339618559,-0.020955457410065898,-0.002978323021674715,0.03703130652357641,0.016405410321727303,-0.030764914814607105,0.02112154594467296,0.004990350079291028,0.008224632881511457,-0.021055630100567164,-0.030275100150828137,0.033472593643739744,0.04004474234690857,-0.03431305260201693,-0.06278692022284013,-0.029560076640669234,-0.04664098903180438,-0.00645438396882554,0.026327076284132396,-0.015939248012552715,0.05724298404770241,-0.04243267648996441,-0.03641580586273237,0.0442317807786458,-0.03334935685326881,-0.0319833047004789,0.00818955836085403,0.04021043887873357,0.019229795741510777,-0.002244619882835279,-0.009397344972727496,-0.0025776744428229995,-0.011553360636824704,0.032090154661242765,-0.05466062496704687,-0.035605297471889286,0.02538976578452833,-0.002642760819591102,0.022290229029387394,0.007280182621093375,0.01312104556407217,0.022263859621660522,0.04025582691656286,-0.021603402846343895,-0.028686634233655,-0.02547786856201733,0.018516170252866556,0.033506026045273564,0.024314288649506893,1.1796972690294741e-05,0.012243893886170957,-0.04352092017247424,0.032920537788234706,0.012316124208191217,0.0328351051619014,-0.0015636515482021537,0.04873663877390378,0.04275507787441327,0.028842020723282586,0.01624896881947521,-0.006220657711153083,0.03197361034821461,0.032838262756427594,-0.017546035410244385,0.0028274598573686987,0.018803409087136635,-0.03274773994786591,0.022065618651202018,0.03800161456130884,0.0074550125946386174,0.041827377085239426,0.047658352512208776,-0.012505282482929158,-0.037117134097441835,-0.027149318866551964,-0.008852270644911094,0.0007487500948336747,-0.03476070608604626,-0.04324639462443276,-0.019746502139588156,0.007309267899150637,0.047046234529109214,0.014459702957196277,-0.014169558681393753,-0.029913100351760855,-0.041798639784729225,0.041602815638012165,-0.008241335563535037,0.04382996256673425,-0.015856375474523877,0.03282575007990636,0.024251658964915525,-0.009529944392370288,0.035292497212279596,-0.007186593256451506,-0.012658625732288799,0.005443660001710746,7.243188891071852e-05,0.04118188341707986,-0.02986538180688835,0.030114777450426917,0.029610214198275413,0.0027984800674171746,0.05760286622660077,-0.02420577590345293,-0.016636291640318206,0.04051591671558902,0.03923623517173944,0.005404232244739728,0.03594720313481197,0.02707610954979713,0.026917557260805185,0.019690571459098635,-0.0004441138930493611,-0.00885627724340202,-0.05603116326848222,-0.017521158746843946,-0.021356706738922173,-0.016594346831854657,0.03265310600518023,-0.026949443181257957,-0.007586320635621706,-0.0354301622313596,0.03063799919892674,0.02177269583476922,-0.005409461444022644,-0.003456621450953392,-0.02984489733156798,0.018506695128705036,-0.03263861971505913,-0.01833240006805946,-0.06334823802671824,-0.026032790605008675,-0.015548381568013015,0.05766910217641487,-0.026733918772890285,0.019778360023985725,-0.004046099500279385,0.0008404687182387475,0.017449259637884143,-0.015887247474700356,-0.01783118298230304,-0.011278450965004022,0.04963240403544342,-0.01570243555272242,-0.020632716380693777,-0.005263257222806995,-0.0423879742111491,-0.010805064402403313,-0.01192503393931611,0.022228680184996394,0.010350253828532371,-0.02782550921591305,0.03830252356969327,-0.03620083646331142,-0.020059528929167885
