0.016751321293954086,0.022406155686286126,-0.0178023925056378,-0.009178317241335436,-0.05262722495617092,0.016410680819966834,0.04633119050095873,-0.037620054226506404,0.03596787422366478,-0.018471870071317002,0.011244667227053888,-0.06473243956434004,-0.003956494505471316,-0.011214667474832088,0.048071165263891144,-0.034247037573449775,0.023439022896427696,0.010863606694591335,-0.06156145234583502,-0.04561791056006253,-0.021962098878071677,-0.017522315385869524,-0.04982973926352308,-0.07343287676577663,0.048871829897630385,0.03408168431047481,-0.08521487817736198,-0.046613668216271116,0.014386173757881156,0.03494487185310489,-0.0439815897266169,0.05456843050598448,0.026155934702969643,-0.05472071906036377,0.028118374486780937,-0.03874178808801785,-0.03091630242870254,-0.05515016423881845,-0.06054667747631067,0.027350084027246178,0.05581332526955127,0.055105432753476305,0.006836751546689878,-0.044056693722763406,-0.0319302643867002,-0.029190565847208867,-0.031943791730947434,-0.06638533294782713,0.05076234380036822,0.014730637340638501,-0.02119953431957048,0.05800601832339757,-0.051027378976446075,0.01633433710868068,-0.010584135263257521,-0.05128632860622615,0.016780521018906255,0.032430586903667125,0.04100112341295014,-0.0019703411837093602,-0.047689979025621006,0.038350595582743265,-0.014448724372538654,-0.005923226524612636,-0.05304107726949411,-0.01930153477418133,0.005840212641106639,0.05050571967032267,0.059697623767218044,-0.020039142340016816,-0.02531773788302733,-0.05168648364048365,-0.07426860358444033,-0.021321056915569153,0.06310638276475983,-0.013967150767953828,0.010004343108398922,0.04469161861486184,-0.02447480130799835,-0.0021198470443393124,-0.05041700740824369,-0.030922376107041807,0.044283751360935875,0.06571865027204965,0.02291842652353035,0.041295284458892495,0.014290115507183218,0.06474261586927324,-0.029234323328955165,-0.0023787143392467215,-0.0009337889925800234,0.006185175650713776,-0.010164008397346835,0.03562498640887013,0.03950111171811357,-0.05686765375718328,-0.007069469315522947,-0.06341571484742617,0.01485896206621429,-0.053586736733016144
0.05279961239065737,-0.013801496193210186,-0.009624859134420344,-0.06794689565143582,0.0158937325007923,-0.02187299821229405,-0.011540110271716758,0.03739593625369575,-0.019798268790636394,0.006768704565891509,0.008829885105457643,-0.04766786551416024,-0.015140332806379718,0.03395323883274931,0.017201549321484592,0.008404410768374178,-0.04471522197160891,-0.027392864300645036,0.026231843841317718,-0.06072784014196824,-0.05688948880586465,-0.0023240681144809983,-0.038056795153038295,0.010103881548731394,0.018150495857804178,0.0256954334709553,0.02138841930973356,-0.03949372734012051,0.06329035725426413,-0.0015974145490204792,0.02719481589184715,-0.04220487627640894,0.04907984405100591,0.037907942664947604,-0.04004169248260119,0.0029935978955249595,0.009578841633171414,-0.02627589443358436,-0.005854909470986967,0.010635298688886323,0.04532829230818824,0.04995003438889029,-0.03979717760932613,-0.07206119457375731,-0.014955517655150023,0.04332959930453867,-0.0658343808358361,0.07517531139573355,-0.037868615006758886,0.019309600468297827,0.053310758823246554,0.04177219298836402,0.05077606524967358,0.04279435896909811,-0.02473620642665407,-0.04079548532366908,0.033760433555964024,0.004614863132233732,0.05347442906307235,-0.049278959044406545,-0.01064068165857202,-0.014723560238226196,-0.00474514238847529,-0.009122836270595036,-0.037815602560610874,-0.05358590853256091,0.018993023877811016,0.030533069454702206,0.06437316051701396,0.0036810251504561624,-0.032549470474161235,0.01994214826907176,0.034449134231770005,-0.055297821520303665,0.03837295686564141,0.010768704348780833,0.011182202884571652,-0.06021290348706746,0.0024331906768144626,0.046921960220826536,-0.005918069624746686,0.050688888381539725,-0.016704814682426555,-0.012628144135240492,0.05059132680747826,-0.019278217334097254,-0.02642242812673706,0.07472435137846035,-0.06246046709081817,0.03002171364762348,-0.060179297729050306,-0.05416892545269913,0.03058915419441083,-0.043895349822495974,0.039186969261640406,0.006219490151658908,-0.054258361534988746,0.01709187517872449,0.0037094077698979332,-0.056744069667738525
-0.01567083740517006,-0.024647477450472542,-0.06022162881141403,0.03930228383046154,0.034743747356070824,0.020483718425272888,0.04042579012456564,0.00214348614878654,0.0033294556562979295,-0.04748964599165897,-0.02285797066852855,0.02807377724832994,-0.05079849112883456,-0.01494757149891837,-0.021149675179558545,-0.03203907389082958,-0.016752610393167347,0.051800275802747243,-0.0562173577027891,0.016097981147731286,0.01915023209033893,0.04773784714807797,-0.0430433359842758,0.025696062331622395,0.006732371867641857,-0.03133416216359146,-0.0008465792223260165,-0.03789600959112684,0.005126570493470293,-0.028555804685011867,0.046888725459776875,0.04170941608179269,-0.050452282433554985,-0.04346733416110392,-0.00011982586072288332,-0.03798644150485245,0.029441028880854054,-0.004582994844205777,0.016537660667862726,-0.047370794288113166,0.03739465243410617,-0.02391651675201699,-0.050624778811125246,0.01948248382499599,-0.019765740854381913,0.013879218480505627,-0.04830531285701402,-0.020598531524408784,0.03864368003626709,-0.034189723601452886,-0.004536379814841508,-0.04661253676570534,-0.03380786431689058,0.03950655167237297,0.038008179596255715,-0.022519634739186747,-0.05977157519585127,0.051240127013701904,-0.029629104430134334,-0.03984073509841463,0.04023529509399953,-0.018753969626051546,0.004438241643965271,-0.02580469321572266,0.02167679798074996,0.03499385326632373,0.02136205572467059,-0.028110729835190217,0.03341611290258536,-0.05092901283848142,0.001829745261693015,-0.01308337696983754,-0.03715894133109379,-0.02814517935868573,0.03358658534130278,-0.048259237087859175,-0.04963943251873564,-0.00904390863705169,0.027210419952876746,0.028176831491315182,0.03284064886253267,0.04639715525018605,-0.004695931883940787,0.00802378449384004,-0.021569944664458426,-0.05502304837140769,0.04237763430096412,0.05154882311447369,-0.03608040696998939,-0.005344090335811835,0.014200243122388349,0.02339565421159888,-0.02235438664806044,-0.031177008683437535,0.012247243713644516,-0.04750728835513311,0.03715562251930304,-0.04312875948899691,-0.011941193367460325,0.00889334308223383
0.04187954194925331,-0.02029270635915015,0.0023991765649173415,0.055541382172175885,-0.008293614743672677,-0.008254510401133277,-0.04410890905691768,-0.00695838519184712,-0.053382299523902346,0.05594268457999907,0.015238515384394666,0.020550724247527904,0.001116245445648197,0.053771981079118535,0.04677151834910876,-0.0008058518046836296,-0.05297358458837936,-0.05378470013449729,-0.03912120079763387,-0.015120937288493516,-0.035601724222485205,-0.017208791121611628,0.014347590206396314,0.008019307401470005,-0.03484107766869792,-0.035427905626570645,0.0176390245100194,0.02102674934680486,-0.026121033889784786,-0.019266970828249085,-0.057089366623611006,-0.042096918329557975,-0.04148785066771615,0.02920599489976279,0.017616373578239194,0.027141574438844105,-0.05498615712001407,-0.017102620782702613,0.0006947317456802703,0.013386548407576162,-0.028908903875311656,-0.042487315172144435,-0.06319131348545434,0.0024412257688815587,0.01939797525446846,0.010543302545646446,0.00987279259862079,-0.05695516074748732,-0.014982801959340573,0.01731080699967518,-0.03488712005695692,-0.04177888716337973,-0.023870123808015613,-0.028484703610009855,0.05342555085600354,-0.05561846451806434,-0.011760671069527297,0.022050494387730647,0.043470677182949995,0.05178731592588511,-0.02376667798014976,0.025616854866856626,0.04292711430375255,-0.043758153537145524,-0.017654028950873136,-0.01009691112778554,0.062288313434832036,-0.02159124573308554,-0.013690147003751992,0.056111345502767127,0.0235623358496942,0.048959287839633645,-0.043436533756635524,0.04878579441421619,0.003283390164622439,-0.008376787469593763,-0.036179532033008166,-0.057579950409225936,-0.028988959978482574,0.03689391559804613,0.038738095247234726,-0.009313723685213661,-0.009130436082345353,-0.00503051557311715,-0.03212285058768851,-0.011340483863440406,-0.01825354858385871,-0.045260287785001935,-0.022621056545569403,0.009907468526155917,-0.050518835882347485,0.04374039453067411,-0.05292806199237619,0.0006552552875289798,-0.026170464662933424,0.0032093812603514083,-0.046258421248842,-0.04934496440724359,-0.015877753714161162,0.0163323307707807
-0.044340552813044054,0.061484202213975186,-0.03022901622698784,0.005246138670918616,0.019008962867057798,-0.037450309385510486,-0.005680143474631322,0.02956003310994545,0.024970722972397164,-0.007039870366553386,0.01071636161346778,0.03921568970991934,-0.04381406537107915,0.09395794336647864,0.040635787312043724,-0.06492071484422941,-0.016010049749615427,-0.02889030806108438,0.03558643961567664,-0.06712962741309951,0.004947531718320871,-0.0648815434893194,0.016525605228004087,0.07540865405889496,0.006324629964008311,-0.006475404808640043,-0.03458846032890486,-0.003683567436902239,-0.009130318693327791,-0.03387811568727179,-0.025172256564593383,0.004011169256500267,0.00398030190557449,0.03726445986624384,0.005066004682947073,-0.019397955388194176,0.025988191434538285,-0.04263814050207173,0.014191208164142448,-0.04913496779009297,-0.034463768889643476,0.08705547035088561,0.0034928654591167047,0.07446485289901446,0.09532903447951625,0.018746648034418865,-0.07497827912697999,-0.05187355936043739,-0.021051750668973804,-0.04686893582362095,0.031115222495374607,0.08135786554969163,-0.05500840013908159,-0.04207766599723868,-0.02324144363702004,-0.039235272643718365,-0.025655414902520875,0.0026468439400973735,0.0037622483811151916,-0.05842466860291867,-0.041536121173896476,-7.683866471256307e-05,-0.02160586581395,0.03894583224358387,-0.040567732067686,-0.01787765255792155,0.006780473220170035,-0.01532523354652033,0.09412026338834513,-0.03418181673393342,-0.022980654610308668,-0.056489362558674094,0.051373032793260456,-0.08823835023661522,0.0018171302478318498,-0.01550291033142677,0.02367797127126026,0.01005645466898631,-0.031636074389820384,-0.004108004257447259,-0.062025901967285385,-0.06033777425724233,-0.02982223013795021,0.021484802186836394,0.06984295959310244,-0.04110137574928302,-0.02225319160947448,0.041148082411664795,0.03313914622933495,0.0035519293371874213,0.013159192718261218,0.018373419833763976,-0.029363582004797908,-0.0277925411735848,0.03660466852417649,0.00751365447349187,0.0861726715287958,0.02807006147094976,0.0038956262813645117,-0.059905625788371566
0.041339282846442636,-0.06197788433655705,-0.017222683199106487,0.004554395919570228,-0.04475004422430718,0.03789205127131015,0.03659844294026423,0.03432114372458991,-0.04624742448214007,-0.05263144892061552,0.01121130322009728,0.01836624101136868,-0.03756922094991378,-0.07729559464177119,0.032063032405747066,0.03747447987675934,0.0322185429558761,0.03884576964516249,-0.03653432717651054,0.042075043776975844,-0.00526623783905256,0.030345176108250053,0.04738561838745593,-0.03273350335679917,0.04621217733850502,0.06735232768287344,-0.058182652620222715,-0.06176673188064142,-0.0012895193611993502,-0.014887495522624455,-0.05224081307182083,-0.03706817841982058,-0.01974072793750581,0.04747666132024768,-0.042185714349019146,-0.028268283044159626,-0.029026324618982573,-0.05683611248475279,-0.003456831329751843,0.027758538051815586,-0.04945228568824745,0.05322690363217542,-0.06005612805435909,0.007484756545362321,-0.04305912067654563,-0.053423739363373385,-0.08113506866815187,-0.01288497422542294,-0.03759304461535258,-0.016401257519361744,-0.05985137618275416,0.054369226938884914,-0.005835648421933402,-0.00977812385429002,0.10789151227199825,0.006066495379228738,-0.03698033125134055,0.042919265359905374,-0.044188605109874476,0.008748916115980103,-0.04589018915297519,0.03272235188666226,0.0110634521636025,0.012797454112168828,0.027372378588939254,0.014513703397567097,-0.04691006443002781,0.03669255160205561,-0.04348360681761054,-0.0199462926819975,-0.05640363571506594,0.019743094070560404,-0.006916895705983466,0.12045825381332255,0.0676142392477143,0.02365370421400258,-0.05835511494237589,-0.004096512483438571,-0.029750084274644387,-0.06582080119660702,-0.0434687208288358,0.09150230026594385,0.0008272391398939974,0.030931806519637728,-0.06111746674213518,-0.03291525206441503,0.0035681539786832847,-0.06907408760319142,0.02866363706622948,-0.06233054758235335,-0.03335069060942741,0.019599941108388082,-0.002434830954234987,-0.025710681494387922,0.0026621216476560255,0.05005304071456384,0.016069941930469376,-0.05033340646642458,0.0387672896350255,-0.02910859252528855
0.04230794222200749,-0.00529489811406941,0.04057964871549656,-0.001599406357749397,0.05468040768365379,0.026724853994904294,-0.024337340587464774,0.044974905611791564,-0.00026378081342231526,-0.01654845884550897,-0.010336919839474431,0.013524206428036572,0.005815973969073515,-0.0013457262528427211,-0.04992120155476587,0.020479469789194005,-0.04074601710838771,-0.02084679212711193,-0.06045011529939664,-0.011450594653312818,0.012188207349146002,0.003940765421142346,-0.01679558806760288,-0.04339378972827725,0.05744623580302834,-0.005215779487209348,0.012209187077890043,-0.012842992861273899,-0.04341825261603961,0.008066410739548795,0.012194955782822803,-0.0036649650038371993,-0.038413700131443344,0.02815318619911759,0.04964272990652224,0.011507517435506898,0.04550371017575529,0.03343829601797717,-0.014655170533188587,0.058541038092733304,0.04667989348990577,0.00029515841613631584,-0.03511276260279226,-0.03886205229739589,-0.032005829181747,-0.008967067425464095,-0.00016429382089923453,-0.022573429578235316,-0.007709976244330116,-0.05638575136918835,0.0329385926049095,0.04428130975341352,-0.027676757713583328,-0.03579984048435484,-0.01627469481552864,-0.02481924213081401,-0.06846613065214123,-0.06491936627277808,-0.021517622318410208,-0.02720156855698374,0.050331850377506586,0.052571940422886855,0.019411411712251105,-0.0527555129072408,0.0034382864525934593,0.034026488700890596,-0.005789951533420453,0.019871363044689547,-0.0018937789393460424,-0.019051581167351575,-0.05337102428401226,0.021547140203714454,-0.04156331653681509,0.02002522408140699,-0.0396899261505966,0.04757147017195817,0.02459862461739482,-0.00796773990416431,0.05298905336916893,0.005264471600405696,0.014201501566744292,-0.027496060793935927,-0.04285278578526928,0.04285711269322878,0.03374914240604745,0.01703488418136414,-0.029583577091104624,0.06145942301623785,0.010339372079919166,-0.04639377090718449,-0.009540869528233076,0.059873669526215666,-0.018094402762171835,0.04433286741482035,-0.06593329811062976,-0.0019707333438357807,0.0029060739732070387,-0.08719111309295889,-0.006385285535224044,0.0026275256286852795
-0.04865282849585497,0.01951944191040651,0.014758825233196974,0.02661656700532511,0.0035814833845114516,0.016520030538586052,-0.03284733295995637,0.021146006089445887,0.018284335861162456,-0.014948311260019626,0.014965900487714396,0.0005763464942731121,0.017838882339014046,0.003528439626192168,-0.032687406368534865,-0.009463068141169035,0.022536978412989156,-0.011847515392686548,-0.06048467197612559,-0.02458952535114698,0.06099832531162688,0.014475471001447481,0.023964070765845287,0.04519856001525967,-0.03577037481291143,0.016074468555649493,-0.01605200817240591,-0.02159630792199928,-0.035000630726952565,-0.05107004584371343,-0.007063614778262912,-0.0029012539788810573,0.03389859685654929,0.028178307059348432,-0.0219819776613261,0.021283570323229244,0.013950356199290992,-0.009616613140455645,-0.04233122200395799,0.04307625808742215,-0.03669431514072407,0.07723084222911562,0.0011748526750454808,0.020897644537250733,-0.04860978024969617,-0.02886689063337697,-0.013517909304468492,-0.05122899731624343,-0.04087518479378986,0.01618426212199988,-0.02515798457485456,0.007285722413376027,0.005710165352663883,-0.02186115460006351,-0.0023184776125929757,-0.02834643012422751,-0.028200497069349316,0.0128288911769348,-0.04140697011636613,-0.005629168853738068,0.036818563428612,0.003985606555564465,0.045477516313086705,-0.046980762090838415,0.051895424438485514,0.01844045332439314,0.0021543787811958435,0.004608110279686878,0.0512290119505828,-0.01057446925012895,0.0033434088523397877,-0.060146248924469424,-8.670382658810918e-05,0.05772514284337517,0.07041828714834183,0.0038875109012090035,0.05606422672793815,-0.0016799779814741927,-0.042855732728636554,0.03734177938442318,0.025915876334411888,0.06441982485859625,0.0009133932131869424,-0.04697148588643397,-0.02108278063808216,-0.04432898115768663,0.05699271543411414,-0.020591314781787502,-0.01147919318764728,0.009475899919916268,0.03762889027427358,-0.015307169727091573,0.05340658945532708,-0.037751261281585576,-0.03713510676168556,0.040871104262758896,-0.016337098265323865,0.03758678828885026,-0.03463766544439617,0.02100271470704132
-0.016232083286008236,0.014060185896035561,0.03939916814468881,0.049027483485401105,0.006627076620400716,-0.019799234768826106,0.01706861069140487,0.022109227384286237,0.012629082449036369,0.04738296580796024,0.06821004686124187,-0.04062441532054096,0.029744104310407832,0.01788475942407483,0.01898671470269476,0.014351750765809586,-0.05312036643861181,0.024286335203137673,0.0478945074784682,-0.0019340946191970818,0.07837969149471229,-0.04631896417219433,0.027665946961923343,0.0002914989579550887,0.014677549689121725,0.04858014282027106,-0.014942238218394126,0.017200101593332157,-0.014205874906610943,-0.05058982244235723,0.03481876125102209,0.019448101210465,-0.012051328662283147,-0.05245274386530808,-0.058921034486733054,0.0016609856829602474,0.007059722770559838,0.061125277093459704,0.020070338603966578,0.020250013510004473,0.043650322834010435,-0.0356201465728097,-0.03769046404937488,0.011270456185865566,-0.06322007580824586,-0.032250555242716944,-0.011768285230699336,-0.005403930036673466,0.01337035469633213,0.025496353117310185,0.029415748685191947,-0.006010652863354122,-0.017242642601909813,-0.004458839530806303,-0.0337881009697281,0.05215416375180439,0.00037414287951264923,-0.050360395470298996,0.022308899696479513,0.021541840085674124,-0.022852747258509786,-0.0308934733710078,-0.02444047564905689,0.0316425246049863,0.05683255182576484,0.03439971955947666,0.03294001098509075,-0.04846813571350274,-0.06256773797012477,-0.004652174374778368,-0.014130809920635982,0.041627614348748246,0.012654527006988192,-0.05819709382874448,-0.03590524322551482,0.009584123423208805,0.04322433732152337,0.03423390829805399,-0.005639585087383007,0.05021841049360791,-0.04706339592333922,0.014168074181483005,-0.047553421496991384,0.03408114035040916,-0.071197994747302,-0.058071315211134455,0.0183715835772953,0.014293829272640036,0.05429952328788014,0.05429543079484878,0.05063728219047986,0.04568191914978638,0.027751523736745835,-0.005463477327025097,-0.06526575455925537,0.012338124097905639,-0.041280536592578784,-0.06581736226059548,0.027288997746855823,0.038095350488877626
-0.05171213411495527,0.011918184418202875,0.027294093842808433,0.021739135714622475,-0.04017179894281953,-0.0499141108872359,-0.041723051123501526,-0.004077131744776425,-0.04439640598360847,-0.03569620372308028,0.04324356684539182,0.005604930351777005,0.0035995260140389116,0.06338404933841033,-0.0009128041508307702,0.030185018265489163,0.02070736202697656,0.014492432660431839,0.06284368119714284,0.026841378971007385,-0.05119324935703694,-0.020921379493885433,-0.03216138299775627,-0.01581051187550851,-0.004042390271952962,-0.023953470667148802,-0.020595368708854186,0.03452850814540351,-0.019083739454898028,0.031015955997392246,0.022230908559838107,-0.021136255366028957,0.05920634601954162,-0.018060493095839,0.060736820730765695,0.04840720753792192,0.008519680805965168,-0.03909053202825908,-0.009167975748936881,0.00453353916492523,-0.055269839294022224,0.007063888563787101,-0.026458912739620248,0.034908555408499256,0.029337737424168647,0.044288326314988656,0.054631188543761,-0.03703283387656762,0.02527306487851045,-0.004774394264972018,0.013077786372751787,0.003533730208538564,-0.005879640185205586,0.011992187098930775,-0.03610234077868143,-0.02885179801904487,0.05888318728437509,-0.028804457434154624,0.05082174936895752,-0.00530779521234005,-0.022373391431060756,-0.005343303046832299,-0.04861210164302561,-0.04542587359339063,-0.029642479108479246,-0.04897822283539705,0.02129324517347722,-0.04277059195097968,0.060640155324920536,-0.047617347461834374,0.022785432994965923,-0.029228430692780305,0.014482418956484106,-0.004163286999308621,-0.055802133460981465,0.024989693544952563,-0.04556391632949748,-0.0015499097510565676,-0.023627331314047668,-0.01017554994399549,-0.039615399153699604,0.023923422915384993,-0.004074326437248209,-0.016457765981983286,-0.03909308056204122,0.03653999178107434,-0.05934838534538559,0.03212960446815875,-0.0033683720120369796,0.013231282748851644,0.03072816034050919,-0.04145124469230194,0.014599395458945898,-0.015983201859825172,0.057044808000968006,0.0172027780322919,-0.034297889485081445,-0.0048203787783341855,-0.04309777183123019,-0.02497651719642423
-0.008364807671401239,0.048128795109525356,-0.005219754837163849,0.012071809730694211,-0.00014934149168790813,-0.04162042282735487,-0.01542949318765714,0.04739545742529742,0.0474722314840842,0.02305010207285072,-0.034029522935477514,0.008828329452086723,0.012844542710569257,0.052866667962390125,0.04504020758661249,-0.01480129311627838,-0.007908507080089387,-0.017965284131406915,-0.0335170047159492,0.001193761565305082,0.00026381328732909715,0.02429808223155857,-0.03581398538840665,-0.014891165392317727,-0.034896938901407264,-0.004709474753929141,-0.056885829647066656,0.009616330322793106,-0.017893041017742823,-0.05504024908752821,-0.03342005396233678,0.011122249208149568,-0.010621071112329687,0.04746224595558886,0.04737192007899021,-0.02650773690495331,0.029234303097293926,-0.013778701358343606,0.03702825524956845,-0.05748794338298542,0.05611319574363254,-0.01146615100277583,-0.018445244508452287,0.003079721364859783,0.009092161273976565,-0.01101982266028737,-0.0009320048568825018,-0.007532849074237611,0.021497567376027853,-0.003487409773290696,0.03777840175495665,0.022536320153330777,-0.013342981739315543,0.030021169899538264,0.008486002205081673,0.009046427046655725,-0.042436123633736264,-0.03943962368080013,0.02873353450102739,-0.0003466041052762637,-0.04766445716974913,0.024148550366386013,0.002835578831257479,0.02975323369435207,0.024315576621457943,-0.037278057716009685,0.04096297438393818,-0.020573202596746186,0.013887775653910818,-0.04453331599661525,-0.03040700062667141,0.008152925164485948,-0.05494021479792445,-0.011289202850901736,-0.008330479916695749,0.027836756028588292,-0.05219186928572966,0.006762153531129709,-0.05326729228362773,0.04542529982971642,0.0009183892327765006,0.031209112006263296,-0.050141930790931565,-0.05533114849064395,-0.0033586753545400768,-0.036934127495199136,-0.05561453928565802,-0.0010154044098528601,0.04164605496802789,0.03354979944513443,-0.03490130755095674,-0.054415643586985675,0.014752429644458486,-0.036987713513961414,-0.04024138848738107,-0.025615479780385978,0.006035543274726968,0.028104271984060177,0.049037253250436494,-0.04773584056889676
0.027828298872182418,0.07322007494603068,-0.06542580339786223,0.02949428623548741,-0.04314690045246559,-0.020423643477375564,-0.014386086764295229,0.03276108330230307,-0.002083595395345137,0.08085509692852469,-0.0052052813463524805,-0.03745923145681749,0.06123464529233468,-0.030360603286164082,0.01788607881607629,0.0068654828322744395,0.044841584955334114,0.054606481859020395,0.01645152660597226,-0.027620483759877253,0.0019051011578464794,-0.02659321613271769,0.011464968780497567,0.003666826070944656,-0.012711107160735566,0.0019559921961072274,-0.07123285889526138,-0.01677038510572803,0.0595695583188663,0.02587630535789428,0.03754588407021224,-0.035817302744168354,-0.018044702073654773,0.0015945145656381056,-0.01444315515177884,-0.04585128679762181,0.06053086712566717,-0.025796371329917345,-0.04610437994231317,0.08085046126253671,0.06773353609635935,0.038496588313203274,0.014904805057791131,-0.02673577445541536,0.02444536025119799,-0.06384859318003405,0.06910141508877858,-0.010403922475007099,-0.07190496012655756,-0.05109775749142358,-0.0308809133372654,-0.05868058404304336,-0.03506858969816589,-0.022810038142299722,0.00501827110151602,-0.040374299557597165,-0.01024888036332875,-0.037420335809948045,0.02418071125841316,-0.0016438877174834378,-0.020763524225107587,-0.03244638384764482,0.03911390696987516,-0.024949711728572816,0.03635677251081724,-0.021986224851343984,0.03701276342088648,0.007496315842082885,-0.003607884578922345,-0.0005932503769999287,-0.04753725622925171,0.046409877530440694,-0.005677116160192655,0.031003629521338175,0.0419172178971525,0.06928464920487674,0.07678385759636247,0.025176779100107093,0.05139303603388057,0.010104986062536264,0.023973434410105163,0.04843791397519845,-0.03783507213508677,0.0262410435271234,0.02281220543957437,0.013730785277708237,0.05813978848714204,-0.05008184677565522,-0.04739064820860038,-0.018564103705785907,0.06909762175663851,-0.02545042773975923,-0.04518248478853551,-0.007844700406395356,0.04778125785716974,0.017396934521800148,-0.01645166097548324,-0.010417455697115503,-0.01935757363479751,-0.04609961454783571
-0.024517748683635526,0.03453424640929324,-0.010129673454354516,0.05538189575759601,-0.010368266079416353,0.016691502340044725,-0.03933204923798885,0.011995520206117986,0.03785937236401832,0.040553841057546586,0.024695227751348726,0.019050885571816566,-0.05468887371456748,0.01656508374486197,-0.031470745990924656,-0.03657249857811778,-0.020269343672093536,0.01923498603516177,0.038842162069713394,-0.06079654369342689,0.03093627813098261,-0.03544552901276053,-0.00300288098838298,-0.006399526904579385,0.001211237919501844,0.0006498995642701549,0.056948783081174,0.006054997608755715,0.09304200027517988,0.03729291503167667,0.005523239314971008,-0.0460628104865762,-0.08365406048374646,0.045464630060003654,-0.04798825053824199,0.04275787065200791,-0.012365674982479124,-0.010959612711913116,0.017940105720061276,0.01083806988561666,-0.023687212220629736,-0.0434701198186408,-0.04997335329368773,-0.038914358817920824,0.01018557169484791,0.006585785100722837,-0.009754962527392311,-0.010055672786243725,-0.05055593154057152,0.03735142922360202,0.0030523777697743426,0.028858007476752625,0.052771133695622925,0.049963772472562513,0.058711089014321476,0.04116584659489438,0.018898257421067887,0.0515470595024786,0.013619009756722361,0.036464857206725,-0.017738686162655337,0.043697846165370056,-0.02345799710459135,-0.036086019970989446,0.049272386274080884,0.033221309390594055,-0.02409358007036569,0.004470134087129481,-0.057208521769784124,0.01690955704955063,0.012766000368483889,-0.02255480654400997,0.06150046059597123,-0.03684521389978307,-0.02449267555431192,0.054048366810122386,-0.04426043751986365,0.03549488408085158,-0.05029585773036627,0.02437461611642148,-0.04763409673650917,0.08160443423338798,0.07492968567885402,-0.01003547739382459,0.02221868182972801,0.01682752343917171,-0.015433258829619538,-0.07379817183186817,-0.05965300910603805,0.053717489951555404,-0.03374721931949382,-0.013982143772437288,0.04230293867014783,0.05057539445739832,0.011332163609474389,-0.01714762827396498,-0.027545764709392555,-0.016373075113917723,0.03594135227237293,-0.05436395609884459
0.02610597054433219,0.006819232534517292,-0.045550549001352164,0.01053899321880828,-0.03950741638958465,-0.027962849801985417,0.033412707838438555,-0.03418319505042302,0.043900162934725234,-0.03837512467608573,0.040510184290801506,0.03787479599676639,0.013102222939651976,-0.0047897646900438556,0.052159386565548006,0.03938259594608394,-0.0022951184586182333,-0.05240596096352469,0.0359016347222904,-0.010782551986138224,0.02992603240924448,-0.02145070109339495,0.01220601576377304,-0.02883744414408344,-0.05075250227049287,0.0630467054495198,-0.05712771281162033,-0.017812275623943948,0.015437200737469675,-0.05068441309367008,0.03592801947725739,0.028680218062723833,0.055199614168849415,-0.01345447107606375,0.02659941884288186,-0.018601136285332644,0.05780964507505754,-0.011038552341958927,0.046229597469085296,0.021916184718272252,-0.0019009235242462366,0.02088397872643893,0.038218510333975594,0.02594304427293171,-0.0016995245550462132,0.0071483517605566505,-0.05015185041373426,0.015031826632891501,0.010122297593685261,-0.03243770754636163,-0.0016402203087900276,0.028059270791301924,0.045491209534714985,0.019585614414902124,-0.026004454089685162,0.03367935166202453,0.024196771773451198,-0.016871839408486453,-0.007685903248821895,0.04348895294335402,-0.02552817916578828,-0.008210461732336,-0.0170533414150735,0.009312682698269494,0.020894570036349883,-0.014880336980440128,0.002536381227183035,-0.0430435575187339,-0.04697852958189054,0.04507708345968093,0.006649144671710822,-0.04286381299765693,-0.03564076719135396,0.05228183783100426,0.05432954893259356,0.025655844269337463,-0.04467549633048521,0.015607893230175921,0.041060074408293686,-0.039114349467963785,-0.009311917322383957,-0.04030114673660116,0.021852528529780004,-0.018075257971540516,-0.06438047595145456,0.04749996814247856,-0.04322679220204529,-0.037949425294050786,-0.0002556334942690954,-0.04221628707592805,0.026880796055061888,-0.05035519132524244,-0.04176974528470151,0.0035468139031048203,0.03066266245783104,-0.03576207671681843,0.038260176296368645,-0.043105912446171665,-0.05672057184603673,0.01537501079250855
0.05923036962943836,0.06123812313615451,-0.03724079783016291,-0.059451977751978316,-0.025030524050223626,0.006410869507549807,0.028314361306213346,-0.05597068598337999,0.053213053368713466,0.0485457011455914,0.029804539274293936,0.06831389477297324,0.02048911013426079,0.021514499213040262,0.023523585548828316,-0.06450786610750053,-0.036931725997611985,-0.022455757115289347,-0.015670058687779806,-0.059674721925903444,0.04484288421261074,-0.07585810859453655,-0.044297569170744906,-0.018152004025586727,-0.005871335637481404,0.026065946119096437,-0.05577367800057848,-0.029907612830937565,0.018298078757472223,0.04091122317850197,0.04711940378377698,0.032668068305283675,-0.04840308517193998,-0.028920762447758156,0.012812042753109236,-0.06442662455773379,0.001979032726542672,-0.04456008041983585,-0.0015573290251985664,0.02931308840548612,-0.04544768790874493,-0.01091797119512074,0.021579220133722998,0.007350754615402326,0.08161680237854367,0.04222032784041864,-0.02699181170426972,0.04205864870938954,-0.014157995831699625,-0.028659129008649076,0.06252877482835117,0.010494336380269328,-0.00856130015641124,-0.05957223681734459,-0.012758009636492743,0.025063290647309062,0.0011724387633885748,-0.03572834392638117,0.05163574418400908,-0.016597373846656424,0.004102623693777683,0.05083018336564343,-0.008456215926065597,-0.006906787301356172,-0.05136780986212684,0.03974468867605087,0.023024431127220468,-0.0009969659623015603,0.053994377928804786,0.02598021822429117,0.0009780787833525272,-0.013174338213698346,0.0550703932141205,0.024673932862081038,0.02648814533715811,-0.03697488722774333,-0.03871537600018998,0.00044880149272951846,-0.0005859527264379937,-0.001036331587792051,0.03932204433855972,0.002094850238013081,0.022393542279153855,-0.057317735357119245,-0.022103015376681814,0.009163461325109217,0.004012206110134586,-0.05985933244966262,-0.019657328648028348,-0.04452209966314189,0.001128009723702845,-0.03564699934125635,0.043407294145937046,0.04087269230712267,0.041961637960075536,-0.04191340228154974,0.03521049751844253,0.0649736356121573,-0.030320058475880002,0.04649725378652674
0.03222085323262189,-0.04602052610292244,0.04102410504885602,-0.03326151692370657,-0.05186367256449634,-0.008540493925330664,0.0040775630123647474,0.03810626037803826,-0.008067796713275765,0.019503014777244195,-0.05536341287599315,0.04093208200332255,0.0108371095900628,0.004185052476618711,-0.01729836844491976,0.05085612515599814,0.04364108998984046,-0.030183132621031387,-0.006535059938495602,-0.044531409662278656,0.035448791113223146,-0.019286648926181277,-0.05246141720405876,0.020012481197470032,-0.026091292514887322,-0.05297038258376398,-0.021383674388632982,0.01724507555468608,-0.018462486997794632,0.04717668919861695,-0.018843041202092677,0.048747993304780995,0.030854300761949425,0.01608854235992871,-0.004417179514713113,-0.014405470133698535,-0.007450430237164367,-0.036118617726732284,-0.019696059232312678,-0.052069264254480024,-0.027049722881173625,-0.02703579027493159,-0.03999285850609058,0.0271650436254502,0.04959485209372382,-0.05323459814040143,0.014414880476131944,0.025281587134144565,-0.04748954388161182,-0.02506542219884086,-0.01977120518061318,-0.007128965333871732,0.03154462410773191,-0.009946101430742168,0.0129352378665382,-0.02235522223161415,0.016063048715628615,0.041967334886814124,0.018941634481703454,-0.011256619832540183,0.03071460237974383,0.0346816310362092,-0.05447032366768031,0.025332326415969265,-0.05136137997628206,0.030252504556853653,0.04930356229568225,0.004527451587632717,-0.04572186024863813,0.04636458081545704,-0.053240062739688745,0.003117386161578472,0.028305042718457924,-0.0026803653682352653,-0.01110630043457841,-0.037360264956674716,-0.04620928361926002,0.02134801473144023,-0.011252887846501558,-0.05301763737151845,-0.0379465769411056,0.010982567484893034,-0.01571840829095911,-0.04796437272582414,0.04757778061821662,-0.03898471637289471,0.0455705145666991,0.00025466650397368604,-0.026288515158403816,0.031742234424554386,0.05671349452543113,0.02712306201965306,-0.0054781671333727555,0.04800139750959706,0.010089664679995865,0.01700395262971308,0.02603523794061508,-0.0023267640593019113,-0.04618101584136479,0.010561024497386981
-0.019289785061446532,-0.041235412991038924,0.011523866697283227,0.00849764327460555,0.0385434827560368,0.031228397535569875,0.035870906222535706,-0.032115095919227836,-0.031207404576163292,-0.027463311489442883,-0.05390686452504505,-0.01399442137441168,0.04811148487592969,0.022777225209710053,0.02931293964397903,0.011940321495928352,0.020134071134789055,-0.023590494406522784,-0.04877899920296234,-0.04041323140196799,0.04135003154120748,0.0746790843806844,-0.003990367201218463,0.07170049655063332,0.031430379877703155,0.0137980350597496,-0.06170373544859342,0.04567491536615955,0.01482532058323678,0.021494009603836215,-0.015629192823050156,-0.03964754889450652,-0.007224569890375933,0.030951247101250433,0.023723200772838682,-0.030458733563124788,0.018733322548685784,-0.029220944889327662,-0.07807126666505415,0.05013496604977007,0.01560246765965276,0.00046743203528766937,0.05112904907235217,0.007311699409320571,-0.036431780961766046,0.007704659717321029,-0.058167748124113496,-0.03452964949737563,0.02353713013144723,-0.04358690229872837,0.020179335229568794,-0.021658446165821223,0.028220125756327156,-0.007111944374447446,-0.018405855856599387,0.024897277566037268,-0.0586541682360705,-0.025420371387701007,0.054672382483888,-0.008129830351680451,-0.0073371378798424616,-0.02062636054783955,-0.04572572039101244,-0.00012058042461964203,-0.03804351829762504,-0.008427491945411165,0.035535570882319636,0.03058566451457095,-0.04669408031444494,-0.04387229714816295,0.010469610944922108,0.07460207411864177,0.00555906753574971,-0.013296066341321505,-0.04769422258667526,0.05101234360349401,0.03513015668690191,0.05438071317351979,-0.0002890690670092116,0.005588494549144269,0.011762653876496474,-0.035617800601732245,-0.04575479609074222,0.09278275232110826,0.03493972717158638,0.024913916147170565,-0.026533936794153765,0.048755709835204095,-0.0048121601782588,-0.014411524681320002,0.0381499645768294,-0.020541988096617392,-0.027248849761349708,0.05111475362228598,-0.05506016939912927,0.003303225290610501,-0.0189025339218555,-0.04073735779353666,-0.011787444429813975,-0.026442862201234086
-0.03126572637460779,0.023867023294804692,-0.004457051116526309,-0.04429184858162635,0.04571340291337714,0.028227583109940498,0.040120446213635086,0.017614377660261926,-0.0512507396658521,0.00011915358701663902,-0.004966395028075486,0.017871238568660082,-0.021944492465450768,-0.023308043208965137,0.04965085266414861,0.028049985562898144,0.026260048280994604,0.018856803735342043,-0.04236605144337328,0.028583411221632677,0.018285051112634693,0.039377409080581745,0.055127359523365345,-0.04925834715261243,0.014594106312480402,0.05526766944327635,-0.005650844774786361,0.008397283633957817,-0.023267952828827047,0.020992912715509276,-0.028499802870836637,-0.02770828195026957,-0.0010352298433997258,-0.008158150199015599,-0.01724058492501153,-0.02730250064563366,0.006249625504357643,-0.055370082412410516,0.029195683621012235,0.039234270665746945,0.011451473967438435,-0.051819996157099674,0.029747366918547898,0.014944853202199201,-0.05830521561457279,-0.012522689574035045,0.03584189585790914,-0.03604730589607012,-0.023345755854176684,0.04750747373117302,-0.02170232648648713,0.04308705590493813,0.0520609844007602,-0.003438160608583355,0.016208952152799026,-0.046266084746838874,0.01823210824117664,0.01546747713661805,-0.05118748374614575,0.017304202142761203,-0.014323516577070854,0.025896227125205607,-0.025389936242318646,0.05304576730685024,0.03156013861007173,0.04034962996443173,0.02139212926395696,-0.029147523553390606,0.017362820062735224,0.012020479420001106,-0.01807138270248501,0.05714048592786028,0.0023854693394829577,-0.008527535344279276,-0.034979416632644145,-0.009531575258240017,-0.00738943083690444,-0.02594776136861985,-0.00835534673151761,0.012716075278141637,0.010304842918620175,-0.023221662466555944,-0.05401207911577646,0.04777647711985444,0.021047959957211555,0.03018314063045168,-0.017781886855588493,0.008272480324297195,-0.010434477767105174,-0.015992343109521936,-0.027214813051226194,-0.02982560637682344,0.03253478531490894,-0.006345442755121249,0.012397816062142802,-0.015832562021453375,0.00026860128047995365,-0.010815896242009852,0.03223427430554188,-0.04674009779432088
-0.030768426450120297,-0.03125519308774903,-0.036626919541504224,-0.02800010817183477,-0.021198051582471043,0.032271165330222874,-0.028504345118360006,-0.02983721090589047,-0.008952412584004421,-0.04399362893733379,0.011448229994068899,0.03703845226602007,0.043680426874362514,0.036060478448880766,-0.02743025874667576,0.018020594896156403,0.03651599386691481,-0.05360564787938461,-0.03913078351577754,-0.02260292220336911,0.031762466598118,0.0006650906109622586,0.024511061325936237,0.04094557715876636,0.014343339939603702,-0.02376957489531062,-0.012333864619675197,-0.01138970047101309,-0.05467607077300691,0.039516493005009604,-0.018551749512635763,0.0172038876887496,-0.051975225014595124,-0.015127069723646512,-0.06920519852813883,0.04130832116333707,-0.055345053922228236,0.0321172914034063,0.09039614472249141,0.12665185499801188,0.034417775911365626,0.05939033823425067,-0.009704519165782261,-0.04439942191407265,-0.055984229623043114,0.03288301492451408,-0.035345998012779774,0.04909686696243852,-0.004709126712144451,-0.04364731502857813,0.046186566716355244,-0.008269186879033231,-0.0021636354687054314,0.04748946883727101,0.0064382329682044865,0.04532689703755878,0.016360745823562402,-0.0657855676967034,-0.05206619982617384,0.01312264231603185,-0.04673613991696126,0.05789797002556489,0.05570388330327239,0.03037391220168096,-0.04821180905276418,-0.025536550658856603,-0.002743950577180085,0.029961362759903243,-0.012474976092056667,-0.049890785387546405,-0.04304186911603154,-0.05005661948642845,-0.03735273097541461,-0.018459756625760666,0.015262393437512643,0.04153693398399375,0.03522516690011543,-0.018071093431347475,-0.05511470827432557,0.05340734904303611,-0.011401738684712972,-0.021796108141838324,0.030413697410014522,0.02544125980871002,-0.01838338880907758,-0.04416474101170088,0.06634194279294749,0.046366749546260556,-0.05956184424240615,0.04560898061288167,0.009169229101413707,-0.05884883142666201,-0.030715206653754126,-0.04566258378170298,-0.002108470385135203,-0.001015542253083836,-0.012836870634859937,-0.03619876264616155,0.04139146507462304,-0.04966818593204374
-0.03948769761201272,0.033438680794682415,0.036069590629414505,-0.009685777213807154,0.0264585366936596,-0.030102356879674483,0.006117133049676913,0.008435559408367288,0.0036157460063754,-0.035389155540105265,-0.013105509545559682,-0.04081091389094334,0.019486898103302387,-0.02219093901634252,0.047966686021554676,-0.019406580349762243,-0.010429168141922778,0.021355081613994017,0.05488293879243516,0.026461913762458707,0.024619636318815342,0.010896716648541263,-0.046143168557853206,0.024601779298515914,-0.04067404485602729,-0.01950013659042185,-0.04362774948479608,-0.025528778455436846,0.01784535005307043,-0.01176854285444019,-0.01082293686380311,0.04817122426479696,-0.04601123285106422,0.05494137809341574,-0.019715049740428894,0.044602802913518286,-0.03901530008662692,-0.05527287054596848,-0.016100575303228993,0.04281308361587518,-0.023616575344419726,0.046484132511571415,0.044379320282973,0.022300109939349243,0.017898466113874217,-0.03559158774594488,-0.0454306037802465,0.020441306039696194,0.033454710958436856,-0.024367631481405902,0.0452698710463254,0.05941964033571982,0.014714851503474262,-0.05786954640098316,-0.00766190376239126,-0.03495499848986641,-0.03346020490888384,-0.057301170652308296,-0.023487777445031725,0.004188360606807086,0.022741127616598206,-0.04367024223263615,0.04498645580556175,-0.04197880335839791,0.03421275255282843,0.021058320854035233,-0.008698591326388797,0.020086401983038904,0.05415290823508064,0.013156094913225192,-0.018708646652530865,-0.042150580479042646,-0.039476808752157165,0.048870265930301075,-0.044403445430692176,-0.03236110747470767,-0.06196148542265677,-0.025204496648244534,-0.04981403099408554,0.0023658104422590266,-0.025246971639180178,0.03255775775556418,-0.04490853449209645,-0.05516904176294489,0.038532899078731045,0.00894986716400467,0.019801318699115517,-0.03723711884406276,-0.026145312066111332,0.04213827960862188,-0.005660078754837633,0.036932709153374536,-0.04447165350997433,-0.022285816792308635,0.07133958933341492,-0.052272572019026346,0.09534668351381799,0.031023051497397182,-0.02821902733934456,0.022176544740539095
-0.038159188192715285,-0.001463644532259172,-0.006195169450903931,-0.032824328985707196,0.015649036253662256,0.024312144583856152,0.0074717961135260065,0.003523732056682785,0.03253890459071325,-0.05211619726733008,-0.03872545701987275,-0.029016435148053004,-0.03630331635142271,-0.019394833374513528,0.05383231467406955,-0.051738320315099416,-0.04703301337555318,0.008533585384042867,0.023353014398012722,-0.03847647388845346,-0.028507003041120024,-0.022623466677926606,0.003446808954218343,0.04046623583420846,-0.026983387222642187,-0.03380977503199953,0.022997547058595705,0.05150351685236749,0.027973930155498188,0.0003747454256165366,0.007388756760827375,0.01061788036592435,-0.04345872161997172,-0.05379493157131118,0.002756491801827007,-0.018768031710632155,0.030851743851139847,-0.003959924746943577,-0.00967750456054633,0.057136275207464574,0.022268389353144784,-0.020924901603482173,-0.04563528638271498,-0.030182116911454726,-0.042061652390473894,0.030326537903014966,-0.05014022020922269,0.007513518265065074,-0.028596820462590135,-0.046274898368804024,-0.034797098643177114,0.03613595483297828,-0.03920823979360426,-0.03597441280769688,0.023392147571423067,-0.022069459394979268,0.03614623686878321,0.05134066900164812,0.020766688213544687,-0.003951054676632429,0.01623008009373895,0.04825857534631111,-0.01499951203089021,0.047784060096481284,-0.0421421375783651,-0.04696988969641799,0.019301502786012007,0.008101909874303792,-0.02958425642318796,-0.024184474877929567,0.04451797856156199,-0.049421687712672434,0.0243246020796425,0.04718115136521801,0.03709250790791477,-0.04502605034221915,-0.05343096583333798,0.00012321666695104224,-0.019428132568353088,0.013645097243348116,0.055022137911123044,-0.0033686866881125514,-0.03677810769666254,0.040986871242084236,-0.0021933102179994834,-0.05975712363443694,-0.016258636713795894,-0.010933229017979896,-0.028267994033559972,-0.013071543602039368,0.03718181372221071,-0.038948955403088334,-0.046360420916518826,0.03848460711953106,-0.0444229689979302,0.035122285173052,0.050834607975808827,-0.004793156865212485,-0.02937998019190643,0.026103011876380998
0.009049202672520316,-0.011390582449857764,0.0010319770087306949,0.03288193195114719,0.0031670119331183733,-0.018346822927988667,0.02589068624032545,0.04312834907649237,-0.02123531166051568,0.06750866618117893,0.022257940851206824,-0.008371417463734104,0.01508381301548416,-0.06594118111801602,0.02636882093701379,-0.009921687258700134,-0.006371134780688925,-0.049258500401135864,-0.014644734532267919,-0.007871189826293378,0.0493070080654465,-0.047493098710494404,0.0313271310426515,-0.05794593890992707,-0.014331695218894642,0.030300596578729074,0.00332003591517244,-0.03958069153142161,-0.009922621522030045,-0.013966441119848006,-0.03439635716314157,0.008393662934443531,-0.0316804593344799,-0.05784232075675578,0.008552344341358783,-0.05089489887326904,-0.037713833811564956,-0.01928749483229458,0.03909969085977052,0.011861702097973749,0.028070603390075832,-0.022629218269450337,-0.036039216185774534,-0.007092371906751131,0.00011440862817381375,-0.049058846790868756,0.012774378219496361,-0.06103671800950206,-0.05142624818957517,-0.028081139362064945,0.028132338768112865,0.02741829693209097,-0.015766742229106658,0.035994679526929425,-0.04092620916802186,-0.04899290785200958,-0.02531040123578721,0.043493508628124816,0.013668464966476772,0.04914978886207679,0.02143778374730634,0.02390699063378424,-0.0027944501003504332,0.01537808309890811,0.06475797282130363,0.01859111832272797,-0.042607214537926194,-0.03103825620764407,-0.028804369147567364,0.00461781202016624,-0.002611263859555568,-0.055491246980484875,0.03285614008350043,0.010145848868188671,0.02420683825120103,-0.006165970144587954,0.06682687635796133,0.040756518126426035,-0.02158268004691692,-0.0496389548053279,-0.0009794718711585624,-0.039219460935795473,-0.039709379938309794,0.062134178358285386,-0.06308572753422144,-0.048976421393152794,-0.022647634646587127,-0.0017539008512617857,0.013947176291499526,0.04837897304050542,0.028536870083291286,-0.029347600855981714,0.05531671956932963,0.051485995588989655,0.030762678703042133,-0.011546066763505412,-0.04801420162167043,-0.03440176260691231,0.04147891188089947,-0.014213086540976874
-0.06068926982929391,-0.04431606240579181,0.03843273177553297,0.016785847699318384,-0.04969141686243061,0.037596822276065776,-0.007352694429660499,-0.05532957244984657,0.025567348671944063,0.04362410994108269,-0.014612438497561707,0.020077851501792927,0.0269594114805364,-0.0022171518712687643,-0.03197537134829987,-0.019777124446789102,-0.055122962986117685,-0.05108965680333104,0.035227790913158356,0.005935476287334371,-0.02517572775891328,0.06802032475809998,0.01095015890539008,-0.04100774600058673,0.02880284717637491,-0.009988452080990579,0.031804587415641225,-0.04468890562898924,-0.05816677267440402,-0.05005553525649973,-0.013682862447518327,0.010471483569421083,0.008553130550957739,-0.016963984826357647,-0.004574766814032784,0.037049869092985105,0.052188416890237864,0.011291153907831758,0.051359109264281645,-0.03249700387488427,-0.009155862638585067,0.022321343584786532,0.038977300096885124,-0.026190094502966322,0.05694707794600957,0.04375622699063031,-0.009607850367450769,0.0669437964591978,0.07182871560681922,-0.0007431520486585212,-0.023363685882316278,-0.0051862075968544955,-0.031096454447021263,0.0002794059102364729,-0.0432828053833849,-0.009315630499353075,-0.012646879536164994,0.03525119173625908,-0.02619166726241606,-0.03978167962585984,0.009435066993268537,0.04809772597707966,-0.06320423215604945,-0.051451057400315324,0.014676831247866265,0.04800004779736199,-0.040301126597521726,-0.020234009687720933,0.03885039118835198,-0.056733074544423,-0.014328622957746293,-0.03137486725685024,0.04560716244754494,-0.0044401326276237866,-0.030346359196168758,0.039340445441594395,0.00016898321234158994,-0.025641951672933906,0.03867018176430115,0.017558305693927388,-0.04602306350659243,-0.01889147641842649,0.00947990790882104,-0.04954768831733161,0.0364681145742239,0.04654095373687982,-0.020415987446992804,0.04826144656996065,-0.052319732133036825,0.012520668487235218,-0.02391966903980357,-0.012480692620204303,-0.06311964932280836,-0.04335297751744203,0.028988930018287076,-0.004064183280890747,-0.04315540016413268,0.056020792712608236,-0.03993677049635129,0.046296283444616525
0.03490144096286412,0.0008236306777325735,-0.028867260218742835,0.05750908533096033,-0.02524796584285266,0.007684536942743628,0.0790729095340373,-0.025503520098794915,-0.052882514194581884,0.016405423754585802,-0.06547056474402801,0.007953636180102128,-0.04857156944617867,0.007501514457047417,-0.03679899113337331,0.014996512304665782,0.028811946638285412,0.006288474072977726,-0.0006990798772934025,-0.03631781199985593,-0.06554060116810347,-0.05936469681434021,-0.02109481123225834,0.02577613643599387,-0.007896073566434968,-0.01786247433248229,0.05669182283329352,0.04889054282912617,0.04380310282180412,-0.03634203070770244,0.04140195201101646,-0.028622678245951716,0.012172912166517044,-0.0006018568684600608,0.03481674638044609,0.0009850915283170197,0.007955687448382714,-0.011866754814531743,-0.06938407348276787,-0.05835160607221496,-0.009871425661684788,0.03787759768678928,-0.01435158467809316,-0.06656517568561159,-0.027988465772765824,-0.048744687853962694,-0.02132189383717328,0.028471244396731567,-0.03344242643071037,0.07183088347071709,-0.07885770291015823,-0.07371660193158475,0.007541454060085898,-0.0161134674886794,-0.011882219389873628,-0.0274052753209156,0.006445804588930433,0.01138904262155283,0.01946210312475748,-0.006775525993618003,-0.005043645253113556,0.05013277467159648,0.04723617021472561,0.04360638249511664,0.057211088153878216,0.02351996450474721,0.038227167304227413,0.050826778707758834,0.03232139708955804,0.01440196660522127,-0.025852751958843262,-0.026264870382915476,-0.039922191069780365,-0.03178693242250196,0.018812265784930383,0.04972278014404832,-0.00048085161021929303,-0.05524905903795859,-0.02051792785286907,-0.007985227926160467,0.02846862812441763,0.008366861019932345,-0.008282654586003017,-0.049520971795213045,-0.044931592008681936,0.01769286465442574,-0.05571434832917667,0.025334804814167722,-0.04865011309115451,0.07334808917725628,-0.023346189630001467,-0.01744430894689628,-0.01705743275504585,0.027747683682466277,-0.03581323821494838,0.04164470191008481,-0.09625332005358053,-0.06361776310306838,-0.014105971013984267,-0.04935603044089824
0.05713767919418591,0.04172721413322458,-0.02477914320836735,0.06535781105458274,-0.0015548221556574535,0.037200889455121434,-0.011614648352193363,-0.028214180859445194,-0.008838016245212344,0.033393747297217426,0.03824719355047647,-0.0018557218612785355,0.00965193341450153,0.03149237741459424,-0.017736676252273525,0.019887144939358652,0.012048973248740973,-0.007349738666423314,0.011856008433398258,0.009464060308044978,-0.04827504051076127,-0.02654881746376186,0.022330352353179834,0.012615012323546372,-0.039802863866481804,0.0021793969508558937,-0.008308474307817764,-0.04926604118432103,-0.011863563417149935,-0.04636943443778508,-0.026356881819533554,-0.02270797666645061,0.01560473038286195,-0.01571467737275498,0.05031970088177326,-0.013047984271088633,-0.06821600028411773,0.011543774379688072,0.01751800351450149,-0.020984743848135725,-0.039831625205536986,-0.0008132172594282542,0.06535274896748189,-0.037322964100937765,0.011208327931417983,0.043787411478562674,0.05594348007667243,0.024850149394251866,-0.04464136301027788,0.06308669079758059,-0.01440821682199775,-0.011537152912750212,-0.02715488019277684,-0.012955043729886092,-0.007505711816798171,-0.02275035570110276,0.047685375764357295,0.06488975571702157,-0.0299949141286643,0.04154158979483573,0.04303460052684828,0.07506827579037663,0.05146487695977788,-0.05583478921375959,-0.03663389600646348,0.004284662125763663,0.02260588520690052,-0.03544390646922831,0.006177599990417588,-0.028425602319868844,-0.044771934751670586,-0.05958955817477392,0.026004599740631424,0.014815664392467934,0.05193669100138542,-0.01592766656216028,0.03259444943672452,0.03830374834747679,0.02449196788747828,0.02979931394105363,-0.03428920466933919,-0.04653284677606424,0.0514422705435432,0.0147184014388537,0.001030683740717165,0.009674034873470027,0.01626811218004413,0.057684864712638416,-0.01403311815051437,-0.01683092211317284,-0.008145636133232036,-0.012429880294513966,-0.035034588392297256,-0.011730451448713673,0.020419686177904996,-0.05855520393327403,-0.03808055178146046,0.04346214880683607,0.0386598920855334,0.05009916371180107
-0.035445582561053256,-0.06385793314341093,-0.022084237507063002,0.03490543293204304,-0.019872692445005773,-0.03924818270212047,-0.022017907488473314,0.0021718037592581905,0.037949860059558284,0.0046182389727524404,0.056913537426317384,-0.04100505478247465,0.01025982017583375,-0.025784238469599405,-0.007217604316605323,0.0072577815399524044,0.012861994598504439,0.02084846143030822,0.03203344408830931,0.0577833430726075,-0.00017210360389045324,0.035554894527523154,-0.022910643523195127,-0.03058494294746162,-0.02759274652037298,0.012664626070080448,0.059765703025549365,0.03877979795677316,-0.014408521163985272,-0.03699360572014265,-0.0006279074641890102,-0.04025328421685784,-0.02669054172915049,0.05016046800580674,-0.009937861734469682,0.013278240322615001,-0.03644502484080941,0.06012386533455718,0.017189790273608417,-0.009740997221476002,-0.053559791179949516,0.0816282464395587,0.013578816039292334,0.07370468196191825,-0.06756213597549894,-0.018355598592242145,0.03269168864758305,0.04277802800269562,0.037763556105661886,-0.058814331261242116,-0.029894766009570587,-0.012103704187858994,-0.059789191615247275,0.034108037605334936,-0.04640703901838073,-0.021096562982158812,-0.02103817211490223,-0.044118396814354366,0.0010847393856098968,0.008488186702563443,-0.017829538974207276,0.03205995032738318,-0.011581154043665493,0.04899848001811777,-0.046697766177440765,-0.010986414522744178,-0.013836186740491937,-0.04100169841983398,0.004572084181709329,-0.051217836844222264,0.03692977292936268,-0.011325329032909132,-0.018793857852139818,0.06433477808987308,0.025907298071278947,-0.005375061561816922,-0.015235450270660544,-0.050332038637183614,0.0323157729489536,-0.019293760276263974,0.003601603214389167,-0.04177086041415633,0.03735384840672388,-0.03570871241859447,0.02115411213362735,0.04240335701950408,-0.03225978275038756,0.026968663096229233,-0.027660686467744285,0.009471956536623435,-0.025680918695932947,0.05846195770508464,-0.009078182421165185,-0.026853947908411557,-0.018491963344995616,-0.022383622333981886,0.03543404614538803,0.05640615073573864,-0.01411421643247309,-0.02619320457266886
-0.038830562068388544,-0.03780660644272254,0.04376961780902588,0.034701632526085956,0.04939301094003083,0.045740682165110604,-0.03635812321680412,0.039699260296915125,-0.019626224737569455,-0.021040288554245466,0.0441219120034421,-0.056563992141717416,0.05813051471456045,0.01310020005260326,-0.04070000372955083,0.05042153127781549,0.008863631892329865,0.057640967810155236,-0.022585497461960508,0.010104474804774846,-0.03577076483115678,0.0682231204368694,0.05409395786756834,-0.03019965369264026,-0.01310705974968912,-0.01762540196555952,-0.03594714292428478,-0.04290078875334517,0.022759308577861296,0.0014921397209162167,-0.016993419341715665,-0.03102211115382255,0.008455027443477744,0.0063552770078521064,0.045846597040241334,0.03397260371138538,0.03219385135777549,0.00535382647069454,0.007354469591277124,0.0022384764098252736,-0.038139871035088306,0.01853246599307949,-0.05316106828341439,0.03248054636790062,-0.007005131834656544,-0.013850220250763727,-0.02343557715384517,-0.05585569961688154,0.03728726984161339,0.024529036202624466,0.01226318779841717,-0.00265064435186834,0.05511255454564777,0.027582612043317738,-0.04229018972391336,0.0480344374240347,-0.0770697833467053,0.032433384264719624,0.03499145329931649,-0.030330068570460937,0.018050843155701914,-0.06498259593782862,0.03112757838916618,-0.034629902126124414,0.009838531570113216,-0.045388970635217935,0.03564369772082635,-0.002669182423926982,-0.018086936622632742,0.001497848476208302,-0.05422718494053041,0.09953576179836014,-0.0043700915956449825,-0.05834326513017401,-0.03926689298055397,0.06917078153704376,-0.026768971770847996,-0.020558530210556133,-0.022801002913322023,-0.03775904064101819,0.030681049246480827,-0.02029956770672236,0.01077490307665345,0.08386032026590565,-0.01842521458528931,-0.017917397511866866,0.016958349959335404,0.05879441858791274,0.01817028682504779,0.0014706530898958524,0.07168522503354109,0.011904446422521765,0.0338959686573163,0.04346233246362794,-0.05473154630408563,-0.06775465434992757,0.0054601203220613565,-0.04728394143639068,-0.0052302767027442515,-0.023844704900800838
0.03161494978489479,0.01839436972514017,0.034600482672360794,-0.046109146005529865,0.03825781123266495,0.042410290169030744,0.0227382799085786,0.013398371854186174,-0.03527087802896079,-0.01664070053054257,-0.031714117815526306,0.011109325930628211,0.05706670366317559,0.04881982160037603,-0.0049241990018380885,0.000729461693349071,0.007989992793364901,0.05687623682132204,0.0380403158215253,-0.020779157945124565,0.011967680766974019,0.041784277113597106,-0.012711204206433669,0.04167331103944159,-0.03635641455471407,-0.0558467929441414,0.051229015763550274,0.043650732597696654,-0.00706467716967864,-0.034481236932959985,-0.010510111801358404,0.015399410169978743,-0.004291562908328836,-0.01950882601509995,-0.050907192582589564,-0.03396178091611162,-0.04910318911946319,0.0022696926011154532,0.002069503810808607,0.011225112418109813,0.05252884047283344,0.016599171671091754,-0.007041042591786723,0.006742757314045432,0.038088189244297625,0.05129654546703592,-0.01692337099820075,0.054710800593731956,0.030059504820744758,0.010021414954291447,0.005358380066620787,-0.036650650254174064,0.031280202806244106,-0.009218865173662001,0.038193793406844,9.006481010214465e-05,0.030288726197402648,0.01291281794469312,0.048674118472787915,0.011609268847580862,0.040178659303436726,-0.015100846457483531,0.03404609012507489,-0.014045275636520338,0.014216005110422576,0.05499029844979189,0.04907102034292041,-0.022785760007151948,-0.027318045310135267,-0.010949935459250269,0.025338805586058288,0.0349101149610466,-0.0532586749480216,0.028498891618740974,0.016488326890847952,0.030828836368316348,-0.0354025574948306,0.01949586297353538,0.025808308777402963,-0.03756337371508333,0.0014870881785173813,0.00804423525524397,0.01633005439085696,0.0149955363957159,0.01986514548898477,-0.03610331552078782,0.03447706790079482,0.06153561941085787,0.03466893838768793,-0.008299399184891814,-0.048885891174591425,-0.05875076750423002,0.05138492038068088,-0.01770823734600826,0.00032216086343998405,-0.04019115972125906,-0.039804063323408696,-0.05018608619587264,-0.01487464562439474,-0.026251108960783205
-0.05180503901211267,-0.003718193340574008,0.0036480300854913926,0.022840553868756067,0.03897431308691495,-0.010125867909813731,-0.04153275853475803,0.030215486261879115,-0.005301023804874771,-0.02090251494929258,-0.02878685050794529,-0.04511842432368077,0.036852770386565224,0.048328887035449394,-0.0333427057090337,0.011085879453652137,-0.057947055554840525,-0.022874479172217622,-0.02439960796276957,-0.02559522276572805,0.05021879586234705,-0.015025668104861683,-0.01813562390413001,-0.013662482518884805,0.038696232807069665,-0.03667525223664672,0.034596114062809574,0.03173181552331616,-0.0644562020635328,0.04168773016618381,-0.02314307048410457,0.024313723689645378,0.004920782584823258,-0.03170629300938037,-0.010469175737506777,0.017686028453124423,0.030485410343992166,0.032377386512380396,0.06401553957514915,0.07322872596860922,-0.0395872410834378,0.052439672057585304,-0.031730735630897657,0.0500917858103804,-0.028914051302313618,-0.004228748738472481,-0.00807364672688983,0.05066534858967421,-0.005253233814001424,0.05726245441138156,0.058343518780715725,-0.022173502601497162,-0.04855890961078432,-0.049864462457135994,-0.021275969876993848,0.016601922215337957,-0.02920159670054023,0.000350821347297253,0.048442798631337165,-0.006615157192726657,-0.0003479416816942706,-0.06431698597199807,0.033227751997884435,-0.03736165287691425,-0.03129299160851369,-0.03385966606486454,-0.02785375290447304,0.031115955056892085,-0.012962620276805057,-0.05672787235802697,-0.047079928412582725,-0.029932605057294472,-0.005104237191263538,0.004007305916983323,0.028611926101357113,-0.03616034090852644,0.057503546536756676,0.013814461462127578,0.017202236074280498,0.034326073749174714,0.01666486861305358,0.0005319407823348624,-0.03203633597763023,-0.02743241921987955,-0.011688802795116825,-0.058809983420266734,0.03861287010530428,-0.02887788496648788,0.056050694537926,0.02747374845899403,-0.04828303275738536,-0.018449922668681135,-0.025969908244105295,-0.04530004791253321,0.0131875103276497,-0.008198080445222125,0.076743096178818,0.05871404365157192,-0.040962073066378606,-0.027028637830893706
0.04838030256331705,0.038784557028278197,-0.00968143480465103,-0.017335354869162472,0.02729315192255764,-0.019604619444498907,-0.010681106464040241,-0.00691715312893962,0.04718986970182421,0.0439896399649561,0.028039382270739474,-0.038758512012473864,-0.04637838604819912,-0.037685625467270445,-0.0545629239487412,0.0005283228271290073,0.04117649737583785,-0.034750708872380284,-0.005625524474577285,0.05286116953750555,-0.005310048426160799,-0.008855949860362127,-0.03451033856265246,0.020027490513939847,-0.04549266658914377,0.02639813868782906,0.05557912278711356,0.032079283141709956,-0.004715679970811026,0.04092318602536708,0.052660558152033354,-0.02974306787220537,0.012965145474247606,0.011154681035626663,0.0399578983124978,-0.0330269467866098,-0.06293941667133936,-0.02212449993707351,0.022984271657955885,-0.05517151454767804,0.04640728003995655,0.00917832817488125,0.054119368023537395,0.04293357819991826,0.04925932028630923,-0.03174481417354156,-0.017162137852976125,0.012638517108175734,0.004981407711452719,0.06226830184154422,0.013940761708729921,-0.032695967430759476,0.007197129755772297,0.01200059030514523,0.008132212643554671,-0.032871576645229134,-0.03709561670062067,0.031110308499111602,0.010581080753418655,0.057492705166872486,0.04597499168783632,-0.015027746658619051,-0.03473275686873062,-0.03961302339381391,-0.013792996389113051,-0.03332665890263587,-0.0454538103305436,0.009942782890622951,0.019392587887004174,0.0020127300788473513,-0.02175647022140457,0.03689420648930243,0.035997019087334346,-0.04223323670337068,-0.010651158383422064,-0.034272178903927,0.005328291225799697,0.013520512432813984,-0.01336347609596159,0.042525763041847,-0.014340244438865233,-0.0020382009850649463,-0.009282589328709933,0.041714481985906285,-0.016615134051329538,-0.0011752486032860093,0.011244547711865031,-0.030945060660995755,0.006106808200247891,-0.03330822834442205,0.05484158552112999,-0.004114797496543731,0.034071464832564666,0.02610417634973305,-0.022825730572492015,-0.011263938226883551,0.0521005649691465,-0.026289088179929115,0.03955110006493863,0.02448640268132211
0.029395744514887752,-0.06542775509342946,-0.06116153557701563,-0.03426165564438902,-0.05721826497688393,0.04761022933026384,-0.027346050936161017,0.003138021823669728,0.04165593847184212,-0.006161242363504766,-0.008616795314715254,-0.031065994045204114,0.022391845115266186,-0.05218241373582627,0.04604874071807674,0.035487419114919275,0.03026061870872339,-0.014781143188411448,-0.002679034294751691,0.03074588293489173,-0.06475614579203619,0.06763721977249286,-0.054508284794733367,0.05529421149504262,-0.03827952323479739,-0.0030135996167119155,0.03534586748954677,-0.03637321144799396,0.017994060190786122,0.03189545170796295,-0.02511412287755908,-0.027253567080088095,0.04329958342247725,-0.05311394352786615,-0.06324189840789303,0.048958024594239855,-0.011675590566774545,-0.028535355015251007,0.0320113329623095,0.03283431506234601,-0.06727675582072921,0.07136097704499825,0.0058327882517219005,0.0005478747604305373,-0.03872502114986612,0.00853875789851637,-0.06912275127194491,0.023868034924497687,-0.07154613197277661,0.007473555204020075,0.020326523643995967,0.003813976860117811,-0.011198022049759272,-0.030279380921165482,0.023838491130499836,0.060573446162458446,-0.06956469929183778,-0.055946836688472924,0.019441175973868397,-0.038671383396061826,-0.02455764424649327,-0.010004977113912001,0.06059679337923823,-0.050540210514854786,0.022099062525050964,0.04341660215093833,-0.04524291577340372,-0.010608673617656546,-0.04658487232155968,0.049870123747540476,-0.04726406967163276,0.02218945934427605,-0.010022692382792119,0.05270193474819842,-0.05085299154500936,0.07110249180354512,-0.027792422185534325,-0.004827636756108474,-0.054887004292739086,0.025849090265516815,-0.05638356315672704,0.02302293598774196,0.045891842556534654,-0.049699696481305004,-0.0619429116118042,-0.007628469145933695,0.05148578392455741,-0.06858968599546554,-0.013924264520166062,-0.04040989663994889,-0.03151109566019991,0.020488937328564244,-0.03614466190230266,0.02275698477026653,0.015102503056153148,0.03764626149752823,0.0688967152357566,-0.03959165787271465,0.005070318571211863,-0.0017227692233936019
-0.04914152365980437,-0.006265436760640254,-0.06161412600542944,0.008959179222901823,0.006319577031205263,0.03412958692759019,-0.04302349713542354,-0.055565749443661945,0.02716524937571071,-0.07407255801232421,0.0015008825383091178,-0.04940232285474022,0.025371052055860904,0.032284283141383416,-0.0027685213067220973,0.01860644550215355,-0.018803917715427314,0.00508882999227198,0.04646225274801514,0.06378865187195498,-0.07405753323698,0.03767850202469533,-0.028791229406895803,-0.05490478694046426,0.0029398024884676613,-0.01826157399064006,0.048896575501208524,0.00029664409876340337,-0.026870532200553618,-0.01917204497005108,0.015900644309032534,0.022119696147313083,-0.042525181274344424,0.01188415447708424,0.003870225084558257,0.06457389513530379,-0.053312005757078534,0.01942183559262002,0.004785164454945216,-0.049527174117085696,-0.025866539392256527,-0.017633265694649184,0.02800371704145579,0.03545383692801275,0.04294762428956178,0.02920020623840926,0.006061281998161367,0.010665222164194533,0.017316065722124144,0.02734092962247532,-0.006702635191682495,-0.03301419550702647,0.050216256129245095,-0.04117102992732444,-0.005136848474936572,0.027925587179500673,0.01494331049295523,0.05302205609303342,0.018550280790561147,-0.010688071291757752,-0.05593729744354885,0.03915701651506716,-0.04823855027194126,0.005476104864119815,-0.03097208243981689,-0.0030081336490975527,0.017600589277226002,0.04842892312594947,0.005123668661291008,0.029866015449427092,-0.004840373807007181,0.021848090352206473,-0.03731567855368114,-0.010438365031356905,-0.08298980783592345,0.018035373049903984,0.001541562823422431,0.020646796903104156,0.01862549622186237,-0.008649768964365567,-0.0401769618730567,-0.007138442606212762,0.013917546352361846,-0.05529706699709333,0.0645902650458626,-0.007340380741360826,-0.0670427669027282,0.05434800528542621,-0.022381683898309933,0.02760200120022039,-0.006987335360416884,-0.049979065915686904,-0.05977105896139249,0.03865400315083639,0.024283751166036052,0.025385216311329253,0.026105754759509967,0.022295370131790084,0.04542888611814902,-0.05008514504258805
-0.009748066209046755,0.007172414911212423,0.038215662025130756,0.016361280449263767,0.014125958948408679,0.04247110927538053,-0.04846341377571419,-0.013924027403379767,-0.023424953899245173,0.05786654089513563,0.053262610065900585,0.012580972114572958,-0.028408825660436145,-0.0038307323842470633,-0.0336301733661434,-0.013337280779829038,0.005648713435315897,0.031661333394585475,0.07309924673222387,-0.017077616470451563,0.0360867792494346,-0.0909710874061652,0.023210119093655994,0.05847527218362884,0.005822012867024065,-0.03973554235072682,0.008193836771844593,-0.015152693724361078,0.056183583915737544,-0.03406661775568052,0.03530424228405292,-0.02273030111066204,0.002931579744032841,0.0018994033548296332,-0.07921545902927099,-0.028011363758293256,0.009936733147533388,-0.014913161230508966,-0.021523283039691914,0.02330997269414865,0.006883325087830403,-0.014269788389289668,-0.04555720175473147,-0.03697119456496417,-0.011029227421808676,-0.022741953746611858,-0.009440939521184627,0.03874314190476625,-0.06080731029696723,0.007614054122533379,0.06436978352223288,0.047904020254524504,0.037843423181406356,-0.023006448191138583,-0.022666027462234943,0.03970698054152112,-0.0015224133207319853,0.029084483650097928,-0.0017805844829532314,0.051088308154272934,0.03857304845375514,-0.03295713850089542,0.014269615823415249,-0.010345481919958181,0.009282644150278085,0.054902156035084505,-0.01657459590473322,0.004704629624722331,-0.01774918862758453,-0.033892535937709564,-0.019619937269741164,-0.02538997008884213,0.022479360876820408,0.004916061324680025,0.04726716978529875,0.03455639111573709,0.011228656847731827,-0.003245546927568776,-0.01695243942073104,0.023708204363050177,0.04828171159270458,-0.027689094947447566,0.008241931652224956,-2.8753329641681506e-05,0.04095261310137883,0.04084095005137943,0.06694795695817748,-0.0467930520222589,-0.016431140812294926,-0.02744818677894916,0.04698117804549358,-0.0042107157729668054,-0.003308792738878059,0.027712865048289334,-0.02369696055489071,-0.004816432852697499,-0.026271552620917425,-0.03783502922179893,0.006208674002761725,-0.03447887272854687
-0.02269638769529705,0.002034837829110926,0.028663349606730587,-0.02239068402293897,0.008500838212343655,0.0035103014182213156,-0.01313197163060724,0.04090894955674682,0.036375634824078074,0.07071375226477034,-0.04903529005690492,0.059253434552135484,-0.0249133948596064,0.002080322993127495,0.04915267687096686,-0.0132377792843811,-0.0030879940376256215,0.044041388184461704,0.035306511437609905,0.01327644458868589,-0.024999044460656258,0.029243898936923238,-0.05527056056423704,-0.009017730393159559,-0.025088854978117442,-0.00782425874905536,0.038224108696670055,-0.01339907684492388,0.010706738684400596,-0.04692786698845836,0.03410892550664899,-0.05524560342417889,-0.007976678546896137,-0.0010712486802086348,-0.031519965581255145,0.00199335216015628,-0.03825685109844967,0.05828184619954716,-0.054843692747581566,-0.025756511259523062,-0.04349206240052904,0.03086528370339895,0.06300020060207845,0.04739070509383263,0.017066193530596456,-0.0004465047630362842,0.03179177141254261,0.008662896940758164,0.0027006858050263546,-0.0033876579754117332,0.02161400115089879,-0.01668239494824166,0.060404978525236235,0.005198974286145067,0.005613595610436533,0.02129463832759594,0.014801702819769199,0.058001098577743306,0.010838102652465136,-0.002918347123283926,0.014630032950675489,-0.04987131411039676,0.04659271126625987,0.011785638003168616,-0.05711669559505578,-0.038016553952792236,0.04225102005895278,-0.020015868809991566,0.018189801907053448,-0.007519583317051015,-0.025336580568280576,-0.00798393290115641,-0.0026440409236305512,0.04155667920027849,-0.0323484293604421,-0.03962524169439655,0.04116289416941526,-0.04272445063492369,-0.021854302132905606,0.0012063759135785693,0.03238218923565558,-0.03534879632636732,0.02972940310394412,-0.025854698281919605,0.06314920226441002,-0.018756652307695517,-0.06358577421649475,-0.007621702549401978,-0.03897466223683146,-0.04843740347387404,0.04210392740901973,0.04186840560612616,-0.0026940407883925856,0.022518371910881192,0.03836683007776398,0.029118159956870816,-0.02609825102843347,0.079434749480663,6.538551870644383e-06,0.014821438474025339
0.006292838420305542,-0.0010413450364282221,0.004041217783074543,0.037665327020611476,-0.003998217039280808,-0.01000825124954473,-0.029093617294251705,-0.023242033950840926,0.0019546546139582945,-0.07069464022814968,0.011679457812860587,0.06054580551921148,-0.028623588406225073,0.0080690405754598,-0.03834876571308029,-0.00605342599164823,-0.06004445935838328,0.010688693083196683,-0.03233174249215633,-0.014744742907154464,-0.0397227000879742,-0.052367393414944015,0.02159427149992771,0.023360181112897855,0.012283318665343686,-0.03095754506999997,0.05348432763137984,0.028531623758513622,-0.04123275691036656,0.009887927146246658,0.032717848003727616,-0.0025424745867291816,-0.0060299898627947076,0.03837420313805409,-0.007952419282653042,0.008773197889503,-0.04502810938138088,-0.028661147832907838,0.021927216555970876,-0.04563591261462675,-0.06287990841738576,0.032666880655814245,0.002836612615262462,0.021348756327903017,-0.0328662943222892,-0.041849146265456216,0.036430688738752,0.04414805566897674,-0.035980976095389916,-0.022118293475583858,0.04856939827147712,0.07586347004690554,0.05253939680325872,-0.0040226842098700505,-0.04017901478146506,-0.039816982640784,-0.030815563191196143,0.04458523047930047,-0.03688843528697371,-0.02764316561140076,0.015215828999833002,-0.03848379324153911,-0.04433065956803463,-0.034789222697986746,0.001195137453078905,0.03146213604314327,-0.04444497641217936,-0.045368299870668774,-0.011351478819093848,-0.026537707494909208,-0.05646282149426947,0.03751128567676533,0.05992467357128391,-0.040499257130476085,-0.01725211445895608,-0.008653672160936585,0.026914054812983246,-0.04819204753472528,0.04867408408393813,0.02711066946743501,0.028951281321191794,0.03074451556304178,0.0346375557457312,-0.027969187441004413,-0.044440514164996336,0.03265410121096195,-0.012834260456340112,-0.035179301740053445,-0.027917706639908592,0.01678494568854777,-0.0361356548087281,0.05217539292297833,0.006230401119476062,-0.03476665435249438,0.05915391515223562,-0.03387803656010154,0.05614117301296989,-0.018920481288196303,-0.024657711958667283,-0.030164248522151983
0.04309036755938829,0.030814274698258724,-0.0044615972266100834,-0.050883111094440055,-0.002218459652200039,0.01999141364466246,0.039094799808400624,0.04029165897398586,-0.019390985327608346,-0.01001409875675767,-0.041846572669611504,-0.017644096024894234,-0.045134902508849835,-0.03784477638624992,-0.03760562706979064,-0.031102067532781944,0.04404942524941011,-0.03256851099129379,0.05818299869492733,-0.05057174658352105,0.006972824058986073,-0.0635568526972408,0.047457549432501245,0.05411330852297648,-0.004842375609922869,-0.005591771123432967,0.010817914669992247,-0.02863053101546555,0.036317984816150325,0.032249339660128266,0.02746570682320741,-0.04218130783526165,-0.012155031561459367,-0.049713210854250456,-0.028012524981044312,-0.023726173008354143,0.0012184974763501763,-0.004421401941831226,0.05928339083520276,0.04500165131031656,0.007247608310536183,0.040866609948203264,-0.0023203007104626787,0.004880785577375631,0.04965489353837015,-0.010194442532075172,-0.08385348908229172,-0.004819870771822089,-0.03437098291315405,0.021617993646531046,-0.002926755513296113,0.0420645890277514,0.035110423058491706,-0.028775101065262224,0.009365039260256332,0.008248513644786465,-0.057612970750249966,0.05092262911380228,-0.04298687034517142,0.012951181530755716,-0.023726698696759578,0.04701453096631391,0.021259680610544607,-0.04183520320481963,-0.06540419216127794,-0.05055704988477654,0.002725164084252374,-0.005943519998867406,0.014553122460293659,-0.06071156338429273,-0.031222375687288296,-0.04204225630875384,-0.009206216280333019,0.002251469643165869,-0.0013937352089862744,-0.049156675400183265,-0.01394044795031537,-0.06094553829025287,-0.019154707324576695,-0.0436922897854674,0.042433536100993145,-0.01138721414975512,-0.03670265914305292,0.008339229751536495,-0.04336767603386079,-0.01661137748351841,0.0032119124904580352,0.03318661307790201,0.0009901140186598777,-0.011447538232043612,-0.05640100799231105,0.034081426687946156,0.01070714676011854,-0.002923252741833081,-0.017906524435324245,0.010325032246173782,0.0018249930066330305,-0.0777498525064212,0.040145939514231115,0.02678346535563418
0.0011231521532467678,0.054602970563618146,0.05447817683973142,-0.021567139840239107,0.04953114718262319,-0.007004145866920496,0.050930940038965124,0.050393099543775945,-0.031470643673836264,-0.005164435322712685,0.015929372984615713,-0.03668940164124968,0.02567643600414317,-0.017110548334396722,-0.03264744985599135,0.018036027113476377,-0.02590573483471433,0.03345187216608639,0.0441300643271215,-0.008326637652268569,-0.014843411282616202,-0.03151751622226702,0.013119916828430042,0.01122138074713282,0.00504862203691799,0.0386366219201691,0.024433448747566717,-0.033489196594063415,-0.01612178952991938,0.041947107604668084,-0.0018904646023711852,-0.00768793652930072,0.028011826124208262,-0.04510258558316538,0.04111844879034477,-0.04039119872874966,0.016404760006129383,0.030461750027894172,0.034341023666626926,-0.005341739437140308,-0.030171247690969315,0.009782464217224795,0.01979617580408094,0.048048281427821894,0.027647056195689364,0.00013545940381473772,0.042471506965360936,-0.016634996935248145,0.04036209943169523,-0.026720987325672612,-0.036151001800113734,0.05291604855723258,-0.055784082474472335,0.015783479690361476,-0.0008593822103935755,0.013013368133357673,0.00038759438698855297,-0.05284615818079481,0.03481416633080692,-0.021804309719113797,-0.03244494290148618,0.008931320687560324,-0.036083346387302956,0.03750958552327267,-0.01896909234017835,-0.01819948886874625,0.03183623186544416,-0.019224392683041266,-0.02170047020821819,0.03496672894562099,-0.0006510589190842001,-0.011473318913854528,0.001113818058938657,-0.0013531437584937771,0.04306757771288159,-0.007413214884756146,0.047254668120475546,-0.055302174616507084,-0.034407975705073354,0.04848931445109811,0.016424177727313354,-0.04126556264226529,-0.014007060955038276,0.04230980938936316,0.025259398684357018,0.05394970573969707,-0.0049481649421372785,-0.05818148372173765,-0.052944910764393636,-0.0558568064630404,0.002131496641627251,0.02903597371565142,-0.0516754453685507,-0.033885430066457736,-0.05719964070908046,0.025459278386178213,-0.04952002781672807,0.030101099708402357,-0.0211227788916713,-0.04844866160247073
0.042515799933827016,0.045097721247874804,-0.0633015790759822,-0.025912019746119532,-0.04971054846264091,0.012500589628367325,-0.057030557792145296,0.04818307239435049,0.025174259931394133,-0.020928564525180413,-0.011616635781251898,-0.03275947238573318,0.05225466542542194,0.021817345772254797,-0.043291588185178004,0.005022563105117509,0.03947560846120727,0.0267513660714113,-0.05797606030752661,-0.011523427290811149,0.037532757375172594,0.020728701381468064,-0.03932473928642141,0.040861370178543334,-0.023739639039863647,0.03173772920080769,-0.009485363736640945,0.051611455824262936,0.04302822949570285,-0.05495700164917425,0.012456465004137943,0.023697701440380494,-0.05362346021475804,0.030098039018000653,-0.0689853237231942,-0.0032157316065350274,0.025101979516622172,0.03568278718158504,0.006892752857488733,0.09117711113772535,-0.017741382435798442,0.007213710067890697,-0.007812955680889987,0.03517175196924974,-0.0759367110987567,-0.023664701137304064,-0.03664618989258492,0.029236361060494997,-0.03757628906230023,-0.003824622504212666,0.017522364244078915,0.07885581545933643,-0.045492500455112016,0.01793939128180851,0.008222198343706457,-0.023036349167810537,-0.0031496005630844647,-0.04813188134197792,0.009300580717670238,0.043605940555069785,0.008175029539035816,0.0003072562892580962,0.017665763979734805,-0.015098569042225507,-0.03790349082650089,0.028185507060905373,0.02249352680573942,-0.0210353288595155,-0.0028124745643864604,0.03619074841265697,0.03424726926700627,-0.06690271063529063,0.004590861457799486,0.05498204725367426,0.007304640596698629,-0.026459538930039488,0.030444837087419983,-0.025613167702651003,0.007242989837152947,-0.024834825672823288,-0.05749306031397758,-0.005377673593443853,-0.01097275693605307,-0.0609726430599997,0.03897283056395787,-0.026980781543359783,0.047488394111674506,0.007946227795160904,-0.021796550752952584,0.008261540458744221,0.019625511499418238,-0.01853136897560418,0.0318152660229105,-0.015747975618232258,-0.05002903554657187,0.05006886121177911,-0.010826787191825001,0.024781205079200324,0.037206371592603656,-0.03209335605245491
0.01788012976058042,0.04432177546355049,0.01967905344639093,0.05536813094073046,0.05091158469041732,0.05454440417759126,0.035262439808007605,-0.0468923010809618,-0.04899171287268566,0.0012923990966273349,0.04017392542892041,0.016040944106372922,0.04499976554561069,0.03580302632880726,-0.027037155577042563,0.019169603682563915,-0.05241266484078892,0.03676939360735449,-0.04041119438650581,-0.02403037143031559,0.014743757612282625,-0.024174804434667532,0.027217519165779573,0.028515187330916587,0.04005068635928643,0.012698035199079602,0.030177673893951436,-0.013603005890991605,0.007050601950159107,0.004639930269789649,0.028632474681884165,0.029535612783468695,-0.051421460466117085,0.036473838283724254,-0.008297987255410564,-0.03884334663274626,-0.03093736037799019,-0.0023912957170431864,0.05481325046777965,-0.03347149289782581,-0.01611289540932994,-0.045288255929155266,-0.027622102472375645,-0.008438639021225734,-0.04936730733335418,0.0015839744126474006,-0.04642505488093296,-0.025075241550570653,-0.029667414435837168,0.00039097836337390735,0.029204345050760163,-0.03383246818281162,-0.05551127982289118,0.03536826299270949,0.03769474360531696,-0.021391617925501955,-0.04542869762222754,-0.03218541324423288,-0.048731853658950164,0.005621606779072872,0.04555278166885342,0.018690969715909538,-0.022786813796302072,-0.0069064691705841876,-0.001618785319910487,0.05197075171782657,-0.010694438625253237,-0.02321742925278768,-0.032141057438106385,0.0332833973625858,-0.013657927940291324,0.025331340651709874,0.03666815841227964,-0.011597998805391021,-0.00743090583840645,0.031698658229908964,-0.04060651849484087,-0.0294473996646988,0.023466007808267287,-0.008869862552340577,0.023915427234511278,0.06115007723161164,-0.0027567446894593587,-0.057025785066487734,-0.05444468632500771,-0.061994539314833425,0.0010286094798081056,-0.04318499715156573,0.025829871172346582,-0.019205323941182257,-0.0038437382208157543,-0.04956154337081166,0.02435693732435138,-0.05403693664725767,-0.047866073613324185,0.009026611803548487,0.009521654475481856,0.010174422359714202,0.05062213892777833,0.0035252518140912984
0.03737548108417264,0.025568945677674704,0.051316473677304325,0.0198628984336413,0.008028630859276758,-0.014691007685701809,0.011459538415756785,-0.02096768384504452,0.016142771642485607,-0.04948785732217468,-0.008928836173341698,0.04653309240290954,-0.02233904555371089,-0.026522580456381804,-0.019063052535064278,0.02674060059843576,-0.030861630758394605,-0.0021495498847646,0.009996967292960833,-0.04048862825903187,-0.020901031975555935,0.0503122230206457,0.019816285873663797,0.005189505521634906,-0.047121657520659284,0.019523665871551275,0.05767943060979668,0.0421209931995455,-0.045889541882722915,-0.047265016926579466,0.04633993360306582,0.014206191110307307,0.026230219106706296,0.005715318417277642,0.017701100834450444,-0.028305098670869798,-0.012966014769664688,0.009567864535639351,-0.05086260250014155,-0.039526213143349705,0.05482104631481707,0.011853376218371932,0.039367800428288684,-0.03143865742527185,0.04153585359881451,0.020905954773356553,0.024594106629911756,-0.0019092079773246242,0.0093099422317527,0.05122133550840734,-0.008804768367896404,-0.024046241505678582,-0.02565089073682438,0.022984568732527685,-0.03664503748716813,0.005277386165612591,-0.056197119175065105,0.01584315597189873,-0.00496305604560706,-0.01514331358902185,-0.017003220312164342,0.018832357908834724,0.031080339151289743,-0.0526987329270253,0.0030551366869868094,0.047923510297068955,-0.020221276119929427,0.0008282273404061634,-0.04781158900147632,0.04243374477576431,0.013307243854012194,-0.03460298935368487,0.050139611296376625,-0.04623746329726851,0.02231113758967817,0.03100175005590317,0.00026232025964791485,0.04830778938737819,0.013353271816165746,-0.0030519844980179964,0.056266323060009935,0.03708123775530534,-0.019670442323302246,-0.03177777424700497,0.04975183628093121,0.010067601522929771,-0.03311396665773912,-0.022165907687032024,0.023254903856789706,0.05534469365854754,-0.044133506616825885,-0.016966090894698065,0.05358019680157389,0.03796449803385077,0.030409328319299087,-0.006478370138815386,-0.003936751672611253,-0.054361381928375405,0.02189361538068685,-0.043868237552639716
-0.027143657631591336,-0.07633193898643033,-0.02560190358459181,0.02195042331659933,-0.0025925251319229604,0.039742876602250767,-0.07130625557315774,-0.05208794062616772,-0.004786766873669787,0.03744397811519582,-0.00968682945626916,0.030196497968130485,0.05293850650584676,0.05353109639008107,0.03757129171166435,0.05655937227457492,0.025270373985589033,-0.04799886380612158,0.011001224823491541,-0.02620070415950383,0.08879509611538723,0.0034119980545397497,-0.029756874930293043,0.06826538379028771,0.0068371454724017846,-0.08452585583124815,-0.048426479432698885,-0.01415993533182312,0.02670666625978877,-0.03055486833731592,-0.024870636977678204,-0.05472896347166987,-0.05059659707957575,-0.0024092894671988887,-0.0003326337873011945,-0.05095260941989544,0.00018464976778503097,-0.028003186338232178,0.028948729131154143,-0.01708166131242256,0.051758329999767774,0.07917363175991167,-0.006156453540770366,0.018873512499572212,0.08062746031492807,0.0025031615539310905,0.020476232853193846,0.04136870886134178,-0.0016137970139964266,0.040754721359982184,0.06372950338940943,0.04051184904268448,-0.0548829653570199,0.036517370550717354,-0.07808727072158297,0.022970721917216663,-0.03259188517376446,0.02478090359378276,0.018339619705370187,0.0051926585487609405,0.053251878361147476,-0.03001969118805287,-0.0556864835109494,0.020740712487235902,-0.0004954734305233281,-0.04687356354650999,0.03401607039412312,-0.04006077413990574,0.0162186667344911,0.007754973963389912,0.029433831106533852,-0.05059454706372187,0.06582457079152118,-0.06991014580986678,-0.06860918281770367,0.00989370285722153,-0.022205446630157943,-0.058760318999214696,-0.01696297103833522,0.002433201872045072,-0.05729927945508773,0.004570811215923878,0.02538401297986721,0.04066067431768299,0.00330870126615683,-0.057890761675086985,0.053941515966969895,0.06302770047131342,0.07516760339188351,-0.057210003208425446,0.03498566987954705,0.007033953075120141,-0.04891364428919336,-0.008177132278712645,-0.004771603957775927,-0.027443264887019342,0.04513738360980396,0.05384438809847707,0.01817286984649731,0.030134650124744478
-0.03221295952856986,-0.020286472709593047,0.022702138635168692,0.04886623247784116,-0.01953550963900941,-0.005719505004490385,-0.0367566780310525,-0.03971826862472825,0.03589213338799634,0.05087132280883425,0.05652293913785331,0.005987560257635621,0.04070821328510632,-0.05141582231284938,-0.009279222898444154,-0.013756979447337999,-0.003176816565984429,0.011112740412036437,0.01914113949506243,0.017408210590316695,0.024826683514730705,0.02050661142809597,-0.049793093311270784,0.02459032701675858,-0.008130056819755331,0.05589877838860711,0.052331798041886056,0.01461743917819885,0.030575742811596966,-0.04548365575101212,0.05343282493102718,0.02615371293334625,0.044824343300266356,-0.008285173476468535,0.037473638649136644,-0.030610580505010726,-0.022676812137783227,-0.05513022132195415,0.01783626363227498,0.08609423974182681,0.040970012061018066,-0.04467886215716522,0.009492783375736323,0.0455144068977049,-0.01616309300944388,-0.030034890299357492,0.030466487773050582,-0.01669445097418109,0.03277747209345386,0.038994101026586625,-0.024362972060326664,0.055168028416765526,0.020158815446940103,-0.05490550891133307,-0.03370639528749821,0.022104493722924844,0.002810322007036248,-0.04499134577623155,-0.001419710024584152,-0.023902058221497154,-0.005649909932433208,0.010466603277023413,0.05038783211765832,-0.05469941306652606,0.009433910632607463,-0.03185526189081631,0.0033704916437510253,0.03057686840903637,-0.01760611012639462,-0.05253114013308105,0.018722120831908422,0.0182538015118829,-0.0013680640452170439,0.040265727995401145,0.007800192504759142,-0.008888920978986985,0.048196197054794894,0.007148558661841351,0.0001302504747595344,-0.0380814319581524,0.012658059578262135,0.05658701383499398,0.06241491966467974,0.04089818238870213,-0.012653677247654519,0.014202632172638513,0.07288397624955684,-0.03361438841426119,-0.0601872877528566,0.01779732424750681,0.003715403694923299,0.00981155452235642,0.04565570876568878,-0.04655613173252074,-0.06015359621909818,0.01128568837493264,0.008149614945368394,-0.021394000001800334,-0.04490592082341557,-0.031100034989679518
0.01542871040522964,-0.028934264889968593,0.024068952436455772,0.01927627567113339,-0.04758208028178407,-0.016079666457855607,-0.05829691567440572,0.02926419127281028,-0.03504581328815083,0.038243867344697695,-0.024670594839886623,0.03780997578122585,-0.018313174508393787,0.05435966808963534,-0.06537153953564825,0.05414762480271127,0.009402858533148734,0.049777123514965896,0.049911183106600615,0.08452447273755861,0.007731013163150355,-0.022795943808008166,0.010883667714235289,0.07793864902402974,0.037877542587083285,0.009466844663011094,-0.037447070103617,0.029754330864760543,-0.016010006143771596,0.0008917474340162444,-0.030634988230795766,-0.014434296153755766,0.004940234880469608,-0.040039969974414814,0.05997686168266217,0.041770246947129996,0.03864418087392928,-0.003924470363951437,-0.00987446508423538,-0.05761103290166944,0.04580268389761104,-0.06388813175685631,0.0821650195197029,-0.03388660708007122,0.06792666812075294,0.06992878981741323,-0.021560531761194133,0.031157854694702673,0.020679436522960896,0.003648486316729138,0.02379126232070081,-0.037347152031694524,0.041105366885666156,0.0019349965124287403,-0.007105876584532786,-0.046338852258773225,0.04930623741118385,0.08347205314200176,0.04698971940461441,0.00902317862048108,-0.025572230243912433,0.004060815405258038,-0.040071708547682154,-0.04829956919766623,-0.04062548283744612,-0.001073688706951224,0.018608477301127368,-0.005349410342000032,0.030877103798320833,-0.0005409012537353425,0.04866515377044117,-0.0007158415018968481,0.011344351505878258,-0.060077420781964444,-0.005709390799891838,0.02507366551190021,0.03680635080387487,-0.05682933805619628,0.03923579548112531,-0.014219803245191232,-0.02475187687524061,0.012453566088451018,0.038697344975608644,-0.0054918448776445005,0.06447547071499522,0.04318346243116998,-0.008327573049801976,0.05838951324098387,-0.04986146235816403,-0.05181665606322309,-0.007720832715761721,-0.018466494543186694,0.02292726262775102,-0.04010306723467748,-0.03578897031168573,0.034396088627610115,-0.039331651959581986,-0.028525412119038158,-0.02450756718173134,0.018279404915650967
-0.024940273838381766,0.09037746845761023,-0.0480329652513379,0.04818798317148438,-0.01010363487848701,0.03581541009647056,-0.012613687421228773,-0.029356863919816085,0.009707232489010984,0.01018841536355025,-0.018671012941978246,-0.005934677002239911,-0.035529074192488644,0.057903939653540265,-0.03297866675117119,-0.0008670515326215914,0.05773428286781906,0.028903468404581828,-0.018111628919136945,-0.03795751436107011,-0.05400167416359414,-0.010111367970449042,0.0486633490584911,-0.008002288748172024,-0.05604764682340423,0.02811861742433115,-0.04858325963844994,0.04010681104329142,-0.03249766788598668,-0.013197683826215622,-0.06751064852430584,-0.005539935065084077,0.042033097873435524,0.01854333612458532,-0.005536965712334258,0.008612027365651387,0.01041734387275502,0.05066187071983525,-0.0006443309519944167,-0.015272762691258001,0.04324412622126652,0.023215519862497595,0.06527628389268683,-0.013770645648252002,0.0031754406989546223,-0.04592096780457545,-0.07656233508403368,-0.04035467143709076,0.008006986615502103,-0.05350373688926344,-0.021592666587385248,-0.012058563584883431,-0.04799519820788269,0.00927671085055298,0.022881398186778864,0.05161497842677201,-0.004096257076111956,-0.05994702568249604,0.03300750374744076,-0.004678893961926965,0.02113341398625247,0.02847470522173015,0.08254110638401828,-0.05312704114436315,-0.03348076061775592,-0.02787478928414604,-0.056354494381707296,-0.023861306786807097,0.08193722978956278,0.04174940257803986,-0.05023659898387896,0.024658919920082522,-0.08024416952844973,0.019881457555639522,0.05194928609691114,0.05105342298049848,-0.05317606469660944,0.005166544377871714,0.011725608395042532,0.04255583362248164,0.016982961985159934,-0.004646848857763119,-0.019064787018781535,0.04243579805604584,-0.054632270739307924,-0.034373574062574484,-0.03648635221518669,-0.035171273767875044,0.030358249870820718,-0.031981661069442106,0.07036410201951432,-0.006136137966008594,0.045464205990976295,0.03494695485478223,0.012897537110789226,-0.03539606314846221,-0.044971997380990815,-0.002908912030050963,-0.007033246193672762,-0.01120190851982001
-0.014089805671128833,0.03392049448140039,-0.03266543603291559,-0.03301638638462696,0.02075726256620302,0.0485208810446933,-0.027473925993492732,0.020536086724097086,0.014047719680476753,-0.03375134797934372,0.04439044586486292,-0.050312496455714735,-0.034274697255518495,0.04681005225631031,-0.038933385811749495,-0.030712884684224475,0.025242077230979834,0.04110230696711952,0.03243644133875936,0.012933582258738542,0.019728223665030815,-0.05030656974735333,-0.05553049052568449,0.039755766932535366,-0.01679121390305217,0.00936299166332787,-0.0365425231803069,0.017796599550069375,-0.0017355084397980074,-0.05909590022235051,0.024222483892320568,-0.013022567078841744,-0.015540081883016215,0.048060602870468226,-0.0357638503969923,-0.009176361173921406,-0.0313278897755546,-0.0013599930065587994,0.0588346236200852,0.021082092348560053,0.04829401675061685,0.0160516471426673,0.024795135521163657,-0.015201975490592825,-0.02730970220960934,0.031966275374914845,0.03996493894622486,-0.03957806708519516,0.03435369718777496,-0.027655700930157096,-0.035537192918264036,0.00940997235560336,0.009962534261613542,0.033159660451579226,-0.0424019598207096,0.08019981045428264,0.00339669402954619,0.06437489647333137,0.03230157367803867,0.019964139111732008,0.010597029036383059,-0.044677244475414206,0.03392890168210027,0.007187934012877296,-0.09730512062912655,0.0501760108949807,0.04474162125790616,-0.04755045542763421,-0.006093646317561008,-0.012846570981358019,-0.043394749202622054,0.003013929438977758,-0.004706056696268885,0.0556419272426998,0.0009619918771461108,0.028446812705720494,0.01322380741788856,0.00294107268796722,0.038262776527967425,0.06996757023533497,-0.013617419075564158,-0.07151812484573312,-0.05106737305880685,-0.04579248927775833,0.047355438143255775,0.015942000780418682,-0.052712064726627345,-0.03758093299716194,0.02925864903560006,-0.026432508472505615,0.0613010326584927,0.034454677457564385,-0.02794658751186196,-0.01710821528027048,0.03742423441115646,-0.0030931353414709217,0.05915075731369494,0.03178939077530487,-0.06903616867457045,0.026641700790805103
-0.007002142822886678,-0.07020533592884859,-0.05949845246784208,0.0268203268236263,-0.010704284135298356,-0.047212001324632644,-0.07747237559601555,-0.01870023583286099,-0.00476191433044001,-0.025061699952789306,0.02596604979681449,0.027318546825966086,0.02617785363567612,0.0009270957425664357,-0.006922474668659862,-0.010625597871876079,0.05424269462114402,-0.00173640003177864,0.0527054036650449,-0.048127539684382506,0.030887381989099037,0.028694948233790294,-0.04806519271951363,0.025680617329516653,-0.022647958319652377,0.028145124558895007,0.01684196168413662,0.029352206004271724,0.0010833413439604814,0.0030749520160283953,0.021612302406357423,-0.03368329749500407,-0.006784094293524074,-0.0507391266670473,-0.007774928577832911,-0.005158189574447985,0.04422076858631527,-0.017807701280656073,0.012307678013973027,0.11996028692947126,0.017490415419177622,0.05735629173163665,-0.0029379358276077983,0.04816004092821091,-0.028208067170720767,-0.02341128312615262,0.07132510622798684,-0.0255680192850442,-0.06120800760202748,-0.03114607129919853,0.01338435689946294,0.03634504308450019,-0.023888225249372688,-0.005943922922237917,0.03186916134407484,-0.055376468189933484,0.013436590932652068,-0.021482734913628766,-0.006276538536081289,-0.033830439102337906,-0.018795009344300558,0.022598930727857566,-0.038115220979944735,-0.04846562894903025,0.08446683826484896,0.0002906070709456179,0.05049827195616397,-0.0339664352798317,-0.004222025116441292,-0.04540618354310892,0.03856700482632249,-0.058863754733878074,-0.01995181539026631,0.04430471074881319,0.015897670593073423,0.0029608984787777197,-0.04549368838062669,0.06069039182303438,-0.029992007148465234,-0.040095818623969416,0.009105431088196267,-0.008606576196749585,-0.019146962707455105,0.031853668553418556,-0.04669098119152682,-0.05482061190530259,0.08243659741722255,-0.019009423694648243,-0.007072478491189956,-0.008802650676956462,5.756941610651165e-05,0.03330054844636511,0.0358339135158314,-0.006880112326239035,0.04910901990190083,0.021951976193257255,0.010669869543402702,0.04180991628574695,-0.038131886525748164,0.055619459109253054
0.0267317041196751,-0.04334059327478981,-0.009252044349202373,0.0038855936090875106,-0.025668449685999854,0.028310807889296005,0.021024997146508143,0.004416759812349713,-0.05267024694961019,0.033174089906982784,0.06343264996431118,0.05100526263314782,-0.03115712819683673,0.01580164491677232,-0.016502986948942013,0.04075289562416394,-0.023575800482329462,0.005887390317874136,-0.018281678838545173,-0.006100771359898025,0.06054195378539347,-0.033578899112747904,0.029601693343739147,0.024283786889108473,0.006806373097570517,0.03239276823079804,0.02556903112294491,0.04962873303120113,-0.05647938670516045,0.009167308336497757,0.04320013336083761,0.02455326517769036,-0.05387781931186604,-0.048445723803208406,-0.04279628420233788,-0.030630127406011586,-0.027729443845263765,0.06855493240290686,0.02401889520587399,0.0031487100101573236,-0.022031869725799486,-0.00460515392947715,-0.03356539799288519,-0.0007663273849270775,-0.050319233955868035,-0.016207337097010447,0.006217859878244454,-0.018028760325532932,-0.025482902045505507,-0.01244101170092281,-0.022800120431506893,-0.024788928981148116,-0.047878498833104736,0.017659645822382924,-0.01216432740927963,0.019354832330139536,0.04297169890709845,-0.04908505122882055,-0.0007861569944502027,-0.05701133598872655,-0.049688237011508714,0.035983918961517085,0.005112087076703487,-0.03489827624722627,0.03957253896558315,0.017645517671512036,0.01851793920805233,0.023412228244046013,0.04913875478897739,0.03542935686358045,0.046839801946416085,0.029883910072254855,-0.05298565479261214,0.004719589324413507,-0.03927509460858053,-0.013382399106118933,0.015030002689357943,0.015721803761927874,0.04114723661784258,-0.04091239737811122,-0.045724211009741084,-0.05375287699447029,0.0007727495935646567,-0.0037310603243711736,0.017318143199501923,0.011480255735007851,0.026492841231368195,-0.00877050631737478,-0.020873026382709145,-0.039224148122854643,-0.011674234792160927,0.013048222607404828,0.006883468686702685,0.016815854578976934,0.037807496344208096,-0.004207688338313119,-0.016397360630564618,0.044267700503567625,-0.005735369196198335,0.03205508784994595
